{
  "type": "NeuralNetworkGPU",
  "sizes": [
      400,
      200,
      1
  ],
  "layers": [
      {
          "weights": [],
          "biases": []
      },
      {
          "weights": [
              [
                  0.07141661643981934,
                  0.02667490392923355,
                  0.011548973619937897,
                  0.06793571263551712,
                  0.08528213202953339,
                  0.029472285881638527,
                  0.17430929839611053,
                  -0.16254408657550812,
                  -0.17446058988571167,
                  0.0014799811178818345,
                  0.010119670070707798,
                  0.026042738929390907,
                  0.05112603306770325,
                  0.09739946573972702,
                  -0.029485970735549927,
                  0.11999714374542236,
                  0.08275940269231796,
                  -0.06945798546075821,
                  0.12349731475114822,
                  -0.1347074806690216,
                  0.1330660879611969,
                  -0.15033699572086334,
                  0.022646430879831314,
                  -0.09554480016231537,
                  0.09982341527938843,
                  -0.147854283452034,
                  -0.03864288702607155,
                  -0.19884687662124634,
                  -0.10839591175317764,
                  0.03965155407786369,
                  -0.09368184953927994,
                  -0.1445394605398178,
                  0.09660974889993668,
                  0.05621710419654846,
                  0.05443780496716499,
                  0.05048618093132973,
                  -0.10767093300819397,
                  -0.14862582087516785,
                  -0.12981753051280975,
                  0.14296101033687592,
                  0.04738572984933853,
                  -0.1339620053768158,
                  -0.18883319199085236,
                  0.16288268566131592,
                  0.1786307394504547,
                  -0.08174591511487961,
                  -0.09393329173326492,
                  0.1758420616388321,
                  -0.06308738887310028,
                  -0.014533952809870243,
                  0.02271159179508686,
                  0.20019319653511047,
                  -0.08216557651758194,
                  -0.1622220277786255,
                  -0.07942555099725723,
                  -0.14714846014976501,
                  -0.17518050968647003,
                  0.16229116916656494,
                  -0.0398719348013401,
                  -0.12628057599067688,
                  -0.02487894520163536,
                  -0.10010942071676254,
                  0.1921152025461197,
                  0.15698251128196716,
                  0.035795871168375015,
                  0.049939632415771484,
                  -0.16986602544784546,
                  -0.04708394780755043,
                  -0.06259064376354218,
                  0.032538238912820816,
                  -0.1657690852880478,
                  -0.03799260035157204,
                  0.12895461916923523,
                  -0.056039921939373016,
                  -0.1440592259168625,
                  -0.04103974625468254,
                  -0.07374811917543411,
                  0.14465805888175964,
                  0.0891343504190445,
                  -0.09682250767946243,
                  -0.10678814351558685,
                  -0.0296021681278944,
                  -0.052836764603853226,
                  -0.13547275960445404,
                  0.016766022890806198,
                  -0.157775416970253,
                  0.13957460224628448,
                  0.09361780434846878,
                  0.08925545960664749,
                  -0.14052380621433258,
                  -0.012187897227704525,
                  -0.09409970790147781,
                  0.12053143233060837,
                  -0.16363880038261414,
                  0.059039633721113205,
                  -0.10904460400342941,
                  0.15063318610191345,
                  -0.15588675439357758,
                  0.10700003057718277,
                  -0.11932529509067535,
                  0.10430681705474854,
                  0.11074288189411163,
                  -0.06819900125265121,
                  0.1035720705986023,
                  -0.11570114642381668,
                  -0.17193186283111572,
                  0.05679483339190483,
                  -0.03170522302389145,
                  0.13519281148910522,
                  -0.08161860704421997,
                  0.11782589554786682,
                  -0.11999742686748505,
                  -0.00024249250418506563,
                  -0.16797035932540894,
                  -0.1014808639883995,
                  0.1263025850057602,
                  -0.0405387245118618,
                  0.001991863828152418,
                  -0.02474072016775608,
                  0.093584343791008,
                  0.022828614339232445,
                  -0.06731393188238144,
                  -0.13581562042236328,
                  0.17995572090148926,
                  0.021310212090611458,
                  0.10760509222745895,
                  -0.03983752056956291,
                  0.08480557054281235,
                  -0.021424535661935806,
                  0.11551720649003983,
                  0.011261744424700737,
                  -0.06838542222976685,
                  0.03388471156358719,
                  -0.15802226960659027,
                  -0.041550762951374054,
                  0.006993821356445551,
                  0.1040833368897438,
                  -0.11293061077594757,
                  0.06855146586894989,
                  -0.1426626741886139,
                  -0.14480504393577576,
                  0.024393249303102493,
                  0.08007118850946426,
                  -0.1782422661781311,
                  0.18009938299655914,
                  0.04289529472589493,
                  -0.13750039041042328,
                  -0.03218281641602516,
                  0.016831625252962112,
                  0.13793310523033142,
                  0.03292441368103027,
                  -0.16916513442993164,
                  0.16335077583789825,
                  -0.16917207837104797,
                  -0.1964668333530426,
                  -0.051422666758298874,
                  -0.14176149666309357,
                  0.04053188115358353,
                  0.08586224168539047,
                  -0.10330137610435486,
                  0.0023447091225534678,
                  -0.1371304988861084,
                  -0.03202971816062927,
                  0.19997304677963257,
                  0.17837482690811157,
                  0.02679288201034069,
                  0.07767551392316818,
                  0.13199254870414734,
                  -0.20481015741825104,
                  0.10538884997367859,
                  0.15714149177074432,
                  -0.07830630987882614,
                  -0.10349789261817932,
                  0.17727340757846832,
                  -0.07921165227890015,
                  -0.05960183963179588,
                  0.04772393777966499,
                  -0.1401064693927765,
                  -0.006417788565158844,
                  -0.13857726752758026,
                  0.18718081712722778,
                  0.044202614575624466,
                  0.04896121844649315,
                  -0.0815240815281868,
                  0.1797967404127121,
                  -0.004202806856483221,
                  -0.1268954575061798,
                  0.1468750536441803,
                  -0.1697872430086136,
                  -0.1688971370458603,
                  -0.024760007858276367,
                  0.036466602236032486,
                  0.15933072566986084,
                  -0.21472032368183136,
                  0.027550403028726578,
                  -0.09034007042646408,
                  0.177856907248497,
                  -0.0838996097445488,
                  -0.01667451113462448,
                  0.057090092450380325,
                  0.05557362362742424,
                  -0.09115016460418701,
                  0.1679350733757019,
                  0.15551546216011047,
                  0.004539444111287594,
                  -0.02384142018854618,
                  0.0514819473028183,
                  -0.16276665031909943,
                  0.12954767048358917,
                  0.09688601642847061,
                  0.1863519698381424,
                  -0.08059760183095932,
                  0.031228136271238327,
                  0.10627321898937225,
                  0.049928318709135056,
                  -0.16469831764698029,
                  0.16503891348838806,
                  0.10140693932771683,
                  0.02961346134543419,
                  -0.17636437714099884,
                  0.1002756804227829,
                  -0.11945280432701111,
                  0.1675519198179245,
                  -0.13356193900108337,
                  -0.020133819431066513,
                  -0.1125539243221283,
                  -0.1374632716178894,
                  0.17280256748199463,
                  -0.1182895228266716,
                  0.06079728156328201,
                  0.036954544484615326,
                  -0.014743301086127758,
                  -0.11292995512485504,
                  -0.12307065725326538,
                  -0.12027600407600403,
                  -0.009248826652765274,
                  -0.15320131182670593,
                  -0.09293657541275024,
                  -0.03256108611822128,
                  0.1344839483499527,
                  0.1088094413280487,
                  0.11576889455318451,
                  -0.028259214013814926,
                  0.19122743606567383,
                  -0.01648944988846779,
                  0.054214008152484894,
                  0.14680196344852448,
                  0.07352865487337112,
                  -0.11862608045339584,
                  0.06634213030338287,
                  -0.13080577552318573,
                  -0.120074063539505,
                  0.16942696273326874,
                  -0.13622331619262695,
                  0.14542970061302185,
                  -0.01719883643090725,
                  0.07313880324363708,
                  -0.11604084074497223,
                  -0.16427892446517944,
                  -0.0547107458114624,
                  0.1960635632276535,
                  0.13690075278282166,
                  -0.056788355112075806,
                  -0.09774551540613174,
                  0.08171506971120834,
                  0.07789620757102966,
                  0.18297208845615387,
                  0.11892715841531754,
                  0.12702949345111847,
                  -0.02803134359419346,
                  0.11299555003643036,
                  -0.17618459463119507,
                  -0.13980957865715027,
                  0.19242173433303833,
                  -0.0317811593413353,
                  -0.09059559553861618,
                  -0.10459698736667633,
                  0.01283190306276083,
                  -0.13327422738075256,
                  0.02430959977209568,
                  0.1459069401025772,
                  0.015964528545737267,
                  -0.0767025500535965,
                  0.17174552381038666,
                  0.10179831087589264,
                  0.10692726075649261,
                  -0.07283560931682587,
                  0.15809358656406403,
                  0.10736659914255142,
                  0.017094073817133904,
                  -0.03053104504942894,
                  0.0483027845621109,
                  0.16999098658561707,
                  0.11537496000528336,
                  0.05323538929224014,
                  -0.15410903096199036,
                  0.101026251912117,
                  0.14350634813308716,
                  0.05904684215784073,
                  0.17379365861415863,
                  -0.04531626030802727,
                  0.05777512490749359,
                  0.0394601970911026,
                  0.12139347940683365,
                  -0.016960736364126205,
                  -0.07166729122400284,
                  -0.07293529063463211,
                  -0.190651074051857,
                  0.157117560505867,
                  -0.03616923466324806,
                  0.08499173820018768,
                  -0.16465984284877777,
                  -0.09230119735002518,
                  0.0023006240371614695,
                  0.058075062930583954,
                  -0.06678973138332367,
                  0.09937706589698792,
                  0.026520181447267532,
                  0.16641412675380707,
                  -0.04436001926660538,
                  -0.11982761323451996,
                  -0.1315264105796814,
                  -0.15972265601158142,
                  0.07549852132797241,
                  -0.07080348581075668,
                  0.16114948689937592,
                  0.04842362552881241,
                  -0.11818339675664902,
                  -0.036448825150728226,
                  -0.1447010636329651,
                  -0.16943341493606567,
                  0.14806950092315674,
                  0.057246774435043335,
                  -0.12957552075386047,
                  -0.15968099236488342,
                  -0.09736549854278564,
                  0.016853729262948036,
                  0.060672659426927567,
                  -0.12992216646671295,
                  -0.0782293975353241,
                  -0.023250672966241837,
                  -0.1325739473104477,
                  0.04520300403237343,
                  0.13375438749790192,
                  0.04389258474111557,
                  -0.030507318675518036,
                  -0.06184324622154236,
                  0.03962407261133194,
                  -0.08288664370775223,
                  -0.12031648308038712,
                  0.19690023362636566,
                  0.046805087476968765,
                  0.12182176113128662,
                  0.06191674992442131,
                  -0.04043188318610191,
                  0.12866559624671936,
                  0.04380326718091965,
                  -0.024779237806797028,
                  0.12615343928337097,
                  0.1115560233592987,
                  -0.04677830636501312,
                  -0.09672613441944122,
                  0.1272575557231903,
                  0.11145401000976562,
                  -0.09039221704006195,
                  0.0507044792175293,
                  0.14461100101470947,
                  0.19217902421951294,
                  -0.14186176657676697,
                  -0.02765040472149849,
                  0.053787749260663986,
                  0.16252978146076202,
                  0.17031073570251465,
                  -0.08805350214242935,
                  -0.1360127180814743,
                  -0.13729403913021088,
                  0.12207671254873276,
                  0.16689707338809967,
                  -0.030733034014701843,
                  -0.11689832806587219,
                  -0.18692488968372345,
                  -0.053587112575769424,
                  -0.14083969593048096,
                  -0.11921036243438721,
                  0.1377761960029602,
                  0.15371516346931458,
                  -0.12047431617975235,
                  0.08733316510915756,
                  0.12215425074100494,
                  0.11001238226890564,
                  -0.17981961369514465,
                  0.19855400919914246,
                  0.04444855451583862,
                  0.04850928112864494,
                  -0.09416932612657547,
                  -0.002420559525489807,
                  0.17094916105270386,
                  0.0891977995634079,
                  -0.1595178097486496,
                  -0.13328300416469574
              ],
              [
                  0.06998392194509506,
                  0.13163186609745026,
                  0.08047787845134735,
                  0.09287727624177933,
                  -0.08083700388669968,
                  0.02516791597008705,
                  -0.08672098815441132,
                  -0.023761551827192307,
                  0.1952020227909088,
                  -0.18768921494483948,
                  0.17007330060005188,
                  -0.19564370810985565,
                  0.18964140117168427,
                  -0.02397964522242546,
                  0.13295285403728485,
                  0.15716256201267242,
                  0.1790233999490738,
                  0.02261819876730442,
                  0.05756198614835739,
                  0.0993267372250557,
                  0.13281132280826569,
                  0.11676576733589172,
                  0.10011094063520432,
                  0.15004999935626984,
                  -0.17808477580547333,
                  0.1653756946325302,
                  0.08914705365896225,
                  0.10904914140701294,
                  0.32758650183677673,
                  -0.10516976565122604,
                  0.1466163694858551,
                  -0.02303737960755825,
                  0.07817935198545456,
                  0.039818957448005676,
                  -0.0703205019235611,
                  -0.0202020276337862,
                  -0.20596231520175934,
                  -0.21500010788440704,
                  0.059738580137491226,
                  0.16500625014305115,
                  0.15322162210941315,
                  -0.019474035128951073,
                  0.05110432580113411,
                  -0.239180326461792,
                  0.04365650564432144,
                  -0.022879675030708313,
                  -0.3193293809890747,
                  -0.3239748775959015,
                  -0.12884846329689026,
                  0.15429480373859406,
                  -0.273002952337265,
                  -0.3475106656551361,
                  -0.28610143065452576,
                  -0.13922464847564697,
                  -0.24126653373241425,
                  -0.46569836139678955,
                  -0.09307598322629929,
                  0.21189798414707184,
                  -0.05598963424563408,
                  0.11720608919858932,
                  -0.05952369421720505,
                  -0.0441056452691555,
                  0.266182541847229,
                  0.04949072375893593,
                  0.2845160961151123,
                  0.10281573235988617,
                  -0.12673401832580566,
                  -0.2828501760959625,
                  -0.25142061710357666,
                  0.16923296451568604,
                  0.07360061258077621,
                  0.06650535762310028,
                  0.1415860801935196,
                  0.2448187917470932,
                  0.17892488837242126,
                  0.17401355504989624,
                  -0.04047795757651329,
                  -0.16851204633712769,
                  0.001886150217615068,
                  0.09906380623579025,
                  0.1526278555393219,
                  -0.10875773429870605,
                  0.11413297057151794,
                  0.12439701706171036,
                  0.0437767319381237,
                  0.02588011883199215,
                  -0.13153409957885742,
                  0.16698184609413147,
                  -0.09514033794403076,
                  0.005977883469313383,
                  0.12505413591861725,
                  -0.011016841046512127,
                  -0.2658615708351135,
                  0.2283913791179657,
                  0.03001706674695015,
                  0.08404123783111572,
                  0.09833623468875885,
                  -0.0493023619055748,
                  0.33756399154663086,
                  -0.05519769340753555,
                  0.11795001477003098,
                  0.07133065164089203,
                  -0.18269099295139313,
                  0.2382054626941681,
                  0.08741433173418045,
                  0.06929218024015427,
                  0.11247692257165909,
                  0.05002506822347641,
                  -0.15989668667316437,
                  -0.2536602020263672,
                  0.3414910137653351,
                  -0.09018856287002563,
                  0.042986445128917694,
                  0.128502756357193,
                  0.24768944084644318,
                  0.32969656586647034,
                  0.333421528339386,
                  -0.23477838933467865,
                  0.1277036964893341,
                  0.14620061218738556,
                  0.12792716920375824,
                  0.36103591322898865,
                  -0.2333245873451233,
                  -0.13777995109558105,
                  -0.37282830476760864,
                  0.3298815190792084,
                  0.26295557618141174,
                  0.04614943638443947,
                  0.07294049113988876,
                  -0.26725056767463684,
                  0.49437281489372253,
                  -0.2287658154964447,
                  -0.07856930792331696,
                  0.12136679887771606,
                  0.2782076597213745,
                  0.028910771012306213,
                  0.32450202107429504,
                  -0.15744861960411072,
                  -0.12912766635417938,
                  -0.010266485624015331,
                  0.06490109115839005,
                  0.3288838863372803,
                  -0.2879337966442108,
                  -0.15491099655628204,
                  0.15270303189754486,
                  -0.003286859719082713,
                  0.2761377692222595,
                  0.08946637064218521,
                  0.0859982967376709,
                  0.32548025250434875,
                  -0.19495779275894165,
                  -0.5489395260810852,
                  0.18363119661808014,
                  -0.32689374685287476,
                  -0.1603696346282959,
                  -0.5055472254753113,
                  -0.30778664350509644,
                  -0.2722429931163788,
                  -0.11164645105600357,
                  -0.14713984727859497,
                  -0.052375346422195435,
                  0.014261399395763874,
                  0.26113757491111755,
                  -0.0048866537399590015,
                  0.0008193880785256624,
                  0.44675761461257935,
                  -0.32314619421958923,
                  0.14691388607025146,
                  0.44075506925582886,
                  -0.06070071831345558,
                  0.2577056586742401,
                  -0.5671990513801575,
                  0.13018232583999634,
                  -0.10321801900863647,
                  -0.13434404134750366,
                  -0.4561380445957184,
                  -0.4010704755783081,
                  0.15597502887248993,
                  0.06894449144601822,
                  -0.11255441606044769,
                  0.01369401067495346,
                  0.5155039429664612,
                  0.12517087161540985,
                  0.329478919506073,
                  -0.05831219628453255,
                  -0.26347917318344116,
                  0.2031441181898117,
                  0.06744115799665451,
                  -0.0048960051499307156,
                  0.36890849471092224,
                  0.3895191252231598,
                  -0.04924098029732704,
                  0.11591867357492447,
                  0.4795587658882141,
                  0.07925962656736374,
                  -0.38892194628715515,
                  0.14543448388576508,
                  0.10942709445953369,
                  0.16679279506206512,
                  -0.010648745112121105,
                  -0.038310978561639786,
                  -0.13811206817626953,
                  -0.033259376883506775,
                  0.06134236603975296,
                  -0.11737178266048431,
                  0.09852026402950287,
                  0.12161329388618469,
                  -0.006378264166414738,
                  0.0806887149810791,
                  -0.07539413869380951,
                  -0.0431351512670517,
                  -0.2711995542049408,
                  0.04149515554308891,
                  -0.129850834608078,
                  -0.04477227106690407,
                  0.03115767426788807,
                  -0.05029813200235367,
                  0.13097982108592987,
                  -0.009093141183257103,
                  -0.06291071325540543,
                  -0.002818213775753975,
                  -0.12623243033885956,
                  0.061514344066381454,
                  -0.012864611111581326,
                  0.15235508978366852,
                  0.0007362829055637121,
                  -0.13098551332950592,
                  -0.19805170595645905,
                  -0.009305066429078579,
                  -0.04437492787837982,
                  0.015554003417491913,
                  0.04192847013473511,
                  -0.14355029165744781,
                  0.09858345985412598,
                  0.12242801487445831,
                  0.08158627152442932,
                  -0.13817569613456726,
                  0.12979458272457123,
                  0.03501635044813156,
                  0.09232322871685028,
                  -0.16346795856952667,
                  0.12415970116853714,
                  -0.12903152406215668,
                  0.030753247439861298,
                  -0.05490054190158844,
                  -0.044853005558252335,
                  -0.007545494940131903,
                  -0.10206261277198792,
                  0.11884479224681854,
                  0.0959438681602478,
                  -0.13234998285770416,
                  -0.10530836880207062,
                  0.01114287693053484,
                  0.10018068552017212,
                  -0.12905116379261017,
                  0.08827437460422516,
                  -0.08451416343450546,
                  0.1304316222667694,
                  0.16564153134822845,
                  0.030563559383153915,
                  -0.13175293803215027,
                  -0.010869511403143406,
                  -0.09189417958259583,
                  -0.14352469146251678,
                  -0.0424136221408844,
                  0.1902245581150055,
                  0.20644702017307281,
                  -0.07646448910236359,
                  0.1376461237668991,
                  0.12735088169574738,
                  0.05366368964314461,
                  -0.1822030246257782,
                  -0.0636313259601593,
                  0.0404597669839859,
                  0.16272488236427307,
                  -0.16051147878170013,
                  0.05029893293976784,
                  0.004243616014719009,
                  -0.06649735569953918,
                  0.05751935392618179,
                  0.09036616235971451,
                  -0.20915229618549347,
                  0.01350781787186861,
                  -0.027623405680060387,
                  -0.12450176477432251,
                  0.19242039322853088,
                  0.15130478143692017,
                  -0.1733478307723999,
                  -0.17049360275268555,
                  0.16482309997081757,
                  -0.1837620735168457,
                  -0.14093929529190063,
                  -0.19842764735221863,
                  0.029282644391059875,
                  -0.049948401749134064,
                  -0.15304972231388092,
                  -0.1425909548997879,
                  -0.013500913977622986,
                  -0.19273006916046143,
                  -0.15438203513622284,
                  -0.07690592110157013,
                  0.062472086399793625,
                  0.20287653803825378,
                  -0.19891884922981262,
                  0.12128078937530518,
                  0.037946417927742004,
                  -0.14169903099536896,
                  0.06359648704528809,
                  -0.020739417523145676,
                  -0.12707741558551788,
                  -0.0341477133333683,
                  -0.09067483246326447,
                  -0.13934431970119476,
                  -0.0009506828500889242,
                  0.14740003645420074,
                  0.04401436075568199,
                  -0.024118201807141304,
                  -0.01805494725704193,
                  -0.01848789118230343,
                  -0.03250006213784218,
                  -0.17591126263141632,
                  -0.08520156145095825,
                  -0.034242335706949234,
                  -0.2791067063808441,
                  0.016711493954062462,
                  0.1586795300245285,
                  0.07923351973295212,
                  0.0634164810180664,
                  -0.023877719417214394,
                  -0.008847382850944996,
                  0.03403891250491142,
                  0.061472080647945404,
                  0.058634959161281586,
                  -0.005447349511086941,
                  -0.043547507375478745,
                  -0.05911899358034134,
                  -0.11009880900382996,
                  0.07811488211154938,
                  0.09830942004919052,
                  -0.02812119759619236,
                  0.13876968622207642,
                  0.11477422714233398,
                  -0.14373372495174408,
                  0.12762796878814697,
                  -0.12537498772144318,
                  -0.21161022782325745,
                  0.15578888356685638,
                  0.09819582104682922,
                  -0.1692408174276352,
                  0.19533322751522064,
                  0.0428864061832428,
                  -0.06973159313201904,
                  0.1301281601190567,
                  0.11306419968605042,
                  -0.14656710624694824,
                  0.16899120807647705,
                  0.03181622922420502,
                  0.09928334504365921,
                  -0.01741531863808632,
                  0.11081776022911072,
                  -0.013436718843877316,
                  0.06061897054314613,
                  -0.15353159606456757,
                  -0.1319819539785385,
                  0.12890906631946564,
                  -0.09558238834142685,
                  -0.06885182112455368,
                  0.14676465094089508,
                  0.050257522612810135,
                  0.06949353218078613,
                  -0.10915376245975494,
                  0.16404326260089874,
                  -0.07817099243402481,
                  -0.12820559740066528,
                  -0.17497217655181885,
                  -0.04657559096813202,
                  0.02310972474515438,
                  -0.004229738377034664,
                  0.16065619885921478,
                  -0.18006522953510284,
                  -0.1808404177427292,
                  -0.0024397948291152716,
                  0.16343003511428833,
                  -0.09157180786132812,
                  -0.0813596248626709,
                  -0.11832848936319351,
                  -0.15071631968021393,
                  0.08164754509925842,
                  -0.03661920875310898,
                  0.11214029788970947,
                  -0.09119048714637756,
                  0.05887683108448982,
                  -0.09158895164728165,
                  -0.26016291975975037,
                  0.13440464437007904,
                  -0.10193938761949539,
                  0.012752220034599304,
                  -0.15423454344272614,
                  0.02534184604883194,
                  0.049246449023485184
              ],
              [
                  0.1160585880279541,
                  -0.15220095217227936,
                  0.038649484515190125,
                  -0.11176970601081848,
                  0.1930076628923416,
                  0.12561148405075073,
                  0.13840967416763306,
                  0.11918987333774567,
                  0.038241248577833176,
                  0.0796075314283371,
                  0.19747798144817352,
                  -0.12806648015975952,
                  -0.12068669497966766,
                  -0.05921846628189087,
                  -0.04893423616886139,
                  0.17415326833724976,
                  0.20100976526737213,
                  0.07142926007509232,
                  -0.04077588766813278,
                  0.11519478261470795,
                  0.03328477963805199,
                  0.09282423555850983,
                  -0.08226622641086578,
                  0.19307638704776764,
                  0.1055402159690857,
                  0.17318259179592133,
                  -0.1274043172597885,
                  0.17710670828819275,
                  -0.027124445885419846,
                  0.0023644743487238884,
                  -0.0853821262717247,
                  -0.18192479014396667,
                  0.06761892139911652,
                  0.041702985763549805,
                  -0.12059798836708069,
                  -0.17397968471050262,
                  -0.062248118221759796,
                  -0.007313237991183996,
                  -0.029626837000250816,
                  0.03870219364762306,
                  -0.10941682010889053,
                  -0.1605563908815384,
                  -0.16811662912368774,
                  -0.13468711078166962,
                  -0.1569455862045288,
                  0.14351123571395874,
                  -0.10958518832921982,
                  0.1230292096734047,
                  0.1453290432691574,
                  0.17036765813827515,
                  -0.007107068318873644,
                  -0.1179087832570076,
                  0.10363822430372238,
                  -0.09965766221284866,
                  0.12626659870147705,
                  0.16830001771450043,
                  -0.13214123249053955,
                  0.11777830123901367,
                  -0.14153924584388733,
                  -0.18971461057662964,
                  0.19041956961154938,
                  0.15747147798538208,
                  -0.18383750319480896,
                  -0.16582585871219635,
                  0.011497431434690952,
                  -0.11731617897748947,
                  -0.04805442690849304,
                  -0.028509853407740593,
                  -0.13044001162052155,
                  0.08081874996423721,
                  0.18945278227329254,
                  -0.12341899424791336,
                  -0.04834118112921715,
                  0.17728322744369507,
                  -0.1816505640745163,
                  -0.07507611811161041,
                  -0.18256983160972595,
                  -0.10952409356832504,
                  -0.1904277801513672,
                  -0.19878903031349182,
                  -0.162462517619133,
                  -0.15135657787322998,
                  -0.029540643095970154,
                  -0.117708221077919,
                  0.20430888235569,
                  0.0143846794962883,
                  0.09406187385320663,
                  0.21214374899864197,
                  -0.13581912219524384,
                  -0.09664418548345566,
                  0.16391701996326447,
                  0.08589998632669449,
                  0.06750090420246124,
                  -0.13014496862888336,
                  0.17949721217155457,
                  -0.12851941585540771,
                  0.13100947439670563,
                  0.14322690665721893,
                  0.10019383579492569,
                  0.03293508291244507,
                  0.12358114868402481,
                  -0.15579719841480255,
                  0.05421561002731323,
                  -0.09631886333227158,
                  -0.1771973818540573,
                  0.04615206643939018,
                  -0.1233832836151123,
                  0.09578629583120346,
                  -0.09747564792633057,
                  -0.040464747697114944,
                  0.0932566225528717,
                  0.2125924825668335,
                  -0.10973279923200607,
                  0.03830984979867935,
                  -0.04066365584731102,
                  0.045311056077480316,
                  -0.03937184065580368,
                  -0.15803620219230652,
                  0.025285329669713974,
                  0.07099928706884384,
                  -0.033990174531936646,
                  -0.13474763929843903,
                  0.04615067318081856,
                  -0.19884540140628815,
                  -0.13559019565582275,
                  0.05182916298508644,
                  0.10654135793447495,
                  -0.004193529020994902,
                  0.13840429484844208,
                  -0.01282887626439333,
                  -0.12697608768939972,
                  -0.20195583999156952,
                  0.12570121884346008,
                  -0.18384362757205963,
                  0.07397835701704025,
                  -0.12373141199350357,
                  0.16995102167129517,
                  0.009742981754243374,
                  -0.14729559421539307,
                  -0.20017750561237335,
                  0.10940214991569519,
                  0.16217762231826782,
                  0.0771937295794487,
                  -0.0337979756295681,
                  0.02680685929954052,
                  -0.048906538635492325,
                  0.21618559956550598,
                  0.0011613594833761454,
                  -0.1181623786687851,
                  -0.043043240904808044,
                  0.014034765772521496,
                  -0.10365484654903412,
                  0.039112821221351624,
                  -0.18047183752059937,
                  0.2010033279657364,
                  0.2033202052116394,
                  -0.16740086674690247,
                  -0.12187289446592331,
                  0.12207020074129105,
                  0.04658020660281181,
                  -0.15145310759544373,
                  -0.019619110971689224,
                  -0.10398930311203003,
                  0.19083172082901,
                  -0.14611557126045227,
                  -0.02055770345032215,
                  -0.1265525072813034,
                  0.10544075816869736,
                  -0.09545835852622986,
                  0.0038999805692583323,
                  -0.012757050804793835,
                  -0.10125067085027695,
                  0.23715408146381378,
                  0.013139646500349045,
                  -0.046213485300540924,
                  0.026751836761832237,
                  -0.187350794672966,
                  0.2181078940629959,
                  0.14827284216880798,
                  -0.09532247483730316,
                  -0.11192483454942703,
                  0.06339825689792633,
                  0.01680879294872284,
                  -0.018015114590525627,
                  0.04887212812900543,
                  0.18702858686447144,
                  -0.13730843365192413,
                  -0.15195950865745544,
                  -0.015225225128233433,
                  -0.12460621446371078,
                  0.03196653723716736,
                  0.06314751505851746,
                  -0.1302296668291092,
                  0.10934069007635117,
                  -0.15880507230758667,
                  -0.1963498294353485,
                  -0.06085692718625069,
                  0.1368093192577362,
                  -0.042318105697631836,
                  0.09090201556682587,
                  -0.04367696866393089,
                  -0.17475146055221558,
                  -0.052078183740377426,
                  -0.03233935683965683,
                  0.14383108913898468,
                  -0.19234831631183624,
                  0.14269797503948212,
                  -0.008670813404023647,
                  0.14503030478954315,
                  0.11115232855081558,
                  -0.1925407499074936,
                  -0.07097622752189636,
                  -0.17268650233745575,
                  0.19858306646347046,
                  -0.12426948547363281,
                  -0.008685163222253323,
                  0.19252999126911163,
                  0.14233049750328064,
                  -0.026249442249536514,
                  0.17698968946933746,
                  0.09670210629701614,
                  -0.09272713214159012,
                  0.030065719038248062,
                  -0.13077819347381592,
                  -0.16431428492069244,
                  -0.07746779918670654,
                  -0.10846416652202606,
                  0.100857213139534,
                  -0.0808042660355568,
                  0.13049687445163727,
                  0.18476666510105133,
                  -0.024034149944782257,
                  -0.11850456148386002,
                  0.11424905806779861,
                  0.16957442462444305,
                  -0.0816427543759346,
                  -0.12726931273937225,
                  0.06012336537241936,
                  0.004019154701381922,
                  -0.08190882205963135,
                  -0.03196020424365997,
                  -0.12325017154216766,
                  0.05660489946603775,
                  -0.07419919222593307,
                  0.08561819791793823,
                  0.12402800470590591,
                  0.057635556906461716,
                  -0.19974416494369507,
                  0.045661021023988724,
                  -0.01975846476852894,
                  -0.11566053330898285,
                  0.17745338380336761,
                  -0.10177703201770782,
                  0.17246881127357483,
                  -0.17422513663768768,
                  -0.041399307548999786,
                  0.04567526653409004,
                  -0.05403181165456772,
                  -0.1932704895734787,
                  0.1795949637889862,
                  -0.16807539761066437,
                  0.1617651730775833,
                  -0.11351710557937622,
                  0.19592969119548798,
                  -0.03313330560922623,
                  -0.1690991371870041,
                  -0.008623499423265457,
                  -0.0224454328417778,
                  0.002492613159120083,
                  -0.09768317639827728,
                  -0.08398882299661636,
                  -0.12204781919717789,
                  0.04537362977862358,
                  -0.046057119965553284,
                  0.18993933498859406,
                  -0.18753236532211304,
                  -0.14498981833457947,
                  0.07043583691120148,
                  0.1757369041442871,
                  0.13559043407440186,
                  -0.20070280134677887,
                  -0.047617025673389435,
                  0.13968686759471893,
                  0.07138435542583466,
                  -0.12803225219249725,
                  -0.10945319384336472,
                  -0.14570753276348114,
                  0.03963541239500046,
                  -0.0354761965572834,
                  -0.05362334102392197,
                  0.1788341999053955,
                  0.17792613804340363,
                  -0.08432544767856598,
                  -0.026315962895751,
                  -0.14904581010341644,
                  -0.16893798112869263,
                  0.11386404931545258,
                  0.1250666230916977,
                  -0.05979588255286217,
                  0.15598180890083313,
                  -0.009275427088141441,
                  0.16651025414466858,
                  0.05202615633606911,
                  -0.00011733964493032545,
                  -0.017934637144207954,
                  0.023955512791872025,
                  0.12491772323846817,
                  -0.09849581122398376,
                  -0.08025997877120972,
                  0.10257181525230408,
                  0.008565547876060009,
                  -0.07347209751605988,
                  0.1529591977596283,
                  -0.06261324137449265,
                  0.08352930843830109,
                  0.18523219227790833,
                  -0.19004304707050323,
                  0.1211162805557251,
                  0.06719254702329636,
                  0.1375863403081894,
                  -0.06715180724859238,
                  -0.008287000469863415,
                  0.11546876281499863,
                  -0.09944193810224533,
                  0.1346002221107483,
                  0.1461065411567688,
                  0.19957102835178375,
                  -0.09365106374025345,
                  -0.0012508512008935213,
                  0.12828056514263153,
                  -0.026254093274474144,
                  -0.09375058114528656,
                  0.15360842645168304,
                  0.13813446462154388,
                  -0.047872450202703476,
                  -0.1554669886827469,
                  0.1507791131734848,
                  0.049081191420555115,
                  0.029403630644083023,
                  -0.1972704827785492,
                  0.1433388739824295,
                  0.11688496917486191,
                  0.11884094774723053,
                  -0.13365650177001953,
                  -0.18004164099693298,
                  -0.09036828577518463,
                  0.1807326376438141,
                  -0.07034330815076828,
                  0.14625249803066254,
                  -0.017339352518320084,
                  -0.12784771621227264,
                  -0.18608242273330688,
                  -0.060985542833805084,
                  -0.19067984819412231,
                  0.0899532288312912,
                  -0.07166262716054916,
                  -0.041691794991493225,
                  -0.029661305248737335,
                  0.012457271106541157,
                  -0.07640635967254639,
                  0.04465218260884285,
                  -0.08948704600334167,
                  -0.2001773566007614,
                  0.03695351630449295,
                  -0.1555776447057724,
                  0.009165385738015175,
                  -0.01908007264137268,
                  -0.044756099581718445,
                  -0.028230154886841774,
                  0.029658205807209015,
                  0.05684325471520424,
                  0.17970897257328033,
                  0.11508503556251526,
                  0.015265947207808495,
                  0.02788051962852478,
                  0.14569024741649628,
                  0.19363652169704437,
                  -0.13664567470550537,
                  0.040844280272722244,
                  0.021229136735200882,
                  -0.0006771354819647968,
                  -0.09804235398769379,
                  0.13476112484931946,
                  -0.02844061702489853,
                  0.14931729435920715,
                  0.10674159228801727,
                  -0.13518616557121277,
                  -0.1932414174079895,
                  -0.008349200710654259,
                  0.04620974883437157,
                  -0.06640340387821198,
                  -0.02560839243233204,
                  -0.11849792301654816,
                  0.17564204335212708,
                  -0.10503021627664566,
                  -0.024411141872406006,
                  0.04631197825074196,
                  0.13223007321357727,
                  0.12179365009069443,
                  0.12691757082939148
              ],
              [
                  0.06803774833679199,
                  0.15885543823242188,
                  -0.03539310395717621,
                  0.08632413297891617,
                  -0.18560530245304108,
                  -0.013589156791567802,
                  -0.07829933613538742,
                  -0.08349154889583588,
                  -0.029294351115822792,
                  -0.06859826296567917,
                  0.09151773899793625,
                  -0.08335909992456436,
                  -0.1550038605928421,
                  0.06479573994874954,
                  0.09816637635231018,
                  0.07392153143882751,
                  0.028528785333037376,
                  -0.16852684319019318,
                  0.004791931714862585,
                  0.18549688160419464,
                  0.17935404181480408,
                  0.05966433137655258,
                  -0.010713508352637291,
                  0.1349942833185196,
                  -0.11745874583721161,
                  -0.1410788744688034,
                  -0.009732301346957684,
                  0.013179518282413483,
                  -0.0973048210144043,
                  -0.1259792000055313,
                  -0.12565478682518005,
                  -0.009007477201521397,
                  -0.11870109289884567,
                  -0.15577776730060577,
                  0.14645028114318848,
                  0.14185543358325958,
                  0.1513124406337738,
                  -0.07239656895399094,
                  -0.1122630164027214,
                  0.16247093677520752,
                  0.0521366149187088,
                  0.002738307463005185,
                  0.13758669793605804,
                  -0.1280280202627182,
                  -0.17253468930721283,
                  -0.038978707045316696,
                  0.003397311782464385,
                  -0.21181882917881012,
                  0.079061359167099,
                  0.18545374274253845,
                  -0.07941130548715591,
                  -0.08956696838140488,
                  -0.06797599792480469,
                  0.02852300927042961,
                  0.015188373625278473,
                  -0.1187698021531105,
                  0.1270495504140854,
                  -0.125300794839859,
                  0.04582183435559273,
                  -0.01792871206998825,
                  -0.18717974424362183,
                  -0.16715119779109955,
                  -0.0319291315972805,
                  -0.14778459072113037,
                  -0.056419212371110916,
                  -0.10293068736791611,
                  -0.03736107423901558,
                  0.1231292188167572,
                  -0.21693967282772064,
                  0.04803178086876869,
                  0.12186430394649506,
                  0.14168968796730042,
                  -0.10245376080274582,
                  -0.02267676219344139,
                  -0.03652462363243103,
                  0.09945858269929886,
                  0.01117032952606678,
                  0.011242175474762917,
                  -0.029422227293252945,
                  -0.018380383029580116,
                  -0.002091939328238368,
                  -0.2041149139404297,
                  0.0946178212761879,
                  -0.15969756245613098,
                  0.04588574171066284,
                  0.06106509640812874,
                  0.11801624298095703,
                  0.15092453360557556,
                  0.05600668862462044,
                  0.023734023794531822,
                  0.18235617876052856,
                  0.05911646783351898,
                  -0.15114033222198486,
                  0.07086020708084106,
                  -0.1626649796962738,
                  -0.09958211332559586,
                  -0.0797819048166275,
                  -0.1948602795600891,
                  -0.11649592965841293,
                  -0.1937113106250763,
                  0.15645352005958557,
                  0.12795153260231018,
                  -0.20987054705619812,
                  0.11961210519075394,
                  -0.12202029675245285,
                  0.025023387745022774,
                  -0.14061501622200012,
                  -0.18311408162117004,
                  -0.19119758903980255,
                  -0.193968266248703,
                  0.14393523335456848,
                  -0.22550933063030243,
                  -0.21534235775470734,
                  0.006524635944515467,
                  -0.20344984531402588,
                  -0.020976603031158447,
                  0.01736946776509285,
                  -0.14793400466442108,
                  -0.06513171643018723,
                  0.1719655841588974,
                  -0.1514727771282196,
                  -0.037818871438503265,
                  -0.13662655651569366,
                  -0.12072248011827469,
                  0.03832439333200455,
                  -0.04038841277360916,
                  0.09254701435565948,
                  0.04145326092839241,
                  0.08213815093040466,
                  -0.14046435058116913,
                  0.04893271252512932,
                  0.0052831703796982765,
                  -0.10411547124385834,
                  -0.023242685943841934,
                  0.06501669436693192,
                  -0.12366903573274612,
                  0.2057001292705536,
                  -0.1318807154893875,
                  -0.02475552074611187,
                  -0.09488970041275024,
                  -0.1684364229440689,
                  -0.17538930475711823,
                  -0.09792580455541611,
                  0.13413427770137787,
                  0.15977926552295685,
                  -0.21952804923057556,
                  0.16044743359088898,
                  0.17462509870529175,
                  0.09553689509630203,
                  0.1678253412246704,
                  -0.23114794492721558,
                  -0.10619480907917023,
                  0.126932293176651,
                  0.16500873863697052,
                  -0.12585368752479553,
                  0.10181406885385513,
                  -0.22881673276424408,
                  -0.21696870028972626,
                  0.12223800271749496,
                  0.14972005784511566,
                  0.09194469451904297,
                  0.18373887240886688,
                  -0.04080217331647873,
                  -0.023259827867150307,
                  -0.10479617863893509,
                  0.015534285455942154,
                  -0.2320086658000946,
                  0.09907616674900055,
                  0.0024250363931059837,
                  0.06605909764766693,
                  -0.10207115858793259,
                  -0.1476619988679886,
                  -0.1065124124288559,
                  -0.04889022931456566,
                  -0.174033984541893,
                  -0.15896105766296387,
                  -0.010606800206005573,
                  -0.19466692209243774,
                  0.18319600820541382,
                  0.050102852284908295,
                  0.13758309185504913,
                  0.08526447415351868,
                  -0.11090555042028427,
                  0.1692853569984436,
                  0.10620708018541336,
                  -0.06313453614711761,
                  -0.05312587693333626,
                  0.007701813243329525,
                  0.07090479880571365,
                  -0.04457339271903038,
                  -0.10073183476924896,
                  0.013124529272317886,
                  0.09840776771306992,
                  -0.016231657937169075,
                  -0.004028946626931429,
                  -0.1973014771938324,
                  0.18355365097522736,
                  -0.12690527737140656,
                  0.09192626923322678,
                  -0.028055334463715553,
                  -0.17063702642917633,
                  0.11122577637434006,
                  -0.17035193741321564,
                  -0.08172370493412018,
                  0.09761080890893936,
                  0.11119876056909561,
                  -0.05685032904148102,
                  0.022504271939396858,
                  0.12262209504842758,
                  -0.11403913050889969,
                  0.10004005581140518,
                  0.07151446491479874,
                  -0.09102066606283188,
                  0.11746037006378174,
                  0.1754315048456192,
                  0.08640549331903458,
                  -0.1701570749282837,
                  0.03355981037020683,
                  -0.010471438989043236,
                  -0.11001674085855484,
                  -0.08095217496156693,
                  0.03252701461315155,
                  -0.12270137667655945,
                  -0.15327392518520355,
                  -0.009753010235726833,
                  -0.1891891062259674,
                  -0.1437985897064209,
                  0.11517263948917389,
                  0.09703276306390762,
                  -0.15624600648880005,
                  0.06037786975502968,
                  0.10952523350715637,
                  0.17845794558525085,
                  -0.03322667255997658,
                  0.01694587618112564,
                  0.11430449038743973,
                  0.17722871899604797,
                  0.04822899401187897,
                  0.014955355785787106,
                  -0.029132787138223648,
                  0.06690394133329391,
                  -0.14636537432670593,
                  -0.17947258055210114,
                  -0.19467170536518097,
                  -0.11860346049070358,
                  -0.005284843500703573,
                  -0.019216973334550858,
                  0.03689748793840408,
                  0.042633891105651855,
                  0.05220845714211464,
                  0.17844027280807495,
                  -0.05376254394650459,
                  0.18175958096981049,
                  -0.1764345020055771,
                  0.010339802131056786,
                  0.08904564380645752,
                  -0.17503757774829865,
                  -0.17593182623386383,
                  -0.041902776807546616,
                  -0.1852189004421234,
                  -0.05786355957388878,
                  -0.1289009004831314,
                  -0.06411314755678177,
                  0.12301057577133179,
                  -0.03939544036984444,
                  -0.17028847336769104,
                  -0.13074301183223724,
                  -0.10603316873311996,
                  0.054064974188804626,
                  -0.13804619014263153,
                  0.17134720087051392,
                  0.010203593410551548,
                  -0.19248339533805847,
                  -0.19860318303108215,
                  -0.12750697135925293,
                  0.06645199656486511,
                  0.0025940993800759315,
                  0.021605556830763817,
                  0.17265181243419647,
                  0.08744309097528458,
                  -0.0436096116900444,
                  -0.0628046914935112,
                  -0.17331236600875854,
                  0.14336363971233368,
                  0.0630321353673935,
                  -0.1496582180261612,
                  -0.057315897196531296,
                  -0.17508891224861145,
                  -0.022611962631344795,
                  -0.09620966017246246,
                  0.18538132309913635,
                  -0.17233896255493164,
                  -0.15058842301368713,
                  0.14526666700839996,
                  0.14589975774288177,
                  -0.17704139649868011,
                  0.18512287735939026,
                  0.06155995652079582,
                  0.0750059112906456,
                  0.06797264516353607,
                  0.03581143543124199,
                  0.08001191914081573,
                  -0.07784078270196915,
                  0.02994963899254799,
                  0.17212402820587158,
                  -0.17999126017093658,
                  -0.1870746612548828,
                  0.060712780803442,
                  0.13849858939647675,
                  0.16182667016983032,
                  -0.11947622150182724,
                  -0.08591800928115845,
                  0.11006774753332138,
                  0.17083071172237396,
                  -0.05905827879905701,
                  -0.06200868636369705,
                  0.055401504039764404,
                  -0.1363532692193985,
                  0.17027820646762848,
                  -0.12322060763835907,
                  -0.06927857547998428,
                  0.025871185585856438,
                  -0.006166031584143639,
                  0.1256864368915558,
                  -0.11518721282482147,
                  0.14255793392658234,
                  -0.16180315613746643,
                  0.0934479832649231,
                  -0.1754309982061386,
                  0.07750154286623001,
                  0.13426409661769867,
                  -0.005873648915439844,
                  0.10326305031776428,
                  0.13274630904197693,
                  -0.19254493713378906,
                  -0.11244085431098938,
                  -0.08128565549850464,
                  -0.02988993003964424,
                  0.1220611110329628,
                  -0.1908394694328308,
                  -0.15498106181621552,
                  0.1499767303466797,
                  -0.030559396371245384,
                  -0.10432383418083191,
                  0.08277543634176254,
                  -0.09536125510931015,
                  -0.06195170059800148,
                  -0.14809609949588776,
                  0.05149204656481743,
                  -0.14475609362125397,
                  0.02996215783059597,
                  -0.2236325591802597,
                  -0.010028939694166183,
                  0.009406207129359245,
                  0.07213351875543594,
                  0.0332258902490139,
                  -0.1779474914073944,
                  0.13593816757202148,
                  0.17359104752540588,
                  -0.07810929417610168,
                  -0.1104179248213768,
                  0.07141745835542679,
                  0.11729216575622559,
                  0.15051858127117157,
                  0.13927225768566132,
                  0.16729696094989777,
                  0.15702924132347107,
                  0.12507274746894836,
                  0.09144414961338043,
                  0.026617249473929405,
                  -0.1139688491821289,
                  -0.03725501149892807,
                  -0.02647162228822708,
                  0.13650286197662354,
                  -0.029649946838617325,
                  -0.01153005100786686,
                  -0.027042586356401443,
                  0.08870541304349899,
                  0.08611012250185013,
                  -0.10947989672422409,
                  -0.022636260837316513,
                  -0.1614283174276352,
                  -0.0254315584897995,
                  -0.14934474229812622,
                  -0.053553830832242966,
                  -0.18924148380756378,
                  -0.12401316314935684,
                  -0.035003989934921265,
                  0.11570016294717789,
                  0.0036326972767710686,
                  0.09187138825654984,
                  0.034298233687877655,
                  0.0712495818734169,
                  0.022784151136875153,
                  -0.022876642644405365,
                  0.10888778418302536,
                  0.025151953101158142,
                  0.1693359911441803,
                  -0.06867890059947968,
                  0.11305606365203857
              ],
              [
                  0.018926693126559258,
                  -0.19189101457595825,
                  -0.18550696969032288,
                  -0.013792777433991432,
                  -0.15530340373516083,
                  -0.005172288045287132,
                  -0.03396949917078018,
                  0.15676997601985931,
                  -0.10581786930561066,
                  0.15129177272319794,
                  0.14712969958782196,
                  -0.04567111283540726,
                  -0.13531817495822906,
                  -0.2106751650571823,
                  -0.17118355631828308,
                  -0.1197064071893692,
                  -0.20872867107391357,
                  0.08990557491779327,
                  -0.17738136649131775,
                  0.006109677720814943,
                  -0.19254134595394135,
                  -0.18941521644592285,
                  -0.005961783695966005,
                  -0.058890532702207565,
                  -0.05813789367675781,
                  -0.01223248802125454,
                  -0.17157575488090515,
                  -0.010744575411081314,
                  -0.2556494176387787,
                  -0.25230053067207336,
                  -0.18313899636268616,
                  0.048370108008384705,
                  -0.22327788174152374,
                  -0.06619970500469208,
                  0.05838591977953911,
                  -0.05551651865243912,
                  0.17040172219276428,
                  -0.061073124408721924,
                  0.06597784906625748,
                  -0.08191697299480438,
                  -0.17593184113502502,
                  -0.02717752754688263,
                  0.02752571552991867,
                  0.013724986463785172,
                  0.08268553763628006,
                  -0.012831896543502808,
                  0.22882062196731567,
                  0.1216125339269638,
                  0.03529472276568413,
                  0.18101657927036285,
                  0.10971343517303467,
                  0.21407990157604218,
                  0.0819595530629158,
                  0.0371195450425148,
                  0.017119137570261955,
                  0.2747907042503357,
                  -0.02877429500222206,
                  0.02640724740922451,
                  -0.15589159727096558,
                  0.02838270179927349,
                  0.08913207799196243,
                  0.054342903196811676,
                  -0.04226914793252945,
                  -0.1998276263475418,
                  -0.12145330011844635,
                  0.07469609379768372,
                  0.0002700894547160715,
                  0.19579195976257324,
                  0.08298376947641373,
                  0.13143092393875122,
                  -0.09512331336736679,
                  -0.2216058224439621,
                  0.17268089950084686,
                  -0.14308761060237885,
                  -0.20511484146118164,
                  -0.1757654845714569,
                  0.2011776715517044,
                  0.13248302042484283,
                  -0.006260479334741831,
                  0.18615834414958954,
                  0.008792703971266747,
                  0.16412235796451569,
                  -0.10189541429281235,
                  0.08991062641143799,
                  -0.09380817413330078,
                  -0.2072078436613083,
                  -0.10804736614227295,
                  -0.3338381052017212,
                  0.07411365956068039,
                  0.16725794970989227,
                  -0.05230545625090599,
                  -0.11426708102226257,
                  0.19536884129047394,
                  0.0026686834171414375,
                  -0.1404237598180771,
                  -0.09353143721818924,
                  -0.0776759684085846,
                  0.08968904614448547,
                  -0.1786089837551117,
                  0.10028306394815445,
                  0.02755614183843136,
                  -0.2109014093875885,
                  -0.08143147826194763,
                  -0.2926406264305115,
                  -0.2542623281478882,
                  0.2506308853626251,
                  0.11567357182502747,
                  0.24640724062919617,
                  0.2935832738876343,
                  0.130672886967659,
                  -0.16494733095169067,
                  -0.022357739508152008,
                  -0.0888325572013855,
                  -0.015043861232697964,
                  -0.022297143936157227,
                  -0.270692378282547,
                  -0.02102096937596798,
                  0.15853171050548553,
                  -0.28212881088256836,
                  0.1618703007698059,
                  0.009729960933327675,
                  -0.16984815895557404,
                  -0.0737404152750969,
                  -0.057008929550647736,
                  0.04880716651678085,
                  0.04694768041372299,
                  -0.23391899466514587,
                  -0.06483444571495056,
                  -0.30408087372779846,
                  0.33836203813552856,
                  -0.01877737231552601,
                  0.35295310616493225,
                  0.13718964159488678,
                  -0.09132379293441772,
                  0.08469997346401215,
                  0.0660780593752861,
                  0.015365232713520527,
                  0.15636824071407318,
                  -0.07573646306991577,
                  -0.15707381069660187,
                  -0.004738431889563799,
                  -0.20798437297344208,
                  0.17778480052947998,
                  0.205490380525589,
                  -0.05211738869547844,
                  0.4893611669540405,
                  -0.09536606073379517,
                  -0.2641635239124298,
                  -0.04973483830690384,
                  0.027852192521095276,
                  0.25459885597229004,
                  0.13984841108322144,
                  -0.4055008888244629,
                  0.031208569183945656,
                  0.030431123450398445,
                  -0.12696725130081177,
                  0.4824399948120117,
                  -0.027978861704468727,
                  0.05049532279372215,
                  -0.009750218130648136,
                  -0.03816136345267296,
                  0.028325147926807404,
                  -0.14835213124752045,
                  -0.20942994952201843,
                  0.12348499149084091,
                  -0.2011818140745163,
                  0.1675640493631363,
                  0.07705371826887131,
                  -0.3187098801136017,
                  0.0942542776465416,
                  -0.3358798623085022,
                  -0.338752418756485,
                  -0.656349241733551,
                  -0.08370956033468246,
                  0.2664869725704193,
                  -0.6555149555206299,
                  -0.23230431973934174,
                  -0.38142237067222595,
                  0.10482573509216309,
                  -0.0953110083937645,
                  -0.0266567450016737,
                  -0.539118766784668,
                  0.06540141254663467,
                  -0.18643930554389954,
                  0.17797604203224182,
                  0.21479551494121552,
                  -0.12299640476703644,
                  -0.2190931886434555,
                  -0.4224860370159149,
                  -0.5595526695251465,
                  0.09776116162538528,
                  0.31678617000579834,
                  0.5793786644935608,
                  -0.6253212690353394,
                  0.21802909672260284,
                  -0.11433882266283035,
                  -0.4015962481498718,
                  0.14716990292072296,
                  0.08168921619653702,
                  0.13422834873199463,
                  0.0044326819479465485,
                  -0.0007884478545747697,
                  -0.021930012851953506,
                  -0.06122589856386185,
                  -0.06176530942320824,
                  -0.027872171252965927,
                  -0.1132412999868393,
                  0.15059758722782135,
                  0.1915285736322403,
                  0.08369428664445877,
                  -0.2042672336101532,
                  -0.11587304621934891,
                  0.07046016305685043,
                  -0.07466793805360794,
                  0.08890592306852341,
                  0.0743192732334137,
                  -0.0957488939166069,
                  0.14961835741996765,
                  -0.042631201446056366,
                  0.09659607708454132,
                  0.11905740946531296,
                  -0.1352555751800537,
                  -0.021396171301603317,
                  -0.038980767130851746,
                  -0.34714388847351074,
                  0.06459876894950867,
                  0.06936082988977432,
                  -0.06156802922487259,
                  0.1759849190711975,
                  0.08533334732055664,
                  -0.18387095630168915,
                  -0.07778757810592651,
                  -0.0622459314763546,
                  -0.027707379311323166,
                  0.09015647321939468,
                  0.08735829591751099,
                  0.1797114908695221,
                  0.15196867287158966,
                  -0.19148306548595428,
                  0.1825292855501175,
                  0.06890719383955002,
                  0.14954829216003418,
                  -0.006390037946403027,
                  -0.09107371419668198,
                  -0.11094307899475098,
                  0.09625731408596039,
                  -0.06471246480941772,
                  -0.08815032988786697,
                  -0.10887584835290909,
                  0.043522726744413376,
                  -0.12298310548067093,
                  0.06372141093015671,
                  -0.05582739785313606,
                  -0.025779690593481064,
                  -0.09669121354818344,
                  0.0018744207918643951,
                  0.14809179306030273,
                  0.15953868627548218,
                  -0.1864347755908966,
                  -0.1277199387550354,
                  -0.002614636905491352,
                  -0.0814659371972084,
                  0.1729084849357605,
                  -0.039626382291316986,
                  -0.20019589364528656,
                  0.17077940702438354,
                  -0.35274267196655273,
                  0.03782839700579643,
                  0.18860168755054474,
                  0.10174410790205002,
                  -0.15873344242572784,
                  -0.02546021156013012,
                  0.06888068467378616,
                  -0.052114494144916534,
                  -0.1648532748222351,
                  0.033035505563020706,
                  -0.17526352405548096,
                  0.18093843758106232,
                  -0.08855069428682327,
                  -0.13499851524829865,
                  -0.30475980043411255,
                  -0.0769781544804573,
                  -0.08688230067491531,
                  0.19114026427268982,
                  -0.11493735760450363,
                  -0.15098102390766144,
                  -0.11412052810192108,
                  -0.1265161633491516,
                  -0.08562542498111725,
                  0.05287030711770058,
                  0.018065549433231354,
                  -0.11793094128370285,
                  -0.1491030752658844,
                  0.08737518638372421,
                  -0.3738173246383667,
                  0.14744122326374054,
                  -0.09006711095571518,
                  -0.005447245202958584,
                  0.13309580087661743,
                  0.00777845736593008,
                  0.15668049454689026,
                  0.06418005377054214,
                  -0.07062064856290817,
                  0.039393868297338486,
                  0.052744537591934204,
                  -0.019945193082094193,
                  0.14238297939300537,
                  -0.06156564876437187,
                  -0.303960382938385,
                  -0.1576291173696518,
                  0.053667519241571426,
                  0.16757676005363464,
                  -0.06251335144042969,
                  -0.020363062620162964,
                  0.020658468827605247,
                  -0.176300510764122,
                  -0.10588476806879044,
                  -0.09296012669801712,
                  0.19615699350833893,
                  0.10511954128742218,
                  0.03839157521724701,
                  -0.14835837483406067,
                  -0.32555291056632996,
                  -0.09503500163555145,
                  0.16551747918128967,
                  -0.013966281898319721,
                  -0.002150207757949829,
                  -0.18331021070480347,
                  0.14813408255577087,
                  -0.1528027504682541,
                  0.18751557171344757,
                  0.19223473966121674,
                  0.06814396381378174,
                  -0.1654435694217682,
                  0.01684405282139778,
                  0.006652840878814459,
                  -0.09805414080619812,
                  -0.023970190435647964,
                  -0.09214798361063004,
                  -0.17570000886917114,
                  -0.05944610387086868,
                  0.10567901283502579,
                  0.1259603351354599,
                  -0.049295876175165176,
                  -0.03944844380021095,
                  -0.15392301976680756,
                  -0.04669814929366112,
                  -0.041425853967666626,
                  -0.0011180354049429297,
                  0.10816606134176254,
                  -0.2084985226392746,
                  -0.06716261059045792,
                  -0.01552646141499281,
                  -0.010918946005403996,
                  0.07446225732564926,
                  0.09600719064474106,
                  0.1452661156654358,
                  -0.20227380096912384,
                  -0.1861393302679062,
                  0.17264755070209503,
                  -0.08975251019001007,
                  -0.014039427042007446,
                  -0.08003725111484528,
                  0.19871483743190765,
                  -0.2790396809577942,
                  0.055629704147577286,
                  0.17916740477085114,
                  0.04520796984434128,
                  -0.10049580782651901,
                  -0.13470076024532318,
                  0.1346065104007721,
                  -0.17227862775325775,
                  0.05252840742468834,
                  -0.13898858428001404,
                  -0.06699616461992264,
                  -0.13995492458343506,
                  0.0842762216925621,
                  0.018180865794420242,
                  -0.2227177917957306,
                  0.06265462934970856,
                  -0.043860722333192825,
                  -0.16008079051971436,
                  -0.029222272336483,
                  0.026999318972229958,
                  0.03371518477797508,
                  -0.047499243170022964,
                  0.010243726894259453,
                  -0.17547929286956787,
                  0.1516815721988678,
                  0.12723755836486816,
                  0.1658046394586563,
                  0.009814618155360222,
                  -0.358301043510437,
                  -0.09553981572389603,
                  0.11276120692491531,
                  0.1227002888917923,
                  0.06281021982431412,
                  0.1718158721923828,
                  -0.11118286848068237,
                  -0.026607228443026543
              ],
              [
                  0.009087690152227879,
                  0.16476227343082428,
                  0.15566208958625793,
                  -0.04829615727066994,
                  0.08987503498792648,
                  -0.0660877600312233,
                  -0.15877912938594818,
                  0.0036178508307784796,
                  -0.13281387090682983,
                  0.09344702214002609,
                  0.015068242326378822,
                  -0.17095236480236053,
                  -0.1416948437690735,
                  -0.18311525881290436,
                  -0.10303344577550888,
                  0.09736509621143341,
                  -0.20579561591148376,
                  0.08854129165410995,
                  0.08881161361932755,
                  -0.1475694626569748,
                  0.07051415741443634,
                  -0.1674315482378006,
                  -0.15453699231147766,
                  -0.023520920425653458,
                  0.185380220413208,
                  -0.1429581642150879,
                  0.12951752543449402,
                  -0.2378193587064743,
                  -0.21672676503658295,
                  -0.16369466483592987,
                  0.03560769930481911,
                  -0.0405099093914032,
                  -0.17678719758987427,
                  0.1624636948108673,
                  0.11501680314540863,
                  -0.15639425814151764,
                  0.15932263433933258,
                  -0.11311206966638565,
                  -0.06274867802858353,
                  0.17031191289424896,
                  0.10543954372406006,
                  -0.05332170054316521,
                  -0.17751659452915192,
                  0.06077316403388977,
                  0.1220051497220993,
                  -0.1306060403585434,
                  0.2965347468852997,
                  0.5061622858047485,
                  0.056937314569950104,
                  0.20835913717746735,
                  0.20623533427715302,
                  0.10000879317522049,
                  -0.1521591693162918,
                  -0.025302134454250336,
                  -0.011107699945569038,
                  0.40130579471588135,
                  0.06319887936115265,
                  -0.3541271984577179,
                  -0.18945002555847168,
                  0.06209873408079147,
                  -0.1555798500776291,
                  0.1269884556531906,
                  -0.02873563952744007,
                  -0.07141754031181335,
                  -0.28581172227859497,
                  0.013324050232768059,
                  0.03110269270837307,
                  0.023252297192811966,
                  0.09256649762392044,
                  -0.08482684195041656,
                  -0.2922331690788269,
                  -0.08381817489862442,
                  0.031952034682035446,
                  -0.24559429287910461,
                  -0.10603849589824677,
                  -0.23235617578029633,
                  -0.020588407292962074,
                  0.19106769561767578,
                  -0.1950814425945282,
                  -0.14801111817359924,
                  0.013992336578667164,
                  -0.058757759630680084,
                  -0.10459672659635544,
                  0.1514754593372345,
                  0.09972191601991653,
                  0.014941279776394367,
                  0.31149908900260925,
                  0.15583832561969757,
                  0.5827046036720276,
                  0.6340656280517578,
                  0.20106098055839539,
                  0.06809917092323303,
                  0.4331414997577667,
                  -0.07343795895576477,
                  -0.17731882631778717,
                  -0.13089370727539062,
                  0.0013061794452369213,
                  0.003010556800290942,
                  -0.11499278247356415,
                  -0.12783364951610565,
                  0.032910700887441635,
                  -0.16003534197807312,
                  -0.051226526498794556,
                  -0.01676003262400627,
                  -0.2722010016441345,
                  0.2575511336326599,
                  0.08068699389696121,
                  0.2201317697763443,
                  0.13263772428035736,
                  -0.19176921248435974,
                  -0.04931263253092766,
                  -0.14190100133419037,
                  -0.07474926114082336,
                  -0.20462901890277863,
                  -0.09549561887979507,
                  -0.028896572068333626,
                  -0.337289035320282,
                  0.04154568910598755,
                  -0.246641606092453,
                  0.014364853501319885,
                  0.06901517510414124,
                  0.017589382827281952,
                  -0.14122794568538666,
                  -0.12207643687725067,
                  0.29706522822380066,
                  -0.5107247233390808,
                  -0.16486358642578125,
                  -0.24748356640338898,
                  -0.15423786640167236,
                  -0.1962728649377823,
                  -0.40908676385879517,
                  -0.024022813886404037,
                  0.1154317557811737,
                  0.04383015260100365,
                  -0.43207013607025146,
                  -0.07029619812965393,
                  -0.3398084044456482,
                  0.16682742536067963,
                  -0.01083827018737793,
                  0.0846063494682312,
                  0.1535268872976303,
                  0.03077770210802555,
                  0.2566398084163666,
                  0.24467810988426208,
                  0.010825327597558498,
                  0.6036773324012756,
                  0.1020873486995697,
                  0.39197805523872375,
                  0.3504687249660492,
                  -0.158240407705307,
                  0.4884553849697113,
                  -0.02329069748520851,
                  -0.14188440144062042,
                  -0.011992345564067364,
                  -0.27963167428970337,
                  0.21081140637397766,
                  0.16161896288394928,
                  0.07367676496505737,
                  0.08005838096141815,
                  0.21580494940280914,
                  -0.04597718268632889,
                  -0.21151989698410034,
                  -0.12603504955768585,
                  -0.1836564987897873,
                  -0.043378449976444244,
                  -0.2171594202518463,
                  0.24713048338890076,
                  0.03657403215765953,
                  -0.525595486164093,
                  -0.18747149407863617,
                  -0.3374018967151642,
                  -0.30525702238082886,
                  -0.39858752489089966,
                  -0.21030817925930023,
                  -0.085377998650074,
                  -0.4071233570575714,
                  -0.33023080229759216,
                  0.03633444011211395,
                  -0.11174362152814865,
                  0.17650093138217926,
                  -0.06332513689994812,
                  -0.09091294556856155,
                  0.13602451980113983,
                  0.08759549260139465,
                  0.426278680562973,
                  0.4586758017539978,
                  0.11606044322252274,
                  0.8917509317398071,
                  1.080739974975586,
                  0.49501535296440125,
                  1.2126230001449585,
                  0.3604915142059326,
                  1.0635122060775757,
                  0.4768613576889038,
                  0.6074050068855286,
                  1.0126198530197144,
                  0.26628705859184265,
                  0.17508569359779358,
                  0.04223324730992317,
                  0.047746140509843826,
                  -0.1966356337070465,
                  -0.0048498474061489105,
                  -0.15109898149967194,
                  -0.1222369447350502,
                  0.1755697876214981,
                  0.08577144891023636,
                  0.1506703495979309,
                  -0.05010370910167694,
                  0.15141615271568298,
                  0.14191317558288574,
                  0.03211357444524765,
                  0.03118167445063591,
                  0.012075777165591717,
                  -0.1575811207294464,
                  0.18539468944072723,
                  0.03691154345870018,
                  0.03175957873463631,
                  -0.1888975352048874,
                  -0.07242072373628616,
                  -0.13522732257843018,
                  -0.02775389514863491,
                  -0.09308268874883652,
                  -0.0020978006068617105,
                  0.09484793990850449,
                  0.017836803570389748,
                  0.13904425501823425,
                  -0.07211719453334808,
                  -0.09822447597980499,
                  0.06612357497215271,
                  0.12639720737934113,
                  0.1263316124677658,
                  0.025061586871743202,
                  -0.054758477956056595,
                  -0.12027015537023544,
                  -0.019899042323231697,
                  -0.0956549420952797,
                  -0.028330335393548012,
                  0.09432543069124222,
                  0.19382667541503906,
                  0.1898195743560791,
                  0.007006698288023472,
                  0.026552628725767136,
                  0.1537376344203949,
                  0.14248323440551758,
                  -0.04199056699872017,
                  -0.004860956221818924,
                  0.05515517666935921,
                  -0.09535033255815506,
                  0.17616528272628784,
                  -0.027640940621495247,
                  -0.06709500402212143,
                  0.1264811009168625,
                  -0.015520691871643066,
                  0.12403493374586105,
                  0.018847379833459854,
                  -0.13055990636348724,
                  -0.07736792415380478,
                  -0.167146697640419,
                  -0.16780249774456024,
                  0.03649460896849632,
                  -0.18916162848472595,
                  0.15539690852165222,
                  0.15305909514427185,
                  -0.19497591257095337,
                  0.17425262928009033,
                  -0.15823200345039368,
                  0.259183794260025,
                  0.24413445591926575,
                  -0.13463644683361053,
                  0.15556591749191284,
                  -0.05074361711740494,
                  -0.13687068223953247,
                  -0.2042504996061325,
                  0.1501166969537735,
                  0.0767705962061882,
                  -0.19739577174186707,
                  -0.09407179802656174,
                  -0.1214110478758812,
                  -0.07242830842733383,
                  -0.032309915870428085,
                  0.1678691804409027,
                  -0.007736983709037304,
                  0.1658785194158554,
                  -0.13840894401073456,
                  0.141272634267807,
                  -0.11591196060180664,
                  -0.12324824929237366,
                  -0.09250783175230026,
                  -0.12307099252939224,
                  -0.1564825177192688,
                  -0.11452490836381912,
                  -0.06072171777486801,
                  -0.0868556872010231,
                  0.17496688663959503,
                  0.07112343609333038,
                  0.1779174506664276,
                  0.1994962841272354,
                  -0.0061874995008111,
                  -0.06107890233397484,
                  -0.13213513791561127,
                  -0.04058123752474785,
                  0.0773359164595604,
                  0.08079954236745834,
                  0.1934124082326889,
                  0.03826301544904709,
                  0.12587088346481323,
                  -0.16755491495132446,
                  -0.019854353740811348,
                  0.2277534306049347,
                  0.020057857036590576,
                  -0.04631153121590614,
                  0.05198249593377113,
                  -0.1062435656785965,
                  0.08286438137292862,
                  -0.16996413469314575,
                  0.07201380282640457,
                  -0.18441875278949738,
                  0.19400815665721893,
                  0.20013733208179474,
                  -0.03952338173985481,
                  0.004598468542098999,
                  0.08280778676271439,
                  0.05054309219121933,
                  -0.11865708231925964,
                  0.06433124840259552,
                  -0.09398378431797028,
                  -0.09861836582422256,
                  -0.12916670739650726,
                  -0.07239703088998795,
                  -0.13808223605155945,
                  -0.2132960855960846,
                  0.1267649084329605,
                  0.04140372574329376,
                  0.1466686874628067,
                  0.04577825590968132,
                  0.147842139005661,
                  -0.010475264862179756,
                  -0.046934351325035095,
                  0.08733265101909637,
                  0.07975372672080994,
                  0.10364693403244019,
                  -0.15871931612491608,
                  0.09069902449846268,
                  -0.2034652680158615,
                  -0.05126047879457474,
                  -0.0603853203356266,
                  -0.008562969043850899,
                  0.14071354269981384,
                  -0.09956251829862595,
                  -0.19222214818000793,
                  -0.04332960397005081,
                  0.071832075715065,
                  0.20346401631832123,
                  -0.13743478059768677,
                  -0.14192001521587372,
                  0.03841673955321312,
                  0.04081735387444496,
                  -0.20440557599067688,
                  -0.10409342497587204,
                  -0.006257649045437574,
                  0.17894932627677917,
                  0.11062810570001602,
                  0.19878841936588287,
                  -0.041011992841959,
                  0.10931877791881561,
                  0.10843227058649063,
                  0.16715870797634125,
                  0.07434713840484619,
                  -0.04554840922355652,
                  -0.13980607688426971,
                  -0.1863456517457962,
                  -0.1765684336423874,
                  -0.05666464939713478,
                  -0.053551048040390015,
                  0.10557933896780014,
                  0.038881566375494,
                  -0.11554854363203049,
                  -0.004173136781901121,
                  -0.050429895520210266,
                  0.15606454014778137,
                  0.08955991268157959,
                  0.03365343064069748,
                  -0.034575387835502625,
                  -0.11801762878894806,
                  0.10679357498884201,
                  -0.14549586176872253,
                  0.015214486047625542,
                  0.16970513761043549,
                  0.025654634460806847,
                  -0.0021719334181398153,
                  0.15807969868183136,
                  -0.17174062132835388,
                  0.16202369332313538,
                  0.0010276230750605464,
                  0.04686959460377693,
                  0.1266150176525116,
                  -0.1631275713443756,
                  -0.07981095463037491,
                  -0.08969535678625107,
                  0.17453795671463013
              ],
              [
                  0.007480642292648554,
                  0.11521489173173904,
                  0.17496970295906067,
                  0.10536394268274307,
                  -0.1617640256881714,
                  0.08822634071111679,
                  -0.13637517392635345,
                  0.08624046295881271,
                  -0.07745038717985153,
                  -0.10703036189079285,
                  -0.18389737606048584,
                  0.006587924435734749,
                  -0.01101405918598175,
                  -0.014713486656546593,
                  0.1919666826725006,
                  0.08011756092309952,
                  0.14941705763339996,
                  0.07280552387237549,
                  -0.028207002207636833,
                  0.01872262731194496,
                  -0.1487802267074585,
                  -0.1671305000782013,
                  0.19977112114429474,
                  0.02406306192278862,
                  0.07015360891819,
                  -0.11687242984771729,
                  -0.1716976910829544,
                  0.053728967905044556,
                  0.09217791259288788,
                  0.034376390278339386,
                  0.05610339716076851,
                  0.12967492640018463,
                  0.1430600881576538,
                  0.0116538992151618,
                  0.13936498761177063,
                  -0.09201566129922867,
                  0.05446404591202736,
                  0.19133462011814117,
                  -0.015047630295157433,
                  0.0373360849916935,
                  -0.031963467597961426,
                  0.1405210644006729,
                  0.19471290707588196,
                  -0.19320082664489746,
                  -0.15339712798595428,
                  -0.04615537077188492,
                  -0.12119225412607193,
                  -0.23129679262638092,
                  -0.037000130861997604,
                  -0.07525163888931274,
                  0.010759949684143066,
                  -0.18372534215450287,
                  -0.16036468744277954,
                  -0.13725395500659943,
                  -0.12114888429641724,
                  -0.17667540907859802,
                  -0.06524816900491714,
                  0.10619603842496872,
                  -0.17545941472053528,
                  0.18780773878097534,
                  0.07549510151147842,
                  0.0227616336196661,
                  -0.1397647112607956,
                  0.0017404004465788603,
                  -0.10016215592622757,
                  -0.033889882266521454,
                  0.06372053921222687,
                  -0.20546671748161316,
                  0.17968010902404785,
                  0.16032655537128448,
                  0.0417482852935791,
                  0.09853676706552505,
                  0.09701215475797653,
                  0.10700571537017822,
                  0.14477425813674927,
                  -0.13738112151622772,
                  -0.17849883437156677,
                  -0.1141759604215622,
                  0.1697646975517273,
                  0.10364491492509842,
                  -0.10109271854162216,
                  0.07779936492443085,
                  -0.02293223701417446,
                  -0.07456899434328079,
                  0.03180713206529617,
                  0.135199174284935,
                  -0.18890391290187836,
                  0.10040639340877533,
                  -0.18139614164829254,
                  -0.16806653141975403,
                  -0.014711184427142143,
                  0.1526549756526947,
                  -0.08870179951190948,
                  -0.1833932101726532,
                  -0.1586746871471405,
                  0.07160905748605728,
                  0.021359415724873543,
                  -0.11921828985214233,
                  0.14386044442653656,
                  -0.09160342067480087,
                  -0.03712160140275955,
                  0.14893054962158203,
                  -0.018947971984744072,
                  -0.12822268903255463,
                  0.031222891062498093,
                  -0.12709343433380127,
                  -0.01135723665356636,
                  -0.1903691291809082,
                  0.13624201714992523,
                  -0.08463014662265778,
                  -0.03933492302894592,
                  -0.04460258409380913,
                  0.04628061130642891,
                  -0.017242293804883957,
                  -0.024721192196011543,
                  -0.04938298836350441,
                  -0.04081645980477333,
                  0.182439923286438,
                  0.16092273592948914,
                  0.15589304268360138,
                  -0.17111948132514954,
                  0.09578736871480942,
