{
  "type": "NeuralNetworkGPU",
  "sizes": [
      400,
      200,
      1
  ],
  "layers": [
      {
          "weights": [],
          "biases": []
      },
      {
          "weights": [
              [
                  0.004866237286478281,
                  0.15633055567741394,
                  0.008756951428949833,
                  -0.024788036942481995,
                  -0.08665291219949722,
                  -0.04118550196290016,
                  0.07550422102212906,
                  0.049141570925712585,
                  0.013210241682827473,
                  -0.09248523414134979,
                  0.06982631981372833,
                  -0.1861710250377655,
                  -0.12310764193534851,
                  -0.05609545856714249,
                  0.1436786651611328,
                  0.03721168637275696,
                  0.18324775993824005,
                  -0.19176003336906433,
                  0.1449587047100067,
                  -0.10109482705593109,
                  -0.042207714170217514,
                  -0.10964495688676834,
                  -0.09960553795099258,
                  0.0009037331328727305,
                  0.06228601187467575,
                  -0.09570838510990143,
                  -0.15218912065029144,
                  0.024877749383449554,
                  0.22698096930980682,
                  0.04431499168276787,
                  -0.06490861624479294,
                  0.018860403448343277,
                  0.03229411691427231,
                  -0.16435740888118744,
                  -0.16651858389377594,
                  0.04664639011025429,
                  0.1531096249818802,
                  -0.033041179180145264,
                  -0.08867698907852173,
                  -0.1876126080751419,
                  -0.18687982857227325,
                  0.049851760268211365,
                  0.05416901409626007,
                  -0.14285698533058167,
                  0.12558284401893616,
                  0.041354432702064514,
                  0.10712598264217377,
                  -0.06593456864356995,
                  0.028694195672869682,
                  0.02815323695540428,
                  0.23037873208522797,
                  -0.06310681253671646,
                  -0.07406459003686905,
                  -0.043754514306783676,
                  0.10648403316736221,
                  -0.011872375383973122,
                  0.15083353221416473,
                  0.011067450977861881,
                  -0.08008760213851929,
                  0.11903572082519531,
                  0.12136169523000717,
                  0.1562018245458603,
                  0.16287630796432495,
                  -0.19576895236968994,
                  0.1123456135392189,
                  0.10254877805709839,
                  -0.00606812909245491,
                  -0.12020247429609299,
                  0.16542495787143707,
                  -0.062359243631362915,
                  0.16902053356170654,
                  0.24288271367549896,
                  -0.13015340268611908,
                  -0.14743582904338837,
                  0.15854278206825256,
                  -0.022078143432736397,
                  0.011158663779497147,
                  -0.12497647106647491,
                  0.016232341527938843,
                  0.12175480276346207,
                  -0.08185023814439774,
                  -0.0071943276561796665,
                  0.15423117578029633,
                  0.12279742956161499,
                  0.21644806861877441,
                  0.1651046872138977,
                  0.14142628014087677,
                  0.11149776726961136,
                  -0.07259893417358398,
                  -0.1355736255645752,
                  -0.07075134664773941,
                  0.11278118193149567,
                  -0.20657072961330414,
                  -0.05954117700457573,
                  -0.2002970278263092,
                  -0.17770026624202728,
                  -0.05941684916615486,
                  0.12866830825805664,
                  0.13538432121276855,
                  -0.13429351150989532,
                  -0.04698904976248741,
                  0.12248339504003525,
                  -0.17319121956825256,
                  0.18593955039978027,
                  0.09758634865283966,
                  -0.18925218284130096,
                  -0.052499402314424515,
                  0.10409024357795715,
                  -0.03672653064131737,
                  0.013957075774669647,
                  0.07540658116340637,
                  0.21062657237052917,
                  0.10139715671539307,
                  -0.11790893226861954,
                  0.13761410117149353,
                  0.09945106506347656,
                  0.002141075674444437,
                  0.1118098571896553,
                  -0.20199045538902283,
                  0.18031427264213562,
                  -0.030232878401875496,
                  -0.17377500236034393,
                  0.021363908424973488,
                  -0.15066000819206238,
                  -0.12881752848625183,
                  0.16574642062187195,
                  0.152577742934227,
                  0.08196938037872314,
                  -0.04944919794797897,
                  -0.17115411162376404,
                  0.13602261245250702,
                  0.05047851800918579,
                  0.027913302183151245,
                  0.2359228879213333,
                  0.2406310737133026,
                  0.13806617259979248,
                  0.025945978239178658,
                  0.03778788447380066,
                  0.0407630018889904,
                  0.02267645113170147,
                  0.0071796090342104435,
                  -0.12079763412475586,
                  0.04222656041383743,
                  0.18604595959186554,
                  -0.08962375670671463,
                  -0.02048138715326786,
                  0.0492994487285614,
                  -0.12720082700252533,
                  -0.11822646111249924,
                  0.1967541128396988,
                  0.09509260207414627,
                  0.020981937646865845,
                  -0.06028212606906891,
                  0.12284092605113983,
                  -0.20432767271995544,
                  -0.31740131974220276,
                  0.10256414860486984,
                  0.004045482259243727,
                  -0.017939621582627296,
                  0.18950118124485016,
                  -0.0655207559466362,
                  -0.11504499614238739,
                  0.06890879571437836,
                  0.09701523929834366,
                  -0.18805934488773346,
                  -0.09362658858299255,
                  -0.13789726793766022,
                  0.21552789211273193,
                  -0.013002688996493816,
                  -0.0829722136259079,
                  0.07500028610229492,
                  0.10539641231298447,
                  0.19186930358409882,
                  0.09981676191091537,
                  0.06804714351892471,
                  -0.2489151507616043,
                  0.21268807351589203,
                  -0.09039083123207092,
                  -0.1873653531074524,
                  -0.0739278718829155,
                  0.1462434083223343,
                  0.14264214038848877,
                  0.026227740570902824,
                  0.12280841171741486,
                  0.07913268357515335,
                  -0.05217515677213669,
                  0.062341202050447464,
                  0.11917074769735336,
                  0.05837847664952278,
                  0.005602238234132528,
                  -0.07403428852558136,
                  -0.1022944301366806,
                  0.01603250578045845,
                  0.1784459501504898,
                  0.039287492632865906,
                  -0.06851432472467422,
                  0.1745976209640503,
                  -0.10518290847539902,
                  -0.06034112721681595,
                  0.005853959359228611,
                  0.08354000002145767,
                  -0.16346848011016846,
                  -0.15281614661216736,
                  -0.0842304527759552,
                  0.1351880580186844,
                  -0.0003292967448942363,
                  -0.04434256628155708,
                  -0.19628870487213135,
                  0.11851149797439575,
                  0.04901893064379692,
                  0.19807058572769165,
                  0.0024829849135130644,
                  -0.11338934302330017,
                  -0.0964573472738266,
                  0.15691734850406647,
                  -0.1564931422472,
                  0.1161670833826065,
                  0.011302278377115726,
                  -0.11169278621673584,
                  -0.1412307471036911,
                  -0.053977277129888535,
                  -0.11937265843153,
                  0.2003943920135498,
                  0.014625378884375095,
                  -0.015543986111879349,
                  -0.054872509092092514,
                  0.035869210958480835,
                  0.14354480803012848,
                  -0.04592353478074074,
                  0.0674801915884018,
                  -0.1106863021850586,
                  0.013458906672894955,
                  0.17822417616844177,
                  0.1424451619386673,
                  -0.1916620433330536,
                  -0.10560767352581024,
                  0.031144682317972183,
                  -0.07362038642168045,
                  -0.033266741782426834,
                  0.15579856932163239,
                  -0.05156950652599335,
                  -0.0926346555352211,
                  0.15230987966060638,
                  0.06043555587530136,
                  -0.05995800718665123,
                  0.08832275122404099,
                  0.1735905408859253,
                  -0.18350431323051453,
                  0.03518194705247879,
                  0.011472045443952084,
                  0.07517058402299881,
                  0.10109621286392212,
                  0.09129086136817932,
                  0.15102161467075348,
                  -0.03083282709121704,
                  0.19496139883995056,
                  -0.10545367747545242,
                  0.03636810928583145,
                  -0.11376716196537018,
                  -0.12322719395160675,
                  -0.11468032747507095,
                  0.18866977095603943,
                  0.03766195476055145,
                  0.13135658204555511,
                  0.11066532880067825,
                  -0.07912053912878036,
                  -0.1067594438791275,
                  -0.06366237252950668,
                  -0.13547682762145996,
                  -0.04698532074689865,
                  -0.13152700662612915,
                  -0.13370868563652039,
                  0.05414623022079468,
                  0.06815791875123978,
                  0.09495075047016144,
                  0.051000576466321945,
                  -0.002089068526402116,
                  0.09118642657995224,
                  0.1678832322359085,
                  0.05199585482478142,
                  0.16696974635124207,
                  -0.03458072617650032,
                  -0.0984894186258316,
                  0.0960693508386612,
                  0.1945209801197052,
                  -0.05140112340450287,
                  -0.19340606033802032,
                  -0.00831504538655281,
                  -0.09906404465436935,
                  0.01277232263237238,
                  -0.008046135306358337,
                  0.03395240753889084,
                  0.16889341175556183,
                  -0.10437074303627014,
                  -0.005620589014142752,
                  -0.08314260095357895,
                  -0.16887730360031128,
                  0.14871768653392792,
                  -0.011332239024341106,
                  0.09583798795938492,
                  -0.17586621642112732,
                  -0.16203093528747559,
                  -0.08728988468647003,
                  0.17221735417842865,
                  -0.15943044424057007,
                  -0.19665853679180145,
                  -0.12896721065044403,
                  0.16842180490493774,
                  -0.026080859825015068,
                  0.04739892855286598,
                  -0.024013012647628784,
                  -0.15105681121349335,
                  0.06622110307216644,
                  0.11731737107038498,
                  0.15103569626808167,
                  0.0017759243492037058,
                  0.1346568614244461,
                  -0.054859358817338943,
                  -0.12431605160236359,
                  -0.19943714141845703,
                  0.15478397905826569,
                  -0.005581931211054325,
                  0.07581748068332672,
                  0.17365264892578125,
                  -0.029383929446339607,
                  -0.05501241609454155,
                  0.13002578914165497,
                  -0.028689630329608917,
                  -0.11449091136455536,
                  0.10663032531738281,
                  -0.04079961031675339,
                  0.010183409787714481,
                  -0.193426251411438,
                  -0.004127995576709509,
                  -0.10410957783460617,
                  -0.09716396033763885,
                  0.12312579154968262,
                  0.1144089475274086,
                  -0.003627117956057191,
                  -0.08108111470937729,
                  -0.13691465556621552,
                  -0.18618598580360413,
                  0.14435307681560516,
                  0.15965408086776733,
                  0.027582794427871704,
                  0.15874755382537842,
                  0.11940242350101471,
                  -0.1161014661192894,
                  0.13245414197444916,
                  0.05968329310417175,
                  -0.08296772837638855,
                  0.14197251200675964,
                  -0.029962606728076935,
                  -0.10019000619649887,
                  0.026685919612646103,
                  -0.041043948382139206,
                  -0.06861473619937897,
                  0.05558352172374725,
                  -0.13952596485614777,
                  -0.09075631201267242,
                  0.09376008808612823,
                  -0.045526180416345596,
                  0.1081281527876854,
                  0.04739386588335037,
                  -0.061416786164045334,
                  0.06458121538162231,
                  -0.07768211513757706,
                  0.021752066910266876,
                  0.11466214805841446,
                  0.15483923256397247,
                  0.1382501721382141,
                  0.14080601930618286,
                  0.09142302721738815,
                  0.03929915651679039,
                  -0.13606560230255127,
                  0.15062549710273743,
                  0.1775292456150055,
                  0.11238234490156174,
                  -0.19161343574523926,
                  -0.14259901642799377,
                  0.18285861611366272,
                  0.05162069573998451,
                  -0.03804642707109451,
                  0.18986031413078308,
                  -0.02896123379468918,
                  -0.19367894530296326,
                  0.07370404899120331,
                  0.16832849383354187,
                  -0.04066194221377373,
                  -0.11684615910053253,
                  -0.16558867692947388,
                  -0.13289353251457214,
                  0.16163569688796997,
                  -0.06846285611391068,
                  0.14797213673591614,
                  -0.21087945997714996,
                  0.12817473709583282,
                  0.199615940451622,
                  0.10547302663326263,
                  0.14800581336021423
              ],
              [
                  -0.07481205463409424,
                  -0.0816735103726387,
                  -0.011921338737010956,
                  -0.04316750168800354,
                  -0.03196554630994797,
                  0.03272198513150215,
                  -0.05433885380625725,
                  -0.08667929470539093,
                  -0.020869368687272072,
                  0.07935191690921783,
                  0.053597379475831985,
                  -0.12114354968070984,
                  0.02391086146235466,
                  0.14229373633861542,
                  0.14101219177246094,
                  -0.07194651663303375,
                  -0.18209414184093475,
                  0.18070164322853088,
                  -0.16887696087360382,
                  0.18779022991657257,
                  -0.15461966395378113,
                  -0.09344188123941422,
                  -0.08921125531196594,
                  -0.12171900272369385,
                  -0.1557226926088333,
                  -0.12945367395877838,
                  0.11396671831607819,
                  0.1689869463443756,
                  -0.05765368789434433,
                  -0.13802413642406464,
                  0.0025884404312819242,
                  0.024044640362262726,
                  0.11067645996809006,
                  -0.08444768190383911,
                  -0.10855796933174133,
                  -0.15270476043224335,
                  0.1011003702878952,
                  -0.11628125607967377,
                  -0.03575554117560387,
                  0.000700234028045088,
                  -0.1427101045846939,
                  0.13431961834430695,
                  0.039618633687496185,
                  0.1214299276471138,
                  -0.14491714537143707,
                  0.1645541489124298,
                  -0.013712938874959946,
                  -0.1439000964164734,
                  0.013554781675338745,
                  -0.06062671169638634,
                  0.15464729070663452,
                  0.08088459074497223,
                  -0.1005905270576477,
                  0.04239549860358238,
                  -0.08543232828378677,
                  -0.10048675537109375,
                  -0.09043291211128235,
                  -0.0415065661072731,
                  -0.1729215383529663,
                  -0.14534355700016022,
                  0.11153770238161087,
                  -0.016951223835349083,
                  -0.07527780532836914,
                  -0.11005712300539017,
                  0.059838805347681046,
                  0.15904855728149414,
                  -0.20532557368278503,
                  0.20133407413959503,
                  0.15685714781284332,
                  -0.012677456252276897,
                  -0.183447003364563,
                  0.06420135498046875,
                  -0.006380919367074966,
                  0.19884265959262848,
                  0.1769641637802124,
                  0.1472683697938919,
                  -0.09076087921857834,
                  -0.006418142933398485,
                  0.11101002991199493,
                  -0.053188256919384,
                  0.024939710274338722,
                  0.11910410225391388,
                  -0.04452128708362579,
                  -0.12093261629343033,
                  0.10783486813306808,
                  0.06796182692050934,
                  -0.09436412900686264,
                  0.01932177133858204,
                  0.0013096524635329843,
                  -0.06132565438747406,
                  0.001584822777658701,
                  -0.020541761070489883,
                  -0.029238006100058556,
                  -0.026050077751278877,
                  -0.14857886731624603,
                  -0.058253705501556396,
                  -0.11380493640899658,
                  -0.08084995299577713,
                  -0.001750573399476707,
                  -0.03554465249180794,
                  -0.026553504168987274,
                  -0.0006316512008197606,
                  0.0020456945057958364,
                  0.1937578171491623,
                  -0.06775006651878357,
                  -0.005956962704658508,
                  0.11356472969055176,
                  0.15998893976211548,
                  -0.03193052113056183,
                  0.16038978099822998,
                  0.09053424000740051,
                  0.038942281156778336,
                  -0.19058960676193237,
                  -0.1804213523864746,
                  0.03883868828415871,
                  -0.12182478606700897,
                  -0.1394512951374054,
                  -0.030888104811310768,
                  0.07034273445606232,
                  -0.19985724985599518,
                  -0.12299088388681412,
                  -0.024144547060132027,
                  0.1043655201792717,
                  -0.07402518391609192,
                  -0.20805756747722626,
                  0.011458221822977066,
                  -0.02689984440803528,
                  -0.05245773494243622,
                  -0.11948083341121674,
                  -0.006777835078537464,
                  0.10047528147697449,
                  0.1241314485669136,
                  0.09443499892950058,
                  0.1574682593345642,
                  -0.14501047134399414,
                  -0.017877940088510513,
                  -0.012574161402881145,
                  0.02698484994471073,
                  0.07658399641513824,
                  0.0483207143843174,
                  0.18781521916389465,
                  -0.17105785012245178,
                  0.01775696873664856,
                  -0.211898535490036,
                  0.035422977060079575,
                  0.04077884554862976,
                  -0.01792226918041706,
                  0.03563403710722923,
                  -0.05333254486322403,
                  0.12050849944353104,
                  0.12442677468061447,
                  -0.13318465650081635,
                  -0.18129150569438934,
                  -0.10750547796487808,
                  0.06866858899593353,
                  0.08626770973205566,
                  -0.02198217809200287,
                  -0.00578687246888876,
                  0.05527297407388687,
                  -0.0853935182094574,
                  -0.04742412269115448,
                  -0.19303911924362183,
                  -0.13594867289066315,
                  -0.02325061336159706,
                  -0.006299158092588186,
                  0.1512722373008728,
                  0.11479664593935013,
                  0.13843847811222076,
                  0.005938594229519367,
                  -0.028790300711989403,
                  -0.01782086119055748,
                  0.14445637166500092,
                  -0.15499316155910492,
                  -0.14775557816028595,
                  0.03528519719839096,
                  0.1226227879524231,
                  0.0740274116396904,
                  0.11502648890018463,
                  0.07315132766962051,
                  0.032971907407045364,
                  0.1860491931438446,
                  -0.12370997667312622,
                  -0.18373583257198334,
                  0.15388911962509155,
                  0.0541677325963974,
                  -0.11612986028194427,
                  -0.14615198969841003,
                  -0.07346835732460022,
                  -0.07588649541139603,
                  -0.004158938303589821,
                  0.12409404665231705,
                  -0.08325180411338806,
                  -0.071536123752594,
                  -0.14965276420116425,
                  -0.013889055699110031,
                  -0.11987703293561935,
                  -0.16971029341220856,
                  -0.17084738612174988,
                  0.15228833258152008,
                  -0.09434450417757034,
                  0.030721623450517654,
                  0.04531007260084152,
                  -0.17210739850997925,
                  0.11287641525268555,
                  -0.10220178961753845,
                  -0.05798468366265297,
                  0.18306756019592285,
                  0.1510777622461319,
                  -0.07285160571336746,
                  -0.11131008714437485,
                  0.19741283357143402,
                  0.1664460003376007,
                  0.08430702239274979,
                  -0.019560839980840683,
                  0.1881861835718155,
                  0.1188565120100975,
                  0.06767211854457855,
                  -0.0708841010928154,
                  -0.16636209189891815,
                  0.034794192761182785,
                  -0.0526423417031765,
                  -0.08935568481683731,
                  -0.04884541407227516,
                  -0.14430102705955505,
                  0.19320635497570038,
                  0.03381664678454399,
                  0.05681484937667847,
                  -0.17256717383861542,
                  -0.000981470919214189,
                  0.18309691548347473,
                  -0.20453417301177979,
                  -0.03088611178100109,
                  -0.14424923062324524,
                  -0.06406049430370331,
                  0.18286751210689545,
                  0.05106287822127342,
                  0.04333420470356941,
                  0.10052726417779922,
                  -0.04657953605055809,
                  -0.08337734639644623,
                  0.19551992416381836,
                  0.0010679973056539893,
                  -0.19606296718120575,
                  -0.033687811344861984,
                  0.07884380221366882,
                  0.0008804324897937477,
                  0.010177448391914368,
                  -0.12039778381586075,
                  -0.11876676976680756,
                  0.1715255230665207,
                  -0.11878081411123276,
                  -0.11560513079166412,
                  0.010871167294681072,
                  0.1303892582654953,
                  0.18902382254600525,
                  0.12447230517864227,
                  0.14063210785388947,
                  0.18358097970485687,
                  -0.02398826740682125,
                  -0.12301429361104965,
                  0.1394607424736023,
                  -0.18584159016609192,
                  -0.20518042147159576,
                  -0.04453861340880394,
                  0.11812780052423477,
                  0.02695348672568798,
                  0.11878427863121033,
                  0.059174057096242905,
                  0.17449262738227844,
                  -0.12948541343212128,
                  -0.054830193519592285,
                  -0.04656125605106354,
                  0.12751474976539612,
                  0.11161069571971893,
                  0.1804739534854889,
                  -0.12393593043088913,
                  -0.08884313702583313,
                  -0.10146117210388184,
                  -0.03424141928553581,
                  -0.1422789990901947,
                  0.15037928521633148,
                  -0.17512314021587372,
                  -0.051176805049180984,
                  -0.04114484414458275,
                  0.19049562513828278,
                  0.09171900153160095,
                  -0.06072940677404404,
                  0.08903902024030685,
                  0.18253442645072937,
                  -0.08256848901510239,
                  -0.08398371934890747,
                  -0.0017309366958215833,
                  0.04704445227980614,
                  -0.12956953048706055,
                  0.02386483922600746,
                  -0.14602521061897278,
                  0.009662858210504055,
                  0.03222968056797981,
                  0.05543405935168266,
                  -0.15835480391979218,
                  0.09881380945444107,
                  0.08086614310741425,
                  -0.009978106245398521,
                  0.1537146419286728,
                  -0.1532289683818817,
                  -0.14242568612098694,
                  0.03987301513552666,
                  0.15191017091274261,
                  -0.1633438616991043,
                  -0.05881744995713234,
                  0.03096826560795307,
                  0.11357978731393814,
                  0.07474466413259506,
                  -0.05866128206253052,
                  -0.020890193060040474,
                  -0.120778389275074,
                  0.1094534769654274,
                  0.13697095215320587,
                  0.18117095530033112,
                  0.09393253177404404,
                  0.15821285545825958,
                  0.10936370491981506,
                  -0.11647194623947144,
                  -0.15657496452331543,
                  0.04372824355959892,
                  0.07043290138244629,
                  0.15498627722263336,
                  -0.048654183745384216,
                  -0.015396172180771828,
                  -0.11894890666007996,
                  0.13427528738975525,
                  0.015302845276892185,
                  -0.11378759145736694,
                  -0.06815244257450104,
                  0.05547771230340004,
                  -0.0785488486289978,
                  0.008356117643415928,
                  -0.09836175292730331,
                  0.19663061201572418,
                  0.1535981148481369,
                  0.12306211143732071,
                  0.1710747629404068,
                  0.10822002589702606,
                  0.04410787671804428,
                  0.10628456622362137,
                  -0.10122094303369522,
                  0.1223522201180458,
                  -0.10544797778129578,
                  0.10800720006227493,
                  -0.010928460396826267,
                  0.06597117334604263,
                  0.08814945071935654,
                  -0.18443001806735992,
                  0.00383942574262619,
                  0.08085563033819199,
                  0.12059503048658371,
                  0.06277281790971756,
                  -0.013512324541807175,
                  -0.17641711235046387,
                  -0.038657862693071365,
                  0.19144219160079956,
                  -0.15811984241008759,
                  -0.06372234970331192,
                  0.0652429461479187,
                  -0.18427054584026337,
                  -0.03126274049282074,
                  -0.18965499103069305,
                  -0.19991888105869293,
                  0.09406419098377228,
                  0.17921215295791626,
                  -0.17152440547943115,
                  0.18194900453090668,
                  -0.10538844019174576,
                  -0.0027554938569664955,
                  -0.17324572801589966,
                  0.16071289777755737,
                  -0.13099560141563416,
                  -0.0895741805434227,
                  -0.17453332245349884,
                  -0.06814667582511902,
                  0.04166463762521744,
                  -0.05527995154261589,
                  0.16369882225990295,
                  -0.08627297729253769,
                  0.06259196251630783,
                  -0.1343245804309845,
                  0.06792505830526352,
                  0.03241235390305519,
                  0.005916634574532509,
                  -0.028816429898142815,
                  -0.03804618492722511,
                  0.058325570076704025,
                  0.010497269220650196,
                  -0.14687034487724304,
                  -0.05035815015435219,
                  0.19908589124679565,
                  -0.01730095036327839,
                  0.08110950887203217,
                  -0.12630826234817505,
                  -0.16909687221050262
              ],
              [
                  -0.09234316647052765,
                  -0.08903764188289642,
                  0.023051178082823753,
                  0.12926357984542847,
                  0.1332009881734848,
                  -0.0774567499756813,
                  0.08299320936203003,
                  -0.11596177518367767,
                  -0.03718236833810806,
                  0.02383405528962612,
                  0.0306620541960001,
                  0.03975704684853554,
                  -0.13776427507400513,
                  -0.09137746691703796,
                  0.12610433995723724,
                  0.09981564432382584,
                  -0.10696210712194443,
                  -0.15891501307487488,
                  0.0518304742872715,
                  0.18620382249355316,
                  -0.08234833925962448,
                  0.13499395549297333,
                  -0.14915722608566284,
                  -0.23127372562885284,
                  0.06341974437236786,
                  -0.17613114416599274,
                  0.030019983649253845,
                  -0.058926649391651154,
                  -0.09632349759340286,
                  -0.203061044216156,
                  0.15541307628154755,
                  -0.010823223739862442,
                  -0.004962926730513573,
                  0.009660260751843452,
                  0.08665938675403595,
                  -0.17025958001613617,
                  0.036680515855550766,
                  -0.21242757141590118,
                  -0.15173865854740143,
                  0.1338755041360855,
                  0.06825082004070282,
                  0.12448190897703171,
                  -0.07130835205316544,
                  0.06050431355834007,
                  0.1362576186656952,
                  0.019155465066432953,
                  -0.14508871734142303,
                  -0.28190353512763977,
                  0.1013653427362442,
                  0.028262941166758537,
                  -0.003752486314624548,
                  0.1601039320230484,
                  -0.016866182908415794,
                  0.1005164086818695,
                  -0.1251094788312912,
                  0.05382070690393448,
                  -0.008494657464325428,
                  0.2264537215232849,
                  -0.1925515979528427,
                  -0.16734057664871216,
                  -0.1104288175702095,
                  -0.16073808073997498,
                  0.06148717924952507,
                  0.12235697358846664,
                  0.24806006252765656,
                  0.1433631032705307,
                  -0.08820653706789017,
                  0.067397840321064,
                  0.21607361733913422,
                  0.25758692622184753,
                  0.18050570785999298,
                  0.05995801091194153,
                  0.029247846454381943,
                  -0.15324637293815613,
                  0.04130382835865021,
                  0.09772737324237823,
                  -0.01316919270902872,
                  -0.14622560143470764,
                  0.0069754780270159245,
                  0.02001187391579151,
                  0.08515407890081406,
                  -0.06695851683616638,
                  0.1560613512992859,
                  -0.05243439972400665,
                  -0.04832258075475693,
                  0.22795024514198303,
                  -0.19813771545886993,
                  0.2056310921907425,
                  -0.06813673675060272,
                  -0.1374339759349823,
                  -0.16985686123371124,
                  -0.13871914148330688,
                  -0.12477833777666092,
                  0.2006126046180725,
                  0.08596861362457275,
                  0.10548720508813858,
                  -0.09061053395271301,
                  -0.08440493047237396,
                  -0.007308358326554298,
                  -0.04396727681159973,
                  -0.11742959916591644,
                  -0.05238126218318939,
                  0.2393466979265213,
                  0.1602444350719452,
                  -0.06328631937503815,
                  -0.05440066382288933,
                  -0.02549680694937706,
                  0.13092511892318726,
                  -0.06543117761611938,
                  -0.12915447354316711,
                  0.07328297942876816,
                  0.15737682580947876,
                  -0.053763989359140396,
                  0.14574426412582397,
                  0.0926138237118721,
                  0.0016890527913346887,
                  -0.08913974463939667,
                  -0.08278792351484299,
                  -0.061429694294929504,
                  0.04655855894088745,
                  -0.14422105252742767,
                  0.1667165458202362,
                  0.21044406294822693,
                  -0.17154237627983093,
                  0.04541243985295296,
                  -0.11712801456451416,
                  0.24701787531375885,
                  0.15722960233688354,
                  0.07645557820796967,
                  -0.14446835219860077,
                  -0.05184081569314003,
                  -0.2818988561630249,
                  -0.17265324294567108,
                  -0.03178814798593521,
                  0.15248315036296844,
                  -0.17709581553936005,
                  -0.08430460840463638,
                  -0.0806112214922905,
                  0.10460716485977173,
                  -0.053722526878118515,
                  -0.06094879284501076,
                  -0.12797731161117554,
                  0.09433217346668243,
                  0.11954937875270844,
                  -0.0026822159998118877,
                  0.03790868818759918,
                  0.058287594467401505,
                  0.1594039499759674,
                  0.16343742609024048,
                  0.11089121550321579,
                  0.3255613148212433,
                  -0.18510103225708008,
                  0.1385432332754135,
                  -0.036331888288259506,
                  -0.10267306864261627,
                  -0.001170163624919951,
                  -0.07423344254493713,
                  -0.03265698626637459,
                  -0.04306626319885254,
                  0.16695697605609894,
                  0.21914027631282806,
                  0.230948805809021,
                  0.01843864656984806,
                  0.22947752475738525,
                  0.014531877823174,
                  0.20227257907390594,
                  0.05445736646652222,
                  0.23484675586223602,
                  0.1302056610584259,
                  0.13757623732089996,
                  0.11120451241731644,
                  -0.11568719148635864,
                  0.1843731552362442,
                  0.020910440012812614,
                  0.244596928358078,
                  -0.2041747272014618,
                  -0.0684623196721077,
                  0.16256611049175262,
                  0.061200935393571854,
                  -0.16628187894821167,
                  0.22219617664813995,
                  0.07538896799087524,
                  -0.017891500145196915,
                  -0.03262848034501076,
                  -0.1144297793507576,
                  -0.23808220028877258,
                  0.09381907433271408,
                  -0.06805972754955292,
                  -0.11946161091327667,
                  0.02267462946474552,
                  -0.22112980484962463,
                  0.12811358273029327,
                  0.21187402307987213,
                  0.43017449975013733,
                  -0.010339239612221718,
                  0.01997574418783188,
                  -0.07377343624830246,
                  -0.04955899715423584,
                  0.06891139596700668,
                  -0.001839664182625711,
                  0.18882684409618378,
                  -0.06889113783836365,
                  -0.19046567380428314,
                  0.15310141444206238,
                  0.06525338441133499,
                  0.04737938940525055,
                  -0.05649386718869209,
                  0.1125149056315422,
                  0.031668294221162796,
                  0.09096743911504745,
                  0.02384086884558201,
                  0.060494448989629745,
                  0.1265341192483902,
                  -0.0436597540974617,
                  -0.18313582241535187,
                  0.029981061816215515,
                  -0.15213744342327118,
                  0.0708060935139656,
                  0.16217437386512756,
                  -0.09766392409801483,
                  -0.1541597694158554,
                  0.033006101846694946,
                  -0.19309557974338531,
                  -0.14222301542758942,
                  -0.2136625200510025,
                  0.021028781309723854,
                  -0.06560712307691574,
                  0.035393159836530685,
                  -0.1398337036371231,
                  -0.06645378470420837,
                  -0.19251956045627594,
                  -0.17911061644554138,
                  -0.1315472275018692,
                  0.1007993146777153,
                  0.08318176120519638,
                  0.1967865526676178,
                  -0.08764302730560303,
                  0.02818392403423786,
                  -0.025430092588067055,
                  -0.16116946935653687,
                  -0.005021745804697275,
                  -0.05925552174448967,
                  -0.1908973902463913,
                  0.02396419458091259,
                  -0.17534717917442322,
                  -0.036812350153923035,
                  -0.09855048358440399,
                  0.17140522599220276,
                  0.16480936110019684,
                  0.01573210395872593,
                  0.02035338804125786,
                  -0.1410900205373764,
                  0.12882639467716217,
                  0.17906025052070618,
                  -0.015308249741792679,
                  -0.06853721290826797,
                  0.07185060530900955,
                  -0.1729266345500946,
                  -0.11513762921094894,
                  0.06224139779806137,
                  -0.0010873246937990189,
                  -0.09872791916131973,
                  -0.18656311929225922,
                  0.05477853864431381,
                  0.01043004635721445,
                  0.12325935810804367,
                  0.0878996029496193,
                  -0.08808588981628418,
                  -0.029871298000216484,
                  -0.06824713945388794,
                  -0.17803999781608582,
                  0.09449855238199234,
                  -0.025068018585443497,
                  -0.05324498936533928,
                  0.18480707705020905,
                  0.05116286128759384,
                  -0.15145286917686462,
                  0.05900289863348007,
                  0.03561241179704666,
                  0.15209020674228668,
                  0.004304312169551849,
                  0.12280219048261642,
                  0.005990040022879839,
                  0.12774626910686493,
                  0.05683555081486702,
                  -0.006150149740278721,
                  -0.15275585651397705,
                  -0.18017125129699707,
                  -0.18202024698257446,
                  -0.11184181272983551,
                  -0.16719141602516174,
                  -0.16488853096961975,
                  -0.10015764832496643,
                  0.010437277145683765,
                  -0.18807224929332733,
                  -0.1168317198753357,
                  0.06410462409257889,
                  0.0355900339782238,
                  0.003760304767638445,
                  -0.10736701637506485,
                  0.1984885185956955,
                  0.025132322683930397,
                  -0.13502368330955505,
                  0.09840084612369537,
                  0.1561381220817566,
                  0.09388910233974457,
                  -0.08346683531999588,
                  -0.03796148672699928,
                  -0.20900267362594604,
                  -0.002144663827493787,
                  0.15249039232730865,
                  0.1175149455666542,
                  -0.17168742418289185,
                  -0.08884268254041672,
                  -0.07680590450763702,
                  -0.09766466170549393,
                  -0.03801478073000908,
                  -0.06743364781141281,
                  0.13948947191238403,
                  -0.13553917407989502,
                  0.1453924924135208,
                  0.11419428139925003,
                  -0.1965794414281845,
                  -0.13675719499588013,
                  0.14782193303108215,
                  0.07724574208259583,
                  -0.013318920508027077,
                  0.15877938270568848,
                  -0.19654959440231323,
                  -0.1842382550239563,
                  -0.02746724523603916,
                  -0.02744424343109131,
                  -0.09939981251955032,
                  -0.18231573700904846,
                  -0.07701050490140915,
                  0.03200206160545349,
                  -0.056498222053050995,
                  0.136435866355896,
                  -0.05777266249060631,
                  0.18055936694145203,
                  0.0832158699631691,
                  0.05332537367939949,
                  0.02180291712284088,
                  -0.185174360871315,
                  -0.19286377727985382,
                  -0.09320657700300217,
                  0.027385635301470757,
                  -0.1053185760974884,
                  -0.031004462391138077,
                  0.09771467000246048,
                  -0.10964570194482803,
                  -0.07142169773578644,
                  0.09681790322065353,
                  0.14857012033462524,
                  0.0049238852225244045,
                  0.1659124493598938,
                  -0.05758989602327347,
                  -0.0007245909655466676,
                  0.10415397584438324,
                  -0.19250062108039856,
                  0.09291744232177734,
                  0.04681689292192459,
                  -0.14340469241142273,
                  -0.13936762511730194,
                  -0.17175234854221344,
                  0.11676374077796936,
                  -0.1504422277212143,
                  -0.06874022632837296,
                  -0.14832553267478943,
                  0.017627079039812088,
                  0.12290886044502258,
                  0.06722303479909897,
                  -0.11409103125333786,
                  0.007712964434176683,
                  -0.033231426030397415,
                  -0.11097735166549683,
                  -0.1461377739906311,
                  -0.031041258946061134,
                  0.0400436595082283,
                  0.07919196784496307,
                  0.0444309376180172,
                  -0.08261925727128983,
                  0.13297423720359802,
                  0.06346000730991364,
                  0.08665452152490616,
                  -0.14485898613929749,
                  -0.06705155223608017,
                  0.04465598240494728,
                  0.12986120581626892,
                  0.16021953523159027,
                  0.11328661441802979,
                  0.16071459650993347,
                  0.11038117855787277,
                  0.002149785403162241,
                  0.1321284919977188,
                  -0.03806804493069649,
                  -0.0932096615433693,
                  0.2013431340456009,
                  0.04737497493624687,
                  0.04229756072163582
              ],
              [
                  0.017073996365070343,
                  -0.04110322147607803,
                  0.08569735288619995,
                  0.08699820935726166,
                  0.18460050225257874,
                  -0.13130176067352295,
                  0.1974603235721588,
                  -0.09203030914068222,
                  -0.15951065719127655,
                  0.05166258662939072,
                  -0.1618448942899704,
                  -0.12471377849578857,
                  -0.19566576182842255,
                  -0.125,
                  0.12606927752494812,
                  -0.1701187938451767,
                  -0.16077642142772675,
                  -0.08692090958356857,
                  -0.019425339996814728,
                  -0.09058305621147156,
                  0.12280701845884323,
                  0.14639799296855927,
                  0.01458731945604086,
                  -0.07877996563911438,
                  -0.0017668385989964008,
                  0.13708312809467316,
                  0.19168893992900848,
                  -0.18609225749969482,
                  0.14494334161281586,
                  -0.14846809208393097,
                  0.11962529271841049,
                  -0.08473692089319229,
                  0.11699935793876648,
                  0.027381397783756256,
                  0.1751781404018402,
                  0.009923215955495834,
                  0.14242815971374512,
                  0.08777542412281036,
                  -0.08544901758432388,
                  0.07992860674858093,
                  0.11764021217823029,
                  -0.11679252982139587,
                  0.159544438123703,
                  0.19385771453380585,
                  -0.1698681265115738,
                  -0.0018380549736320972,
                  0.2025856375694275,
                  0.1718049794435501,
                  0.10226494818925858,
                  0.18497012555599213,
                  -0.07651287317276001,
                  0.0051622153259813786,
                  0.12382864207029343,
                  -0.06874921172857285,
                  -0.17124804854393005,
                  -0.061652299016714096,
                  0.14285646378993988,
                  -0.04767952114343643,
                  0.16214445233345032,
                  0.14161700010299683,
                  0.12219805270433426,
                  -0.00644796434789896,
                  -0.12750425934791565,
                  -0.13112114369869232,
                  -0.006479877047240734,
                  0.1754692643880844,
                  0.19535094499588013,
                  -0.030736854299902916,
                  -0.053573157638311386,
                  0.038871098309755325,
                  0.10381027311086655,
                  0.1579885482788086,
                  -0.14352303743362427,
                  0.02307496964931488,
                  -0.04624442011117935,
                  -0.11173509061336517,
                  -0.08218663185834885,
                  -0.19801917672157288,
                  -0.19990670680999756,
                  0.10903047770261765,
                  0.19469855725765228,
                  0.03621552139520645,
                  -0.09811891615390778,
                  -0.16039012372493744,
                  0.07289589941501617,
                  -0.18119800090789795,
                  0.16076406836509705,
                  -0.15503215789794922,
                  0.12222587317228317,
                  -0.15795864164829254,
                  0.019663626328110695,
                  0.012613543309271336,
                  -0.15845681726932526,
                  -0.06363676488399506,
                  -0.05273110792040825,
                  -0.15657958388328552,
                  -0.07452663779258728,
                  -0.008184210397303104,
                  0.035944536328315735,
                  -0.08547975867986679,
                  0.17528578639030457,
                  0.08070384711027145,
                  -0.1875184178352356,
                  0.16951167583465576,
                  -0.14250418543815613,
                  0.1398938000202179,
                  0.18603499233722687,
                  0.007638087496161461,
                  0.10195795446634293,
                  0.09552410989999771,
                  0.006101750768721104,
                  -0.016493940725922585,
                  0.022387471050024033,
                  -0.13167408108711243,
                  0.11577146500349045,
                  -0.06682778894901276,
                  0.09548210352659225,
                  0.03249076008796692,
                  0.07245060801506042,
                  0.10472926497459412,
                  0.09135094285011292,
                  -0.026569180190563202,
                  -0.026399366557598114,
                  -0.1118834987282753,
                  -0.12993964552879333,
                  0.13258491456508636,
                  -0.1574692279100418,
                  0.12806683778762817,
                  -0.14137807488441467,
                  0.11058898270130157,
                  0.1610068827867508,
                  0.12917707860469818,
                  -0.10202369093894958,
                  -0.09362305700778961,
                  -0.14615806937217712,
                  -0.20415383577346802,
                  0.16046008467674255,
                  0.10948013514280319,
                  0.029258670285344124,
                  -0.15731322765350342,
                  -0.20882022380828857,
                  -0.043624017387628555,
                  0.0848097950220108,
                  0.04152575880289078,
                  -0.036940570920705795,
                  0.0279159564524889,
                  0.06425302475690842,
                  -0.182253897190094,
                  -0.06551840156316757,
                  -0.05920393764972687,
                  0.10403643548488617,
                  -0.13766393065452576,
                  0.03170274943113327,
                  0.23716184496879578,
                  0.1395946741104126,
                  0.12832388281822205,
                  0.04862307757139206,
                  -0.009553062729537487,
                  0.14178340137004852,
                  0.015240952372550964,
                  -0.003454923629760742,
                  -0.0013524774694815278,
                  0.14545153081417084,
                  0.18996140360832214,
                  -0.06973735988140106,
                  -0.030412914231419563,
                  -0.13942651450634003,
                  -0.0703984797000885,
                  0.02516718953847885,
                  0.08178883045911789,
                  0.19838200509548187,
                  0.025319699198007584,
                  0.05221307650208473,
                  0.19951269030570984,
                  -0.17857655882835388,
                  0.1748272031545639,
                  0.10346879810094833,
                  0.13991281390190125,
                  0.14193911850452423,
                  0.1712297648191452,
                  0.08336195349693298,
                  -0.011680941097438335,
                  0.08570698648691177,
                  0.1356258988380432,
                  0.18457677960395813,
                  0.10827882587909698,
                  0.0920686274766922,
                  0.09866113215684891,
                  -0.07270568609237671,
                  -0.08359737694263458,
                  0.13126198947429657,
                  0.007773783523589373,
                  0.2277117371559143,
                  0.15782727301120758,
                  0.11294324696063995,
                  0.11635506898164749,
                  -0.09059629589319229,
                  0.15498074889183044,
                  0.19878879189491272,
                  0.08978553861379623,
                  0.09456687420606613,
                  -0.1803470104932785,
                  0.1838967502117157,
                  -0.17443817853927612,
                  -0.08857264369726181,
                  0.11428745090961456,
                  -0.15026462078094482,
                  -0.1577596366405487,
                  0.023344222456216812,
                  0.06282250583171844,
                  -0.07265710085630417,
                  -0.1442699283361435,
                  -0.054593414068222046,
                  -0.053987082093954086,
                  -0.010200180113315582,
                  0.0188323725014925,
                  -0.05006164684891701,
                  -0.05751485750079155,
                  -0.14345315098762512,
                  -0.18198798596858978,
                  0.04296502470970154,
                  -0.07234839349985123,
                  0.03769852593541145,
                  -0.04301071539521217,
                  0.16420671343803406,
                  0.1592971831560135,
                  0.1365274339914322,
                  -0.010953988879919052,
                  0.14231981337070465,
                  0.14167597889900208,
                  0.1721588671207428,
                  0.1992262899875641,
                  -0.10604073852300644,
                  -0.14391137659549713,
                  0.12735149264335632,
                  0.09707048535346985,
                  -0.1483609974384308,
                  0.02625248208642006,
                  -0.05814129486680031,
                  0.02308586984872818,
                  0.1503077894449234,
                  0.005187503527849913,
                  -0.19850988686084747,
                  0.16690629720687866,
                  0.04700636491179466,
                  -0.11308366805315018,
                  -0.10376119613647461,
                  0.044952910393476486,
                  -0.012470479123294353,
                  -0.14197365939617157,
                  -0.07368657737970352,
                  0.02440834790468216,
                  0.1550314575433731,
                  -0.01319074910134077,
                  0.18019801378250122,
                  -0.056770019233226776,
                  0.006176955997943878,
                  -0.14175023138523102,
                  0.0664159506559372,
                  -0.1480216085910797,
                  0.19386112689971924,
                  0.14536286890506744,
                  0.022717569023370743,
                  -0.0066754682920873165,
                  0.12901440262794495,
                  -0.1533866673707962,
                  -0.16878008842468262,
                  -0.019686659798026085,
                  -0.02093302085995674,
                  0.019327133893966675,
                  -0.19350427389144897,
                  0.043792035430669785,
                  -0.029417863115668297,
                  -0.10094937682151794,
                  -0.01008558738976717,
                  -0.12583397328853607,
                  0.0735517144203186,
                  -0.14070288836956024,
                  0.03625260666012764,
                  0.016852639615535736,
                  -0.04601214453577995,
                  0.14239314198493958,
                  0.1627313196659088,
                  0.00036696766619570553,
                  0.08555803447961807,
                  -0.04854416474699974,
                  0.02828766405582428,
                  0.10155600309371948,
                  -0.16745150089263916,
                  -0.05746868625283241,
                  0.016942359507083893,
                  0.1157965362071991,
                  -0.09407685697078705,
                  -0.02171114645898342,
                  -0.08445949107408524,
                  -0.1691286712884903,
                  -0.1313970386981964,
                  0.18610332906246185,
                  0.07701832801103592,
                  -0.11156202107667923,
                  0.04687359929084778,
                  0.18769299983978271,
                  0.06753569096326828,
                  0.015806568786501884,
                  0.0005296517047099769,
                  0.18933714926242828,
                  0.07573997974395752,
                  -0.01850164122879505,
                  -0.15907812118530273,
                  0.05010291934013367,
                  0.17991319298744202,
                  -0.09255210310220718,
                  -0.06732683628797531,
                  -0.021525563672184944,
                  -0.01592494174838066,
                  -0.10084192454814911,
                  0.12652529776096344,
                  -0.16539783775806427,
                  0.022149356082081795,
                  0.11632087826728821,
                  -0.10234548896551132,
                  0.16786552965641022,
                  0.16661450266838074,
                  -0.0023670606315135956,
                  0.17858335375785828,
                  -0.09028860926628113,
                  -0.14621134102344513,
                  -0.1451864391565323,
                  0.07606963068246841,
                  -0.11735223978757858,
                  -0.01747189648449421,
                  0.08614092320203781,
                  0.12818360328674316,
                  0.18003976345062256,
                  0.07453035563230515,
                  -0.19093918800354004,
                  -0.14349886775016785,
                  0.020054487511515617,
                  0.0757157951593399,
                  0.010081948712468147,
                  -0.13137614727020264,
                  0.10340894758701324,
                  -0.13384322822093964,
                  0.1244669184088707,
                  -0.07576870173215866,
                  -0.11058861017227173,
                  -0.06263072043657303,
                  -0.17325185239315033,
                  0.07916160672903061,
                  -0.0024675701279193163,
                  0.14519135653972626,
                  0.04009407013654709,
                  -0.11202236264944077,
                  -0.035630542784929276,
                  -0.19035007059574127,
                  -0.15240390598773956,
                  -0.1568634808063507,
                  -0.15662124752998352,
                  -0.15654943883419037,
                  0.04865874722599983,
                  -0.13908103108406067,
                  -0.1671820878982544,
                  0.02921457029879093,
                  -0.14770562946796417,
                  0.182058647274971,
                  0.18067686259746552,
                  0.056424666196107864,
                  0.0007554615149274468,
                  0.1503378301858902,
                  0.19538681209087372,
                  0.15029741823673248,
                  0.111709363758564,
                  0.16984902322292328,
                  0.10094951093196869,
                  0.14154984056949615,
                  -0.19138774275779724,
                  -0.14608675241470337,
                  0.19963720440864563,
                  -0.15899991989135742,
                  -0.09427476674318314,
                  0.002126489533111453,
                  -0.08690977096557617,
                  0.07796628028154373,
                  0.17274042963981628,
                  0.13921044766902924,
                  -0.04088179022073746,
                  -0.14070893824100494,
                  0.11682084202766418,
                  -0.12255943566560745,
                  0.017869174480438232,
                  0.08403965830802917,
                  -0.12633296847343445,
                  0.1778082698583603,
                  -0.06644483655691147,
                  0.017347129061818123,
                  -0.10987741500139236,
                  -0.15892332792282104,
                  -0.10779044777154922,
                  -0.17925599217414856,
                  -0.12958978116512299
              ],
              [
                  0.1616317182779312,
                  -0.059069376438856125,
                  0.1711096167564392,
                  0.09156642109155655,
                  0.028570059686899185,
                  0.08026563376188278,
                  0.10381815582513809,
                  -0.11915663629770279,
                  -0.013502768240869045,
                  0.026800358667969704,
                  -0.06859075278043747,
                  0.10510759800672531,
                  0.1682599037885666,
                  -0.1557094305753708,
                  -0.09486757218837738,
                  -0.1720181107521057,
                  -0.14076381921768188,
                  -0.032161056995391846,
                  -0.1488192230463028,
                  0.1955992728471756,
                  0.06522633135318756,
                  0.17737290263175964,
                  0.1666409820318222,
                  0.11447551101446152,
                  -0.19275322556495667,
                  0.11284645646810532,
                  0.19355550408363342,
                  0.1171327531337738,
                  -0.06591537594795227,
                  -0.18712419271469116,
                  -0.03595731034874916,
                  -0.13379719853401184,
                  -0.004420399200171232,
                  0.02667142264544964,
                  -0.08313175290822983,
                  0.08219906687736511,
                  -0.15413376688957214,
                  -0.10360356420278549,
                  -0.13899831473827362,
                  -0.19445087015628815,
                  0.1824861466884613,
                  -0.09281674027442932,
                  0.1410273164510727,
                  0.1837606132030487,
                  -0.18535646796226501,
                  0.18575753271579742,
                  -0.10111494362354279,
                  -0.06302599608898163,
                  0.12484110891819,
                  -0.0668259710073471,
                  -0.027374381199479103,
                  0.1460576206445694,
                  -0.0032896327320486307,
                  -0.11194577813148499,
                  0.16601766645908356,
                  0.11051110923290253,
                  -0.03619213402271271,
                  0.1395084708929062,
                  0.08137328177690506,
                  0.051401536911726,
                  0.07654005289077759,
                  0.000696074275765568,
                  -0.04905352741479874,
                  0.08680151402950287,
                  -0.179768368601799,
                  -0.09765217453241348,
                  -0.08885440230369568,
                  -0.027250420302152634,
                  -0.139248788356781,
                  0.019288036972284317,
                  -0.1835729479789734,
                  -0.11317220330238342,
                  -0.15167689323425293,
                  0.06438202410936356,
                  -0.03870275616645813,
                  0.0008374978788197041,
                  0.1112201139330864,
                  -0.12223076820373535,
                  -0.026548849418759346,
                  0.05189019441604614,
                  -0.013254456222057343,
                  0.07453536242246628,
                  0.07779188454151154,
                  0.1603998839855194,
                  -0.21731668710708618,
                  -0.18997864425182343,
                  0.10098248720169067,
                  0.08332943171262741,
                  -0.12573213875293732,
                  0.17376303672790527,
                  0.035880494862794876,
                  0.1826363056898117,
                  -0.09764525294303894,
                  0.11995209753513336,
                  -0.08415497094392776,
                  0.10008283704519272,
                  -0.1708056628704071,
                  -0.15332840383052826,
                  0.1327340006828308,
                  -0.005527132656425238,
                  -0.07971245050430298,
                  0.04713631793856621,
                  -0.010067340917885303,
                  0.11593260616064072,
                  -0.15267491340637207,
                  -0.09184933453798294,
                  0.05007333680987358,
                  -0.05937042087316513,
                  0.048339467495679855,
                  0.1833583563566208,
                  0.06260250508785248,
                  -0.17446601390838623,
                  -0.06005303934216499,
                  0.04298674687743187,
                  -0.18931972980499268,
                  0.13345536589622498,
                  -0.0034312941133975983,
                  0.05667499452829361,
                  -0.0601656474173069,
                  -0.10562403500080109,
                  0.01738359034061432,
                  -0.03244918957352638,
                  0.1603545993566513,
                  0.18722523748874664,
                  -0.1658681482076645,
                  0.1107705682516098,
                  -0.1612241268157959,
                  0.03082931600511074,
                  0.2194400429725647,
                  0.22138230502605438,
                  0.0842723473906517,
                  0.14018622040748596,
                  -0.09072693437337875,
                  0.08312255144119263,
                  0.05907062813639641,
                  0.18701083958148956,
                  0.15155252814292908,
                  0.1336156725883484,
                  -0.03211288899183273,
                  0.007188661489635706,
                  -0.04304324463009834,
                  -0.17619635164737701,
                  0.07189629226922989,
                  -0.12069376558065414,
                  0.08077940344810486,
                  -0.061854567378759384,
                  0.01103731244802475,
                  -0.13640187680721283,
                  0.031974583864212036,
                  -0.004966610111296177,
                  -0.18124018609523773,
                  -0.10253728926181793,
                  -0.13226869702339172,
                  -0.09343772381544113,
                  -0.04327644407749176,
                  0.07337262481451035,
                  -0.14170953631401062,
                  -0.11059809476137161,
                  0.1509421318769455,
                  -0.17127174139022827,
                  -0.013816585764288902,
                  0.06660760939121246,
                  0.17412596940994263,
                  -0.1153770163655281,
                  0.14517861604690552,
                  0.04014407843351364,
                  0.1254977136850357,
                  -0.13732780516147614,
                  0.13088279962539673,
                  -0.006048534531146288,
                  -0.002284682122990489,
                  -0.01947016641497612,
                  0.06609398871660233,
                  0.12207861244678497,
                  -0.0952674075961113,
                  0.11704612523317337,
                  -0.06396882981061935,
                  0.17420800030231476,
                  -0.09541593492031097,
                  -0.09114323556423187,
                  -0.049795325845479965,
                  -0.007712423335760832,
                  -0.10894794762134552,
                  0.0933295488357544,
                  0.1363958865404129,
                  -0.08118738234043121,
                  -0.1275337040424347,
                  0.004415734671056271,
                  0.10611950606107712,
                  0.1402297466993332,
                  0.0965905636548996,
                  -0.02071795053780079,
                  0.23153629899024963,
                  -0.18493856489658356,
                  0.15922248363494873,
                  0.11920222640037537,
                  -0.080192930996418,
                  -0.16161271929740906,
                  0.1833997368812561,
                  0.08531177788972855,
                  0.18674521148204803,
                  0.07694324851036072,
                  0.1922103464603424,
                  -0.15313869714736938,
                  0.12959392368793488,
                  -0.023784488439559937,
                  0.014789139851927757,
                  -0.09129931777715683,
                  -0.00651690736413002,
                  0.07671239227056503,
                  0.11709443479776382,
                  0.20163655281066895,
                  0.06334052234888077,
                  0.1644195020198822,
                  -0.08653631061315536,
                  0.008887959644198418,
                  0.19436663389205933,
                  0.10728190839290619,
                  0.12040595710277557,
                  -0.09244198352098465,
                  0.060684092342853546,
                  0.1796254962682724,
                  0.19944879412651062,
                  0.047021202743053436,
                  -0.09408309310674667,
                  0.09716998785734177,
                  0.19420412182807922,
                  -0.08338917046785355,
                  -0.08506765216588974,
                  -0.07160432636737823,
                  -0.13565108180046082,
                  0.1319485753774643,
                  -0.06296229362487793,
                  0.1860029548406601,
                  0.03683517873287201,
                  0.10837724804878235,
                  -0.12886542081832886,
                  0.01829208806157112,
                  0.07762528210878372,
                  0.11334589868783951,
                  0.0007439606706611812,
                  -0.08408258855342865,
                  -0.07317893952131271,
                  0.06988247483968735,
                  0.046637162566185,
                  -0.09194934368133545,
                  -0.1619337946176529,
                  -0.18532124161720276,
                  -0.13403545320034027,
                  0.1263418197631836,
                  -0.16950398683547974,
                  0.1527746468782425,
                  -0.10611093789339066,
                  0.03376897796988487,
                  -0.07312989979982376,
                  0.07222918421030045,
                  0.1417531669139862,
                  0.136830136179924,
                  -0.08835691213607788,
                  0.1431846022605896,
                  0.07568693906068802,
                  0.16065797209739685,
                  0.0018552348483353853,
                  -0.04620073735713959,
                  0.1915053129196167,
                  -0.052314162254333496,
                  -0.134410098195076,
                  0.18114301562309265,
                  -0.05347445234656334,
                  -0.05664844438433647,
                  -0.09562653303146362,
                  0.02625257335603237,
                  0.04216533526778221,
                  -0.1298212707042694,
                  -0.09875103831291199,
                  -0.05050630867481232,
                  0.11923278123140335,
                  0.07571011036634445,
                  0.04497978836297989,
                  -0.17709508538246155,
                  -0.06819429248571396,
                  0.0019125051330775023,
                  0.11079089343547821,
                  -0.12596262991428375,
                  -0.0012777205556631088,
                  -0.012851620092988014,
                  -0.17706754803657532,
                  -0.043250709772109985,
                  -0.07507805526256561,
                  0.16515274345874786,
                  0.12465683370828629,
                  0.06103401631116867,
                  0.0796961709856987,
                  0.017325691878795624,
                  0.16417817771434784,
                  -0.17058151960372925,
                  0.03822452947497368,
                  -0.0936412662267685,
                  0.12511111795902252,
                  0.06964894384145737,
                  0.17073197662830353,
                  -0.17643991112709045,
                  -0.06719943135976791,
                  0.013401199132204056,
                  0.16380605101585388,
                  -0.006788791157305241,
                  -0.07598859071731567,
                  0.03741765767335892,
                  0.04672402888536453,
                  0.10352033376693726,
                  -0.12149608880281448,
                  -0.011451688595116138,
                  0.011449508368968964,
                  0.09977990388870239,
                  0.0636441633105278,
                  -0.17473217844963074,
                  0.1904609203338623,
                  -0.08239849656820297,
                  0.19385281205177307,
                  -0.011353266425430775,
                  -0.09882781654596329,
                  0.09445663541555405,
                  0.047150619328022,
                  0.15332001447677612,
                  -0.1573340892791748,
                  0.0065559702925384045,
                  -0.027117343619465828,
                  -0.012356306426227093,
                  -0.18530814349651337,
                  -0.13106685876846313,
                  -0.19592997431755066,
                  0.1895541250705719,
                  0.19862446188926697,
                  -0.13277235627174377,
                  -0.05582690238952637,
                  -0.10567770153284073,
                  0.08890170603990555,
                  0.13384634256362915,
                  -0.037179917097091675,
                  0.1879911720752716,
                  0.0345657616853714,
                  -0.10900867730379105,
                  -0.08796911686658859,
                  0.0530412532389164,
                  0.05669868737459183,
                  -0.010482759214937687,
                  -0.13907991349697113,
                  -0.11892736703157425,
                  -0.18370094895362854,
                  0.17701414227485657,
                  -0.12654270231723785,
                  0.13616222143173218,
                  0.15193040668964386,
                  0.009491601027548313,
                  0.14592856168746948,
                  -0.0073373159393668175,
                  0.19033651053905487,
                  0.11167112737894058,
                  0.1201472282409668,
                  -0.14406001567840576,
                  -0.03118925355374813,
                  0.10542561858892441,
                  -0.014997884631156921,
                  -0.1758975237607956,
                  -0.046865761280059814,
                  -0.08512989431619644,
                  0.12944725155830383,
                  0.1527601033449173,
                  -0.07727979123592377,
                  0.15150287747383118,
                  -0.15352372825145721,
                  -0.154098778963089,
                  -0.1801588237285614,
                  -0.08679813891649246,
                  -0.11642082035541534,
                  -0.1332535743713379,
                  -0.06521604210138321,
                  -0.16944575309753418,
                  -0.10572440177202225,
                  0.1437683403491974,
                  0.17292387783527374,
                  0.11897670477628708,
                  -0.08156745880842209,
                  0.008212322369217873,
                  -0.0281144417822361,
                  -0.028533553704619408,
                  0.008994649164378643,
                  0.039712145924568176,
                  0.003006600309163332,
                  -0.019838854670524597,
                  -0.03404126316308975,
                  -0.16693823039531708,
                  0.16126365959644318,
                  -0.10410972684621811,
                  -0.03847479075193405,
                  0.11265278607606888,
                  -0.1316421627998352,
                  0.015128436498343945,
                  -0.17764557898044586,
                  0.11997944116592407
              ],
              [
                  0.12804506719112396,
                  0.18250252306461334,
                  -0.15101511776447296,
                  0.1697729229927063,
                  0.10540170222520828,
                  -0.16358345746994019,
                  0.11040648072957993,
                  0.13682609796524048,
                  -0.14022701978683472,
                  0.10731661319732666,
                  -0.14489316940307617,
                  -0.08789819478988647,
                  -0.16338999569416046,
                  -0.08199955523014069,
                  -0.09130307286977768,
                  -0.07247820496559143,
                  -0.10551381856203079,
                  0.08468105643987656,
                  0.12604953348636627,
                  -0.15976482629776,
                  -0.16129660606384277,
                  0.22194091975688934,
                  0.09589061141014099,
                  0.00048653382691554725,
                  0.08127089589834213,
                  -0.2184545248746872,
                  -0.2257610559463501,
                  0.02594517171382904,
                  0.16118232905864716,
                  0.06752851605415344,
                  0.15932686626911163,
                  -0.1366649717092514,
                  -0.01952478103339672,
                  -0.0772077664732933,
                  -0.05625568702816963,
                  0.037212271243333817,
                  -0.14019867777824402,
                  0.02719927579164505,
                  -0.1484001725912094,
                  0.15441976487636566,
                  0.19436398148536682,
                  0.17297860980033875,
                  -0.05478339642286301,
                  0.07477597147226334,
                  0.254390150308609,
                  0.13068802654743195,
                  0.07931696623563766,
                  -0.02318417839705944,
                  0.021168341860175133,
                  0.01738591119647026,
                  -0.07652431726455688,
                  0.22790150344371796,
                  -0.042442914098501205,
                  0.0866641253232956,
                  -0.010636983439326286,
                  0.19943086802959442,
                  -0.1437397003173828,
                  0.03801736608147621,
                  -0.05589987710118294,
                  0.11470739543437958,
                  -0.17799143493175507,
                  -0.14725808799266815,
                  0.1316140741109848,
                  -0.017454544082283974,
                  0.2051476538181305,
                  0.12986068427562714,
                  -0.03935152292251587,
                  -0.3127134442329407,
                  -0.1879311501979828,
                  0.05523622781038284,
                  0.051755864173173904,
                  0.07690081745386124,
                  -0.007184554357081652,
                  -0.052815992385149,
                  0.08021467924118042,
                  -0.001183054642751813,
                  -0.0020185073371976614,
                  -0.057184308767318726,
                  -0.1501033753156662,
                  -0.051600974053144455,
                  -0.19190993905067444,
                  0.08958711475133896,
                  0.020102333277463913,
                  0.15135468542575836,
                  0.07172922790050507,
                  0.21370384097099304,
                  -0.036213748157024384,
                  -0.13687071204185486,
                  -0.28887611627578735,
                  -0.21942272782325745,
                  -0.14748898148536682,
                  -0.2437189519405365,
                  -0.25979864597320557,
                  -0.17142558097839355,
                  -0.06898362934589386,
                  0.1875540018081665,
                  -0.14121000468730927,
                  0.007290438283234835,
                  -0.17703664302825928,
                  -0.05513304844498634,
                  0.2673126757144928,
                  0.2838808298110962,
                  0.27300363779067993,
                  0.24857351183891296,
                  0.17876924574375153,
                  0.31775927543640137,
                  -0.1488797664642334,
                  -0.1724972426891327,
                  0.04435392841696739,
                  -0.056233178824186325,
                  0.26503127813339233,
                  0.3107461631298065,
                  -0.09489472955465317,
                  -0.031035687774419785,
                  -0.13413940370082855,
                  -0.19868780672550201,
                  0.08636815845966339,
                  -0.10653705149888992,
                  0.13174086809158325,
                  0.05502026155591011,
                  0.10863669216632843,
                  -0.07199735194444656,
                  0.08005683869123459,
                  -0.07061926275491714,
                  0.31648412346839905,
                  0.04642866179347038,
                  0.06232789158821106,
                  -0.10248547047376633,
                  0.13955196738243103,
                  0.018220169469714165,
                  0.2391252964735031,
                  -0.16172505915164948,
                  0.23696376383304596,
                  0.24598968029022217,
                  0.40647390484809875,
                  0.1600933074951172,
                  0.239712193608284,
                  -0.05071480944752693,
                  -0.06578374654054642,
                  0.06378611922264099,
                  0.036490537226200104,
                  -0.10843854397535324,
                  -0.07986915111541748,
                  0.06814059615135193,
                  0.09795457869768143,
                  0.17169888317584991,
                  0.195421040058136,
                  -0.11814462393522263,
                  0.024591313675045967,
                  0.3839084208011627,
                  0.37151920795440674,
                  -0.2604607343673706,
                  0.06653280556201935,
                  -0.02874963916838169,
                  0.07492528110742569,
                  -0.07604120671749115,
                  0.15682761371135712,
                  0.1565486490726471,
                  0.04297798126935959,
                  -0.08674932271242142,
                  0.08950430899858475,
                  -0.05445435643196106,
                  -0.002027024980634451,
                  0.26765158772468567,
                  0.08730018138885498,
                  0.39042383432388306,
                  0.20681047439575195,
                  0.1368318498134613,
                  0.3929547369480133,
                  0.31985417008399963,
                  0.1405930370092392,
                  -0.13971185684204102,
                  0.31224918365478516,
                  0.003477239515632391,
                  0.31574341654777527,
                  -0.03779226541519165,
                  0.10453596711158752,
                  0.19011346995830536,
                  -0.11979786306619644,
                  -0.05234614759683609,
                  0.290462464094162,
                  0.03735688328742981,
                  -0.12530381977558136,
                  -0.23723043501377106,
                  -0.07408053427934647,
                  -0.07245340198278427,
                  0.028702523559331894,
                  -0.18922200798988342,
                  -0.23212116956710815,
                  -0.21566298604011536,
                  -0.10119685530662537,
                  0.12284337729215622,
                  0.2512926459312439,
                  0.37812522053718567,
                  -0.04888971522450447,
                  -0.4148792624473572,
                  0.19481714069843292,
                  0.11106729507446289,
                  -0.21357615292072296,
                  -0.08787190169095993,
                  -0.07097611576318741,
                  -0.06520424038171768,
                  -0.16334737837314606,
                  -0.12703149020671844,
                  0.11072390526533127,
                  -0.15487295389175415,
                  0.02120315283536911,
                  -0.1644931435585022,
                  0.1917915642261505,
                  0.16692328453063965,
                  0.20794938504695892,
                  0.03141539916396141,
                  -0.13571874797344208,
                  -0.034340791404247284,
                  0.18680047988891602,
                  0.08741992712020874,
                  0.07772552967071533,
                  0.024820946156978607,
                  0.053860921412706375,
                  -0.06169106811285019,
                  -0.0008261824841611087,
                  0.11852408200502396,
                  0.10086094588041306,
                  0.12496259808540344,
                  0.15043190121650696,
                  -0.05842309817671776,
                  0.09243674576282501,
                  0.012489299289882183,
                  0.14216089248657227,
                  0.1795227974653244,
                  -0.15094688534736633,
                  -0.040293000638484955,
                  -0.09670330584049225,
                  -0.18636348843574524,
                  0.08107905089855194,
                  0.08732707053422928,
                  0.005067900288850069,
                  -0.09331298619508743,
                  0.04746142029762268,
                  -0.06443414092063904,
                  -0.10123686492443085,
                  -0.12159265577793121,
                  -0.07697758823633194,
                  -0.08070651441812515,
                  -0.15031832456588745,
                  0.13602504134178162,
                  0.06138921156525612,
                  -0.06453611701726913,
                  -0.028914516791701317,
                  -0.12609335780143738,
                  -0.1621226966381073,
                  0.05776266008615494,
                  0.1487659513950348,
                  0.12695886194705963,
                  -0.1763998419046402,
                  -0.048618778586387634,
                  -0.1791861653327942,
                  -0.12362432479858398,
                  -0.08389492332935333,
                  0.08477175235748291,
                  0.11637181043624878,
                  -0.06903554499149323,
                  -0.0014512150082737207,
                  -0.021788006648421288,
                  -0.0877445861697197,
                  -0.1274166703224182,
                  0.19834448397159576,
                  -0.16279327869415283,
                  0.1002139151096344,
                  -0.18482688069343567,
                  -0.05354980006814003,
                  0.12240158021450043,
                  -0.1682817041873932,
                  -0.016032977029681206,
                  -0.0006779800169169903,
                  -0.15470603108406067,
                  0.1198401004076004,
                  -0.19306039810180664,
                  0.19193589687347412,
                  -0.10070504248142242,
                  -0.13776801526546478,
                  -0.04140709713101387,
                  0.14870765805244446,
                  -0.1599138081073761,
                  -0.1616535484790802,
                  0.06846721470355988,
                  0.027658920735120773,
                  -0.033027078956365585,
                  0.16921716928482056,
                  -0.06092381104826927,
                  0.15134838223457336,
                  0.14789897203445435,
                  -0.11409833282232285,
                  -0.11481507867574692,
                  0.15238164365291595,
                  0.022998616099357605,
                  -0.13521625101566315,
                  -0.2101304680109024,
                  -0.09353768825531006,
                  0.07763659954071045,
                  -0.12340737134218216,
                  0.07352002710103989,
                  -0.1598197966814041,
                  0.1663512885570526,
                  -0.07799381762742996,
                  0.10411671549081802,
                  -0.17225748300552368,
                  -0.1604706346988678,
                  0.04032000154256821,
                  -0.14914155006408691,
                  0.024469509720802307,
                  0.15819406509399414,
                  0.20015983283519745,
                  -0.11522851884365082,
                  0.12961535155773163,
                  -0.07024367898702621,
                  0.12150734663009644,
                  0.12254408746957779,
                  0.02906876616179943,
                  0.13294966518878937,
                  -0.12923119962215424,
                  0.016295697540044785,
                  -0.04851159453392029,
                  0.17445403337478638,
                  -0.11473260074853897,
                  -0.1299847662448883,
                  -0.15508171916007996,
                  -0.17094838619232178,
                  0.1317492574453354,
                  0.04459642991423607,
                  -0.06910039484500885,
                  0.1960814893245697,
                  0.17127692699432373,
                  -0.18157958984375,
                  -0.10145768523216248,
                  0.048211123794317245,
                  0.011694042943418026,
                  -0.07568730413913727,
                  -0.05958561226725578,
                  0.20517364144325256,
                  0.19486269354820251,
                  -0.030595554038882256,
                  -0.08090794086456299,
                  0.0023448490537703037,
                  -0.0663529485464096,
                  0.0011968094622716308,
                  0.017604652792215347,
                  0.03828371688723564,
                  -0.03367612510919571,
                  0.03893793001770973,
                  -0.0578155592083931,
                  0.06534361839294434,
                  0.1031227558851242,
                  -0.16906851530075073,
                  0.1824457347393036,
                  0.09092216193675995,
                  -0.0891544297337532,
                  0.168760284781456,
                  -0.053769130259752274,
                  -0.14799827337265015,
                  0.016588451340794563,
                  -0.1347844898700714,
                  -0.11647901684045792,
                  -0.16596683859825134,
                  0.004523023962974548,
                  0.18316982686519623,
                  0.11245481669902802,
                  0.1870969533920288,
                  0.12626899778842926,
                  0.07189479470252991,
                  -0.09687266498804092,
                  0.20581287145614624,
                  -0.15681800246238708,
                  0.14083445072174072,
                  -0.008629094809293747,
                  0.10837291926145554,
                  -0.016173649579286575,
                  -0.18532639741897583,
                  0.20481082797050476,
                  -0.0015112326946109533,
                  -0.13885538280010223,
                  0.14840155839920044,
                  -0.007536901626735926,
                  0.18664215505123138,
                  -0.015087072737514973,
                  -0.1995828002691269,
                  -0.016137676313519478,
                  0.06432142108678818,
                  0.15948721766471863,
                  0.07738124579191208,
                  0.16284412145614624,
                  -0.14140436053276062,
                  -0.056104905903339386,
                  0.09369060397148132,
                  -0.1764041632413864,
                  0.17526282370090485,
                  0.09026098996400833,
                  -0.14604593813419342,
                  0.17830999195575714,
                  -0.14249272644519806
              ],
              [
                  0.16830189526081085,
                  -0.008462134748697281,
                  -0.12529407441616058,
                  0.13447219133377075,
                  0.14104041457176208,
                  -0.006813997868448496,
                  -0.16569600999355316,
                  -0.1160537600517273,
                  0.14118939638137817,
                  -0.18664531409740448,
                  -0.0613664835691452,
                  -0.14322714507579803,
                  -0.15804433822631836,
                  0.026458388194441795,
                  0.11766780912876129,
                  -0.016739023849368095,
                  0.1158972680568695,
                  0.0551038458943367,
                  -0.13981828093528748,
                  -0.14130064845085144,
                  -0.18189942836761475,
                  0.061899613589048386,
                  -0.10878366976976395,
                  0.009223565459251404,
                  -0.024670591577887535,
                  0.030397305265069008,
                  0.045527175068855286,
                  -0.11705908924341202,
                  -0.22708165645599365,
                  0.1796761304140091,
                  -0.04379624128341675,
                  -0.18162773549556732,
                  -0.1419214904308319,
                  0.03692479804158211,
                  -0.07011175155639648,
                  -0.09635092318058014,
                  0.07788345217704773,
                  0.10069244354963303,
                  0.17313352227210999,
                  0.14428995549678802,
                  -0.12412481009960175,
                  0.20036856830120087,
                  0.059283994138240814,
                  0.018730441108345985,
                  -0.04256264492869377,
                  0.23839730024337769,
                  -0.017472833395004272,
                  0.3306591808795929,
                  -0.17552506923675537,
                  0.02763139270246029,
                  -0.09387363493442535,
                  -0.07311809062957764,
                  0.06167993322014809,
                  -0.008424177765846252,
                  0.024034202098846436,
                  -0.0056351469829678535,
                  0.23296475410461426,
                  -0.04169104993343353,
                  0.11582887917757034,
                  0.022080836817622185,
                  0.1347823441028595,
                  0.07338633388280869,
                  -0.1402757167816162,
                  -0.05794156715273857,
                  -0.029302751645445824,
                  -0.014097528532147408,
                  0.24402503669261932,
                  0.22531484067440033,
                  -0.021647419780492783,
                  -0.19656622409820557,
                  -0.09667167067527771,
                  -0.3453181982040405,
                  0.1399696171283722,
                  0.1498126983642578,
                  0.2928560674190521,
                  -0.024631934240460396,
                  0.2965889275074005,
                  0.06376033276319504,
                  0.20048631727695465,
                  -0.032553911209106445,
                  0.2030656784772873,
                  -0.07729492336511612,
                  -0.13575877249240875,
                  -0.04587971791625023,
                  -0.2155531942844391,
                  0.1007746160030365,
                  0.10312124341726303,
                  -0.2228565365076065,
                  0.4136778712272644,
                  0.3509925305843353,
                  -0.1062544658780098,
                  0.28908348083496094,
                  0.19545303285121918,
                  0.08177786320447922,
                  -0.05613388121128082,
                  0.19518133997917175,
                  -0.0017593539087101817,
                  0.012515905313193798,
                  0.03632776439189911,
                  0.165147066116333,
                  -0.14044922590255737,
                  -0.21427422761917114,
                  -0.05950890854001045,
                  -0.12136879563331604,
                  -0.29271820187568665,
                  0.09537819772958755,
                  0.40212222933769226,
                  0.3231920003890991,
                  -0.16258706152439117,
                  0.1713651567697525,
                  -0.18376091122627258,
                  -0.2597939670085907,
                  -0.25471630692481995,
                  -0.15230225026607513,
                  0.0945492535829544,
                  0.08614559471607208,
                  -0.150434672832489,
                  0.18968380987644196,
                  0.15955929458141327,
                  0.03656872734427452,
                  -0.2259431928396225,
                  -0.03881184756755829,
