{
  "type": "NeuralNetworkGPU",
  "sizes": [
      400,
      200,
      1
  ],
  "layers": [
      {
          "weights": [],
          "biases": []
      },
      {
          "weights": [
              [
                  0.07141661643981934,
                  0.02667490392923355,
                  0.011548973619937897,
                  0.06786883622407913,
                  0.08521737903356552,
                  0.029391951858997345,
                  0.1742699295282364,
                  -0.16258345544338226,
                  -0.17448823153972626,
                  0.002431662520393729,
                  0.011070482432842255,
                  0.0272829569876194,
                  0.051502566784620285,
                  0.09957347810268402,
                  -0.02855287306010723,
                  0.11941277980804443,
                  0.08217503875494003,
                  -0.07004234939813614,
                  0.1211172565817833,
                  -0.13611780107021332,
                  0.1330660879611969,
                  -0.15287277102470398,
                  0.021952519193291664,
                  -0.09628301858901978,
                  0.09915207326412201,
                  -0.14853855967521667,
                  -0.03931295871734619,
                  -0.1998685747385025,
                  -0.10801202803850174,
                  0.04188361018896103,
                  -0.09156162291765213,
                  -0.14250227808952332,
                  0.09746047109365463,
                  0.0592016763985157,
                  0.055840566754341125,
                  0.05045036971569061,
                  -0.10757190734148026,
                  -0.14689084887504578,
                  -0.12904329597949982,
                  0.1415506899356842,
                  0.04738572984933853,
                  -0.1334584653377533,
                  -0.18776041269302368,
                  0.16295841336250305,
                  0.17874541878700256,
                  -0.08214464783668518,
                  -0.08960781991481781,
                  0.18070575594902039,
                  -0.05871329456567764,
                  -0.012316524982452393,
                  0.020985979586839676,
                  0.20029135048389435,
                  -0.08450506627559662,
                  -0.1662788689136505,
                  -0.08220294862985611,
                  -0.1477159559726715,
                  -0.17564736306667328,
                  0.16105401515960693,
                  -0.03897080197930336,
                  -0.12598951160907745,
                  -0.024519918486475945,
                  -0.09957607835531235,
                  0.1910128891468048,
                  0.15689228475093842,
                  0.036572400480508804,
                  0.05056297779083252,
                  -0.16948334872722626,
                  -0.04953193664550781,
                  -0.06208161264657974,
                  0.03405086323618889,
                  -0.16474278271198273,
                  -0.03294308856129646,
                  0.12978120148181915,
                  -0.05681151524186134,
                  -0.1471036672592163,
                  -0.04063867777585983,
                  -0.07197844982147217,
                  0.14395156502723694,
                  0.08799322694540024,
                  -0.09646189957857132,
                  -0.1064285859465599,
                  -0.02947085350751877,
                  -0.05891936272382736,
                  -0.13640442490577698,
                  0.013193920254707336,
                  -0.1555723249912262,
                  0.13948486745357513,
                  0.0908186212182045,
                  0.09312652796506882,
                  -0.1433153748512268,
                  -0.011077127419412136,
                  -0.09292066097259521,
                  0.11933308839797974,
                  -0.16788627207279205,
                  0.058485034853219986,
                  -0.1107490286231041,
                  0.1504707932472229,
                  -0.15728923678398132,
                  0.10432479530572891,
                  -0.11896468698978424,
                  0.10466637462377548,
                  0.11127622425556183,
                  -0.06975020468235016,
                  0.10810575634241104,
                  -0.11679426580667496,
                  -0.1728011518716812,
                  0.05401313677430153,
                  -0.03356218710541725,
                  0.13906660676002502,
                  -0.08598051965236664,
                  0.12037007510662079,
                  -0.11553653329610825,
                  0.009510165080428123,
                  -0.1645514816045761,
                  -0.09807742387056351,
                  0.12522412836551666,
                  -0.04234447702765465,
                  0.0012366373557597399,
                  -0.02421138808131218,
                  0.095380038022995,
                  0.022828614339232445,
                  -0.07066549360752106,
                  -0.14103063941001892,
                  0.18257063627243042,
                  0.01720931939780712,
                  0.10608182847499847,
                  -0.040754418820142746,
                  0.08011879771947861,
                  -0.016300369054079056,
                  0.11140229552984238,
                  0.017525479197502136,
                  -0.06171233952045441,
                  0.024512099102139473,
                  -0.16331852972507477,
                  -0.0474865585565567,
                  0.009774056263267994,
                  0.10449865460395813,
                  -0.11283784359693527,
                  0.06956968456506729,
                  -0.1426626741886139,
                  -0.14480504393577576,
                  0.021168742328882217,
                  0.08031415194272995,
                  -0.1753522902727127,
                  0.1825738549232483,
                  0.040473271161317825,
                  -0.14164724946022034,
                  -0.034619107842445374,
                  0.016799334436655045,
                  0.1336824744939804,
                  0.025279270485043526,
                  -0.15753483772277832,
                  0.1770569235086441,
                  -0.16899091005325317,
                  -0.19493180513381958,
                  -0.048894789069890976,
                  -0.1429486721754074,
                  0.04217767342925072,
                  0.0860137790441513,
                  -0.10330137610435486,
                  0.0023403672967106104,
                  -0.13610407710075378,
                  -0.027219172567129135,
                  0.20036517083644867,
                  0.1888025999069214,
                  0.030895395204424858,
                  0.07675401866436005,
                  0.1230478435754776,
                  -0.19594404101371765,
                  0.10653208941221237,
                  0.15635909140110016,
                  -0.07538604736328125,
                  -0.09491994231939316,
                  0.17865824699401855,
                  -0.08014363050460815,
                  -0.05938626453280449,
                  0.04606599733233452,
                  -0.140768900513649,
                  -0.005800096783787012,
                  -0.1385917067527771,
                  0.18718081712722778,
                  0.04235514625906944,
                  0.042456600815057755,
                  -0.08907788246870041,
                  0.17640404403209686,
                  -0.0072087799198925495,
                  -0.11974011361598969,
                  0.14542368054389954,
                  -0.17725113034248352,
                  -0.15763601660728455,
                  -0.022651903331279755,
                  0.05313551053404808,
                  0.1784084290266037,
                  -0.18100623786449432,
                  0.011051158420741558,
                  -0.11346124112606049,
                  0.17890077829360962,
                  -0.0837487205862999,
                  -0.016508299857378006,
                  0.05707049369812012,
                  0.05557362362742424,
                  -0.09115016460418701,
                  0.1679350733757019,
                  0.15547603368759155,
                  0.00446397066116333,
                  -0.023921754211187363,
                  0.051422104239463806,
                  -0.16280601918697357,
                  0.12952002882957458,
                  0.09783659130334854,
                  0.187395840883255,
                  -0.08044671267271042,
                  0.03138738125562668,
                  0.10625645518302917,
                  0.049928318709135056,
                  -0.16469831764698029,
                  0.16503891348838806,
                  0.10134006291627884,
                  0.029533127322793007,
                  -0.17640374600887299,
                  0.10021092742681503,
                  -0.11951755732297897,
                  0.1675242781639099,
                  -0.13262714445590973,
                  -0.019207831472158432,
                  -0.1124030351638794,
                  -0.13726885616779327,
                  0.1727881282567978,
                  -0.1182895228266716,
                  0.06079728156328201,
                  0.036954544484615326,
                  -0.01482640765607357,
                  -0.1129947081208229,
                  -0.12313541024923325,
                  -0.1203407570719719,
                  -0.009323586709797382,
                  -0.15322895348072052,
                  -0.09198600053787231,
                  -0.03166337311267853,
                  0.13463759422302246,
                  0.10897984355688095,
                  0.11575213074684143,
                  -0.028259214013814926,
                  0.19122743606567383,
                  -0.01648944988846779,
                  0.05415240675210953,
                  0.14676259458065033,
                  0.07346390187740326,
                  -0.11869083344936371,
                  0.06627737730741501,
                  -0.13083341717720032,
                  -0.11912348866462708,
                  0.17047083377838135,
                  -0.1360696703195572,
                  0.14562411606311798,
                  -0.017222722992300987,
                  0.07313880324363708,
                  -0.11604084074497223,
                  -0.16427892446517944,
                  -0.05477234721183777,
                  0.19602419435977936,
                  0.1368613839149475,
                  -0.0568481981754303,
                  -0.09781026840209961,
                  0.08165999501943588,
                  0.07884678244590759,
                  0.18401595950126648,
                  0.11907804757356644,
                  0.1272239089012146,
                  -0.028055230155587196,
                  0.11299555003643036,
                  -0.17618459463119507,
                  -0.13980957865715027,
                  0.1923823058605194,
                  -0.03184100240468979,
                  -0.09066034853458405,
                  -0.1046617403626442,
                  0.012757143005728722,
                  -0.13330186903476715,
                  0.02525288052856922,
                  0.14695081114768982,
                  0.016143474727869034,
                  -0.07653214782476425,
                  0.17173108458518982,
                  0.10179831087589264,
                  0.10692726075649261,
                  -0.07283560931682587,
                  0.1580541580915451,
                  0.10730184614658356,
                  0.01701373979449272,
                  -0.030611379072070122,
                  0.04824294149875641,
                  0.16996334493160248,
                  0.11632553488016129,
                  0.0541331022977829,
                  -0.1539553850889206,
                  0.10119665414094925,
                  0.1437966674566269,
                  0.059393297880887985,
                  0.17379365861415863,
                  -0.04531626030802727,
                  0.057713523507118225,
                  0.03940035402774811,
                  0.12132872641086578,
                  -0.017041070386767387,
                  -0.0717320442199707,
                  -0.07299036532640457,
                  -0.18971627950668335,
                  0.15816143155097961,
                  -0.03599527105689049,
                  0.08516214042901993,
                  -0.1646742820739746,
                  -0.09230119735002518,
                  0.0023006240371614695,
                  0.058075062930583954,
                  -0.06685660779476166,
                  0.09968531876802444,
                  0.02679218165576458,
                  0.1666795164346695,
                  -0.04407340660691261,
                  -0.11950968205928802,
                  -0.13028685748577118,
                  -0.15837402641773224,
                  0.07602241635322571,
                  -0.07026007771492004,
                  0.16113504767417908,
                  0.04842362552881241,
                  -0.11818339675664902,
                  -0.036448825150728226,
                  -0.144740492105484,
                  -0.16947278380393982,
                  0.1480301320552826,
                  0.05718693137168884,
                  -0.12961488962173462,
                  -0.159708634018898,
                  -0.09604191780090332,
                  0.018132053315639496,
                  0.06084662303328514,
                  -0.12972775101661682,
                  -0.07824616134166718,
                  -0.023250672966241837,
                  -0.1325739473104477,
                  0.04520300403237343,
                  0.133714959025383,
                  0.044179197400808334,
                  -0.03023531846702099,
                  -0.06190308928489685,
                  0.03956422954797745,
                  -0.08294171839952469,
                  -0.11936590820550919,
                  0.19794410467147827,
                  0.04697905108332634,
                  0.12199216336011887,
                  0.0618971511721611,
                  -0.04043188318610191,
                  0.12897035479545593,
                  0.04380326718091965,
                  -0.024864129722118378,
                  0.12611407041549683,
                  0.11149127036333084,
                  -0.046838149428367615,
                  -0.09679088741540909,
                  0.12722991406917572,
                  0.11240458488464355,
                  -0.08961811661720276,
                  0.05122489854693413,
                  0.1448054164648056,
                  0.1921645849943161,
                  -0.14186176657676697,
                  -0.02765040472149849,
                  0.053787749260663986,
                  0.1624903529882431,
                  0.1702713668346405,
                  -0.08811825513839722,
                  -0.13605208694934845,
                  -0.13702864944934845,
                  0.1220216378569603,
                  0.16783186793327332,
                  -0.029807046055793762,
                  -0.11674743890762329,
                  -0.18673047423362732,
                  -0.05360671132802963,
                  -0.14083969593048096,
                  -0.11921036243438721,
                  0.1377761960029602,
                  0.15398049354553223,
                  -0.12053906917572021,
                  0.0872684121131897,
                  0.12208949774503708,
                  0.10994762927293777,
                  -0.17984725534915924,
                  0.1994888037443161,
                  0.04534626752138138,
                  0.04868324473500252,
                  -0.09399892389774323,
                  -0.002085783053189516,
                  0.17094916105270386,
                  0.0891977995634079,
                  -0.1595178097486496,
                  -0.13332243263721466
              ],
              [
                  0.06998392194509506,
                  0.13163186609745026,
                  0.08047787845134735,
                  0.09354113042354584,
                  -0.08037914335727692,
                  0.02557891421020031,
                  -0.08626328408718109,
                  -0.023350553587079048,
                  0.19561859965324402,
                  -0.2094217836856842,
                  0.14834073185920715,
                  -0.2157374769449234,
                  0.19010497629642487,
                  -0.06456364691257477,
                  0.11112570762634277,
                  0.17073491215705872,
                  0.19259575009346008,
                  0.03630858659744263,
                  0.11224143207073212,
                  0.13278166949748993,
                  0.13281132280826569,
                  0.19118152558803558,
                  0.11121514439582825,
                  0.1617782711982727,
                  -0.16698145866394043,
                  0.17665787041187286,
                  0.10043947398662567,
                  0.1285771280527115,
                  0.3266274631023407,
                  -0.14605779945850372,
                  0.10745836794376373,
                  -0.06158394366502762,
                  0.05835249274969101,
                  -0.020069368183612823,
                  -0.09233689308166504,
                  -0.008786668069660664,
                  -0.20729120075702667,
                  -0.25714439153671265,
                  0.03991135582327843,
                  0.19845551252365112,
                  0.15322162210941315,
                  -0.03220752626657486,
                  0.01035410724580288,
                  -0.2395508587360382,
                  0.04267508536577225,
                  -0.0098301125690341,
                  -0.40360790491104126,
                  -0.43175604939460754,
                  -0.20504845678806305,
                  0.12859606742858887,
                  -0.22436821460723877,
                  -0.37321653962135315,
                  -0.2579747438430786,
                  -0.07212042808532715,
                  -0.20626504719257355,
                  -0.48170778155326843,
                  -0.12210488319396973,
                  0.210884690284729,
                  -0.07713605463504791,
                  0.10964460670948029,
                  -0.06825029850006104,
                  -0.057072676718235016,
                  0.2893519401550293,
                  0.03640430420637131,
                  0.27661392092704773,
                  0.09849178045988083,
                  -0.12333888560533524,
                  -0.2199234515428543,
                  -0.23597028851509094,
                  0.15084843337535858,
                  0.044259995222091675,
                  -0.08815405517816544,
                  0.15527065098285675,
                  0.28505516052246094,
                  0.2599447965621948,
                  0.16797621548175812,
                  -0.07852660119533539,
                  -0.19181597232818604,
                  0.028634971007704735,
                  0.09150232374668121,
                  0.1439979374408722,
                  -0.11299911141395569,
                  0.2764112949371338,
                  0.16641643643379211,
                  0.17370165884494781,
                  0.04764252156019211,
                  -0.04583759605884552,
                  0.33912187814712524,
                  -0.04126334935426712,
                  0.20224742591381073,
                  0.13990452885627747,
                  -0.10180695354938507,
                  -0.17950206995010376,
                  0.3824854791164398,
                  0.06651811301708221,
                  0.12341393530368805,
                  0.11609826236963272,
                  -0.05541693791747093,
                  0.39905425906181335,
                  -0.06276347488164902,
                  0.10935484617948532,
                  0.05851392820477486,
                  -0.1414082795381546,
                  0.06758613139390945,
                  0.06567934155464172,
                  0.07770847529172897,
                  0.16190753877162933,
                  0.0690399780869484,
                  -0.32348471879959106,
                  -0.10632462054491043,
                  0.32909902930259705,
                  -0.4045661985874176,
                  -0.2601141929626465,
                  0.04563119634985924,
                  0.17746709287166595,
                  0.31101125478744507,
                  0.3933345675468445,
                  -0.24724625051021576,
                  0.11468816548585892,
                  0.10514985769987106,
                  0.12806275486946106,
                  0.4577602744102478,
                  -0.0863998755812645,
                  -0.25602811574935913,
                  -0.24425144493579865,
                  0.46474048495292664,
                  0.353091835975647,
                  0.2105899304151535,
                  0.040335800498723984,
                  -0.019644010812044144,
                  0.42517292499542236,
                  -0.5686530470848083,
                  0.21307630836963654,
                  0.30543574690818787,
                  0.5009071826934814,
                  -0.05778907611966133,
                  0.37186259031295776,
                  -0.18987062573432922,
                  -0.15161727368831635,
                  -0.010295191779732704,
                  0.06503231078386307,
                  0.4219035506248474,
                  -0.22892554104328156,
                  -0.2711234390735626,
                  0.15244625508785248,
                  0.08651933073997498,
                  0.4011367857456207,
                  0.18320132791996002,
                  0.11045829951763153,
                  0.47355374693870544,
                  0.0005835851770825684,
                  -1.0501497983932495,
                  -0.12900154292583466,
                  -0.4266130030155182,
                  -0.26107490062713623,
                  -0.7319977879524231,
                  -0.2518439292907715,
                  -0.3077981770038605,
                  -0.11410430818796158,
                  -0.14713984727859497,
                  -0.05224756523966789,
                  -0.011303926818072796,
                  0.19898484647274017,
                  -0.10018690675497055,
                  -0.2065366804599762,
                  0.34993216395378113,
                  -0.2634850740432739,
                  0.3593441843986511,
                  0.23037047684192657,
                  -0.0295137669891119,
                  0.3409305214881897,
                  -0.8987079858779907,
                  -0.02081933058798313,
                  -0.13294750452041626,
                  -0.11403524875640869,
                  -0.6810855865478516,
                  -0.3965319097042084,
                  0.14752237498760223,
                  0.053393833339214325,
                  -0.11210604757070541,
                  0.01384042575955391,
                  0.5204787254333496,
                  0.3291955888271332,
                  0.4236324429512024,
                  0.054273057729005814,
                  -0.18600645661354065,
                  -0.013543437235057354,
                  0.08611112087965012,
                  0.19848105311393738,
                  0.1336175948381424,
                  0.37652596831321716,
                  -0.22107812762260437,
                  0.1352902203798294,
                  0.12136368453502655,
                  0.18064001202583313,
                  -0.2708144187927246,
                  0.17146916687488556,
                  0.1138077974319458,
                  0.16018760204315186,
                  -0.010164852254092693,
                  -0.038310978561639786,
                  -0.13811206817626953,
                  -0.033259376883506775,
                  0.062009479850530624,
                  -0.11691392213106155,
                  0.0989779680967331,
                  0.12207099795341492,
                  -0.00595654733479023,
                  0.08114203065633774,
                  -0.09709876775741577,
                  -0.01710638403892517,
                  -0.26662522554397583,
                  0.03494016081094742,
                  -0.1294258087873459,
                  -0.04477227106690407,
                  0.03115767426788807,
                  -0.05029813200235367,
                  0.13160471618175507,
                  -0.008649482391774654,
                  -0.06247073411941528,
                  -0.0024060977157205343,
                  -0.12578649818897247,
                  0.061965011060237885,
                  -0.03458257019519806,
                  0.178389772772789,
                  0.0050537423230707645,
                  -0.1375907063484192,
                  -0.19762668013572693,
                  -0.009305066429078579,
                  -0.04437492787837982,
                  0.015554003417491913,
                  0.04259558394551277,
                  -0.14310427010059357,
                  0.0990411639213562,
                  0.12288571894168854,
                  0.08204397559165955,
                  -0.13775911927223206,
                  0.10808999836444855,
                  0.06106710061430931,
                  0.09670393168926239,
                  -0.17007315158843994,
                  0.12460806965827942,
                  -0.12903152406215668,
                  0.030753247439861298,
                  -0.05490054190158844,
                  -0.04418589174747467,
                  -0.007098434958606958,
                  -0.10160490870475769,
                  0.11930249631404877,
                  0.09640157222747803,
                  -0.13193340599536896,
                  -0.12704838812351227,
                  0.03719933703541756,
                  0.10456138849258423,
                  -0.13565650582313538,
                  0.08872274309396744,
                  -0.08451416343450546,
                  0.1304316222667694,
                  0.16564153134822845,
                  0.031234707683324814,
                  -0.13130691647529602,
                  -0.010449321009218693,
                  -0.0914364755153656,
                  -0.1430787593126297,
                  -0.04196295514702797,
                  0.16849198937416077,
                  0.2324817031621933,
                  -0.07208378612995148,
                  0.13104093074798584,
                  0.1277759075164795,
                  0.05366368964314461,
                  -0.1822030246257782,
                  -0.0636313259601593,
                  0.041126880794763565,
                  0.16317090392112732,
                  -0.16006554663181305,
                  0.050730783492326736,
                  0.004665332846343517,
                  -0.06604404002428055,
                  0.0358060821890831,
                  0.1163267195224762,
                  -0.2047046273946762,
                  0.006975656840950251,
                  -0.027139529585838318,
                  -0.12450176477432251,
                  0.19242039322853088,
                  0.15130478143692017,
                  -0.1727229356765747,
                  -0.1700475811958313,
                  0.16526903212070465,
                  -0.18331614136695862,
                  -0.14049336314201355,
                  -0.19801107048988342,
                  0.007567055989056826,
                  -0.02392992377281189,
                  -0.14860205352306366,
                  -0.14919614791870117,
                  -0.01721767894923687,
                  -0.1968735158443451,
                  -0.15438203513622284,
                  -0.07690592110157013,
                  0.06313592940568924,
                  0.20332255959510803,
                  -0.19847291707992554,
                  0.1217384934425354,
                  0.0383782684803009,
                  -0.14128245413303375,
                  0.041883230209350586,
                  0.005265029147267342,
                  -0.12265405058860779,
                  -0.04070230573415756,
                  -0.09022646397352219,
                  -0.13934431970119476,
                  -0.0009506828500889242,
                  0.14740003645420074,
                  0.044681474566459656,
                  -0.027881653979420662,
                  -0.02184382826089859,
                  -0.022276772186160088,
                  -0.036267757415771484,
                  -0.17963813245296478,
                  -0.11109932512044907,
                  -0.012411845847964287,
                  -0.278617799282074,
                  0.005971173755824566,
                  0.15910455584526062,
                  0.07923351973295212,
                  0.0634164810180664,
                  -0.023877719417214394,
                  -0.008169752545654774,
                  0.03449175879359245,
                  0.0619039312005043,
                  0.059066809713840485,
                  -0.005025632679462433,
                  -0.043096840381622314,
                  -0.08501679450273514,
                  -0.08833138644695282,
                  0.08249558508396149,
                  0.09174122661352158,
                  -0.02763732150197029,
                  0.13876968622207642,
                  0.11477422714233398,
                  -0.14373372495174408,
                  0.12825286388397217,
                  -0.1290724128484726,
                  -0.21530774235725403,
                  0.15623481571674347,
                  0.09865352511405945,
                  -0.1688242405653,
                  0.17360065877437592,
                  0.06886018067598343,
                  -0.06535089015960693,
                  0.12355395406484604,
                  0.1135125681757927,
                  -0.14656710624694824,
                  0.16484776139259338,
                  0.03181622922420502,
                  0.09994719922542572,
                  -0.01697889156639576,
                  0.11127546429634094,
                  -0.013016528449952602,
                  0.06105082109570503,
                  -0.15311501920223236,
                  -0.15371452271938324,
                  0.15494196116924286,
                  -0.09539481997489929,
                  -0.07542001456022263,
                  0.1471896767616272,
                  0.050257522612810135,
                  0.06949353218078613,
                  -0.10915376245975494,
                  0.16466815769672394,
                  -0.07771313190460205,
                  -0.1277596652507782,
                  -0.17452624440193176,
                  -0.050343286246061325,
                  0.023566052317619324,
                  -0.02594960853457451,
                  0.18669088184833527,
                  -0.17561756074428558,
                  -0.18744561076164246,
                  -0.0019464045763015747,
                  0.16343003511428833,
                  -0.09157180786132812,
                  -0.0813596248626709,
                  -0.12185776978731155,
                  -0.15027029812335968,
                  0.08210524916648865,
                  -0.03618735820055008,
                  0.1125980019569397,
                  -0.09073717147111893,
                  0.03716355934739113,
                  -0.06562839448451996,
                  -0.2555885910987854,
                  0.12779945135116577,
                  -0.10568415373563766,
                  0.012752220034599304,
                  -0.15423454344272614,
                  0.02534184604883194,
                  0.04991356283426285
              ],
              [
                  0.1160585880279541,
                  -0.15220095217227936,
                  0.038649484515190125,
                  -0.1115814670920372,
                  0.19315876066684723,
                  0.12576258182525635,
                  0.13856077194213867,
                  0.11936970055103302,
                  0.03841223195195198,
                  0.0767950564622879,
                  0.19462130963802338,
                  -0.13077764213085175,
                  -0.12068597227334976,
                  -0.0644034817814827,
                  -0.051526498049497604,
                  0.17658479511737823,
                  0.2034412920475006,
                  0.07386847585439682,
                  -0.03313463553786278,
                  0.11994516104459763,
                  0.03328477963805199,
                  0.1030750721693039,
                  -0.08138719946146011,
                  0.19401441514492035,
                  0.10641688108444214,
                  0.17396952211856842,
                  -0.12661738693714142,
                  0.17887689173221588,
                  -0.027065107598900795,
                  -0.0032726500649005175,
                  -0.09075520187616348,
                  -0.18715110421180725,
                  0.06530775874853134,
                  0.033864863216876984,
                  -0.12382569164037704,
                  -0.17246103286743164,
                  -0.0626414567232132,
                  -0.01293093804270029,
                  -0.03196856006979942,
                  0.043471481651067734,
                  -0.10941682010889053,
                  -0.16262850165367126,
                  -0.17429539561271667,
                  -0.1341225504875183,
                  -0.15653453767299652,
                  0.14592081308364868,
                  -0.12294121086597443,
                  0.10549921542406082,
                  0.13312089443206787,
                  0.164637953042984,
                  -0.0020543430000543594,
                  -0.11618150770664215,
                  0.11475065350532532,
                  -0.08383935689926147,
                  0.13696618378162384,
                  0.1708153337240219,
                  -0.13151486217975616,
                  0.12392596155405045,
                  -0.1441769003868103,
                  -0.1901552528142929,
                  0.18940500915050507,
                  0.15539491176605225,
                  -0.18050020933151245,
                  -0.1653810292482376,
                  0.0076719666831195354,
                  -0.120900958776474,
                  -0.04877402260899544,
                  -0.01825557090342045,
                  -0.12803974747657776,
                  0.08168485760688782,
                  0.18988221883773804,
                  -0.13527052104473114,
                  -0.049685169011354446,
                  0.17814093828201294,
                  -0.1737709641456604,
                  -0.07971986383199692,
                  -0.19177794456481934,
                  -0.1087472140789032,
                  -0.1873602569103241,
                  -0.1992296725511551,
                  -0.1634770780801773,
                  -0.1524185836315155,
                  -0.006713349372148514,
                  -0.1120312511920929,
                  0.2181508094072342,
                  0.012607754208147526,
                  0.1043943539261818,
                  0.2297004610300064,
                  -0.13790389895439148,
                  -0.07625111192464828,
                  0.1628340482711792,
                  0.08564312756061554,
                  0.07651560753583908,
                  -0.11233595013618469,
                  0.1838773787021637,
                  -0.12275779992341995,
                  0.13182419538497925,
                  0.14638066291809082,
                  0.1083257868885994,
                  0.0324893593788147,
                  0.12256573140621185,
                  -0.15787376463413239,
                  0.058631591498851776,
                  -0.1123260036110878,
                  -0.17406320571899414,
                  0.05060572177171707,
                  -0.11782878637313843,
                  0.09527642279863358,
                  -0.11665072292089462,
                  -0.02109473943710327,
                  0.08866755664348602,
                  0.19909287989139557,
                  -0.14295625686645508,
                  0.03019935078918934,
                  -0.0392148457467556,
                  0.05356825143098831,
                  -0.031841978430747986,
                  -0.1543421894311905,
                  0.02349768579006195,
                  0.06581693887710571,
                  -0.033986955881118774,
                  -0.12133156508207321,
                  0.06548545509576797,
                  -0.20486970245838165,
                  -0.12008544057607651,
                  0.05318428948521614,
                  0.11145084351301193,
                  0.008206707425415516,
                  0.10659816861152649,
                  -0.0017473294865339994,
                  -0.14249740540981293,
                  -0.22606004774570465,
                  0.15485835075378418,
                  -0.1804879754781723,
                  0.09404349327087402,
                  -0.13457036018371582,
                  0.1619110256433487,
                  0.01096614170819521,
                  -0.15094390511512756,
                  -0.20017798244953156,
                  0.10940214991569519,
                  0.17513272166252136,
                  0.08264779299497604,
                  -0.03932272642850876,
                  0.014747671782970428,
                  -0.048114046454429626,
                  0.22518852353096008,
                  0.006223402917385101,
                  -0.11399184167385101,
                  -0.02748415805399418,
                  0.043703343719244,
                  -0.13033537566661835,
                  0.009943202137947083,
                  -0.1793249547481537,
                  0.19786961376667023,
                  0.19915209710597992,
                  -0.17534634470939636,
                  -0.12287207692861557,
                  0.12078095972537994,
                  0.04658020660281181,
                  -0.15145310759544373,
                  -0.02243698015809059,
                  -0.11048469692468643,
                  0.1845589280128479,
                  -0.17952091991901398,
                  -0.027942074462771416,
                  -0.12023335695266724,
                  0.1460600346326828,
                  -0.1230173334479332,
                  0.007927102968096733,
                  -0.0022903219796717167,
                  -0.10273236036300659,
                  0.22076620161533356,
                  0.01979677937924862,
                  -0.0364578552544117,
                  0.04007958248257637,
                  -0.1829649955034256,
                  0.22510114312171936,
                  0.14629988372325897,
                  -0.09524181485176086,
                  -0.11192483454942703,
                  0.07173889875411987,
                  0.050189681351184845,
                  0.001586082042194903,
                  0.065758615732193,
                  0.19631682336330414,
                  -0.16536465287208557,
                  -0.14079649746418,
                  0.008620794862508774,
                  -0.1515781134366989,
                  0.025608807802200317,
                  0.09027667343616486,
                  -0.10401171445846558,
                  0.08972959220409393,
                  -0.14459985494613647,
                  -0.15872029960155487,
                  -0.06923163682222366,
                  0.13799242675304413,
                  -0.042514197528362274,
                  0.09098267555236816,
                  -0.04367696866393089,
                  -0.17475146055221558,
                  -0.052078183740377426,
                  -0.03213924542069435,
                  0.1439821869134903,
                  -0.19219721853733063,
                  0.14284907281398773,
                  -0.008483285084366798,
                  0.14515697956085205,
                  0.10833985358476639,
                  -0.20066776871681213,
                  -0.06980874389410019,
                  -0.17283765971660614,
                  0.19864803552627563,
                  -0.12426948547363281,
                  -0.008685163222253323,
                  0.19252999126911163,
                  0.14248605072498322,
                  -0.026063192635774612,
                  0.17714078724384308,
                  0.0968819335103035,
                  -0.09254730492830276,
                  0.03024052083492279,
                  -0.13363486528396606,
                  -0.172441303730011,
                  -0.07630031555891037,
                  -0.10870380699634552,
                  0.1009378731250763,
                  -0.0808042660355568,
                  0.13049687445163727,
                  0.18476666510105133,
                  -0.023830007761716843,
                  -0.11832473427057266,
                  0.11442888528108597,
                  0.16972552239894867,
                  -0.08146292716264725,
                  -0.12714263796806335,
                  0.05730067193508148,
                  -0.004307011142373085,
                  -0.08074133843183517,
                  -0.03214742988348007,
                  -0.12316951155662537,
                  0.05660489946603775,
                  -0.07419919222593307,
                  0.08561819791793823,
                  0.1242162436246872,
                  0.057821355760097504,
                  -0.19959306716918945,
                  0.04584681987762451,
                  -0.01957223005592823,
                  -0.11550119519233704,
                  0.17459671199321747,
                  -0.1101490706205368,
                  0.17365191876888275,
                  -0.17437629401683807,
                  -0.04131130874156952,
                  0.04567526653409004,
                  -0.05403181165456772,
                  -0.1932704895734787,
                  0.17975051701068878,
                  -0.16792429983615875,
                  0.16191627085208893,
                  -0.11333727836608887,
                  0.1960807889699936,
                  -0.03296232223510742,
                  -0.17195580899715424,
                  -0.016930459067225456,
                  -0.02130182646214962,
                  0.0023151494096964598,
                  -0.09760251641273499,
                  -0.08398882299661636,
                  -0.12204781919717789,
                  0.04537362977862358,
                  -0.045857008546590805,
                  0.19009043276309967,
                  -0.18738126754760742,
                  -0.14483872056007385,
                  0.07061566412448883,
                  0.175863578915596,
                  0.1327337622642517,
                  -0.2088298201560974,
                  -0.04645932465791702,
                  0.13953571021556854,
                  0.07146501541137695,
                  -0.12803225219249725,
                  -0.10945319384336472,
                  -0.14570753276348114,
                  0.039835523813962936,
                  -0.035290397703647614,
                  -0.05343754217028618,
                  0.17898529767990112,
                  0.17807723581790924,
                  -0.08416610956192017,
                  -0.02914627455174923,
                  -0.15717282891273499,
                  -0.1677548736333847,
                  0.11362440884113312,
                  0.12374725192785263,
                  -0.06123831123113632,
                  0.15598180890083313,
                  -0.009275427088141441,
                  0.16666580736637115,
                  0.052211955189704895,
                  0.00006745920109096915,
                  -0.017748402431607246,
                  0.024141747504472733,
                  0.12504176795482635,
                  -0.10130828619003296,
                  -0.0886320173740387,
                  0.10373929888010025,
                  0.008381792344152927,
                  -0.07339143753051758,
                  0.1529591977596283,
                  -0.06261324137449265,
                  0.08352930843830109,
                  0.1853877454996109,
                  -0.1912688910961151,
                  0.1198962926864624,
                  0.06597255915403366,
                  0.13636049628257751,
                  -0.06839228421449661,
                  -0.012556710280478,
                  0.1056969091296196,
                  -0.0996742695569992,
                  0.1330721229314804,
                  0.14617151021957397,
                  0.19957102835178375,
                  -0.09365106374025345,
                  -0.0012508512008935213,
                  0.1284361183643341,
                  -0.026067843660712242,
                  -0.0935707539319992,
                  0.15375952422618866,
                  0.1382855623960495,
                  -0.04770146682858467,
                  -0.15970060229301453,
                  0.14127513766288757,
                  0.05023889243602753,
                  0.029244868084788322,
                  -0.19720551371574402,
                  0.1433388739824295,
                  0.11688496917486191,
                  0.11884094774723053,
                  -0.13350094854831696,
                  -0.18126748502254486,
                  -0.09158827364444733,
                  0.1808837354183197,
                  -0.07016348093748093,
                  0.14637917280197144,
                  -0.020169662311673164,
                  -0.1359747350215912,
                  -0.18489931523799896,
                  -0.06118163466453552,
                  -0.19061487913131714,
                  0.0899532288312912,
                  -0.07306244224309921,
                  -0.041691794991493225,
                  -0.02945716306567192,
                  0.012644820846617222,
                  -0.07622653245925903,
                  0.04483798146247864,
                  -0.08930721879005432,
                  -0.20005068182945251,
                  0.034130822867155075,
                  -0.16370466351509094,
                  0.008857078850269318,
                  -0.01923883520066738,
                  -0.04466810077428818,
                  -0.028230154886841774,
                  0.029658205807209015,
                  0.05684325471520424,
                  0.1798645257949829,
                  0.11526486277580261,
                  0.015453475527465343,
                  0.02806675434112549,
                  0.1444644033908844,
                  0.19376319646835327,
                  -0.13950234651565552,
                  0.03250538185238838,
                  0.022372743114829063,
                  -0.0008546375320293009,
                  -0.09796169400215149,
                  0.13476112484931946,
                  -0.02844061702489853,
                  0.14931729435920715,
                  0.1055300161242485,
                  -0.13503506779670715,
                  -0.1930903196334839,
                  -0.00816167239099741,
                  0.046395547688007355,
                  -0.06624406576156616,
                  -0.02843870408833027,
                  -0.12660884857177734,
                  0.176825150847435,
                  -0.10526985675096512,
                  -0.025756841525435448,
                  0.04631197825074196,
                  0.13223007321357727,
                  0.12179365009069443,
                  0.12707312405109406
              ],
              [
                  0.06803774833679199,
                  0.15885543823242188,
                  -0.03539310395717621,
                  0.08646078407764435,
                  -0.18547503650188446,
                  -0.013448027893900871,
                  -0.07818261533975601,
                  -0.08337482810020447,
                  -0.029160290956497192,
                  -0.07193673402070999,
                  0.08817926794290543,
                  -0.08790890127420425,
                  -0.15703487396240234,
                  0.05695626512169838,
                  0.09473186731338501,
                  0.07655949145555496,
                  0.031153658404946327,
                  -0.16591668128967285,
                  0.013209962286055088,
                  0.1911958009004593,
                  0.17935404181480408,
                  0.07253202050924301,
                  -0.008747648447751999,
                  0.13702978193759918,
                  -0.11552006006240845,
                  -0.13917364180088043,
                  -0.007735803723335266,
                  0.016556283459067345,
                  -0.09734730422496796,
                  -0.13377833366394043,
                  -0.13317935168743134,
                  -0.01641090027987957,
                  -0.1218142956495285,
                  -0.16588224470615387,
                  0.14140819013118744,
                  0.1425117552280426,
                  0.1509517878293991,
                  -0.07852514088153839,
                  -0.11537621915340424,
                  0.16816985607147217,
                  0.0521366149187088,
                  0.001605722587555647,
                  0.1311124712228775,
                  -0.12671762704849243,
                  -0.17136460542678833,
                  -0.035424768924713135,
                  -0.009509466588497162,
                  -0.22814114391803741,
                  0.06771641224622726,
                  0.18063923716545105,
                  -0.06975235044956207,
                  -0.08795508742332458,
                  -0.05908561497926712,
                  0.04330448806285858,
                  0.024521801620721817,
                  -0.12161469459533691,
                  0.12309747189283371,
                  -0.12253528833389282,
                  0.042236048728227615,
                  -0.017953721806406975,
                  -0.18861281871795654,
                  -0.1683027744293213,
                  -0.027710435912013054,
                  -0.14634668827056885,
                  -0.05430644378066063,
                  -0.1007307767868042,
                  -0.0321073941886425,
                  0.13731105625629425,
                  -0.21720078587532043,
                  0.04410690814256668,
                  0.11749807000160217,
                  0.12142643332481384,
                  -0.10080724209547043,
                  -0.015564627945423126,
                  -0.025300225242972374,
                  0.09560024738311768,
                  0.0017775967717170715,
                  0.008057189173996449,
                  -0.026037314906716347,
                  -0.01840539276599884,
                  -0.003556717187166214,
                  -0.2038334161043167,
                  0.12208987027406693,
                  -0.14931926131248474,
                  0.06817987561225891,
                  0.05102505534887314,
                  0.1237354576587677,
                  0.165587916970253,
                  0.04575004801154137,
                  0.04367600008845329,
                  0.18769416213035583,
                  0.05955754220485687,
                  -0.14266686141490936,
                  0.09485620260238647,
                  -0.15768159925937653,
                  -0.09253852814435959,
                  -0.07749311625957489,
                  -0.19445230066776276,
                  -0.1069670021533966,
                  -0.19375260174274445,
                  0.15502044558525085,
                  0.12680375576019287,
                  -0.2045593410730362,
                  0.09348046779632568,
                  -0.12842269241809845,
                  0.009959481656551361,
                  -0.1424444317817688,
                  -0.1893005222082138,
                  -0.21786291897296906,
                  -0.1903209388256073,
                  0.10620266199111938,
                  -0.265817791223526,
                  -0.2797461152076721,
                  -0.020649509504437447,
                  -0.22242340445518494,
                  -0.021331196650862694,
                  0.020386092364788055,
                  -0.1548670530319214,
                  -0.06710616499185562,
                  0.1662253737449646,
                  -0.1514727771282196,
                  -0.020534183830022812,
                  -0.11334549635648727,
                  -0.13793258368968964,
                  0.057912427932024,
                  -0.03814263269305229,
                  0.10752612352371216,
                  0.06364241987466812,
                  0.05371088907122612,
                  -0.10936738550662994,
                  0.03760133311152458,
                  -0.01340050995349884,
                  -0.05813126266002655,
                  0.0013298523845151067,
                  0.08901359140872955,
                  -0.12905597686767578,
                  0.21097084879875183,
                  -0.14190487563610077,
                  -0.02780173532664776,
                  -0.09489022195339203,
                  -0.1684364229440689,
                  -0.15864786505699158,
                  -0.09664800763130188,
                  0.1186467632651329,
                  0.15213005244731903,
                  -0.21027879416942596,
                  0.1770131140947342,
                  0.18257276713848114,
                  0.10250598192214966,
                  0.20017458498477936,
                  -0.20394279062747955,
                  -0.15681926906108856,
                  0.07588198781013489,
                  0.17246657609939575,
                  -0.13917000591754913,
                  0.08754226565361023,
                  -0.22227853536605835,
                  -0.2270628660917282,
                  0.12244449555873871,
                  0.14972005784511566,
                  0.09194469451904297,
                  0.18033507466316223,
                  -0.06015894562005997,
                  -0.03486032038927078,
                  -0.1439352035522461,
                  0.00043365039164200425,
                  -0.23069508373737335,
                  0.14424963295459747,
                  -0.034972675144672394,
                  0.06674505770206451,
                  -0.11170791834592819,
                  -0.16946500539779663,
                  -0.1484563946723938,
                  -0.04625559225678444,
                  -0.17449451982975006,
                  -0.16133762896060944,
                  -0.008100978098809719,
                  -0.19349710643291473,
                  0.18520162999629974,
                  0.05021083354949951,
                  0.13758309185504913,
                  0.09555674344301224,
                  -0.07960756123065948,
                  0.19492170214653015,
                  0.1306956708431244,
                  -0.051596589386463165,
                  -0.08141814917325974,
                  0.02237074077129364,
                  0.10582466423511505,
                  -0.07410435378551483,
                  -0.10762641578912735,
                  0.055665694177150726,
                  0.1253364086151123,
                  -0.03142664209008217,
                  0.011746643111109734,
                  -0.1498885601758957,
                  0.17952920496463776,
                  -0.13067582249641418,
                  0.09486636519432068,
                  -0.02793704718351364,
                  -0.17063702642917633,
                  0.11122577637434006,
                  -0.17035193741321564,
                  -0.081587053835392,
                  0.09772752970457077,
                  0.11131548136472702,
                  -0.05670717731118202,
                  0.022648954764008522,
                  0.12271644175052643,
                  -0.11737760156393051,
                  0.09611445665359497,
                  0.06768221408128738,
                  -0.08808057010173798,
                  0.11756390333175659,
                  0.1754315048456192,
                  0.08640549331903458,
                  -0.1701570749282837,
                  0.0337381437420845,
                  -0.010328676551580429,
                  -0.10990002006292343,
                  -0.08083545416593552,
                  0.032670166343450546,
                  -0.1226070299744606,
                  -0.1566103994846344,
                  -0.013614610768854618,
                  -0.19295965135097504,
                  -0.14086861908435822,
                  0.11527617275714874,
                  0.09703276306390762,
                  -0.15624600648880005,
                  0.06037786975502968,
                  0.10966188460588455,
                  0.17858821153640747,
                  -0.03308352082967758,
                  0.017090559005737305,
                  0.11442121118307114,
                  0.17732951045036316,
                  0.04490820690989494,
                  0.01109375525265932,
                  -0.03295912221074104,
                  0.06984403729438782,
                  -0.14627505838871002,
                  -0.17947258055210114,
                  -0.19467170536518097,
                  -0.11860346049070358,
                  -0.005104909185320139,
                  -0.019072258844971657,
                  0.03704063966870308,
                  0.04277704283595085,
                  0.052351608872413635,
                  0.17854106426239014,
                  -0.05708333104848862,
                  0.1777351349592209,
                  -0.18020504713058472,
                  0.013305963017046452,
                  0.08914917707443237,
                  -0.17503757774829865,
                  -0.17593182623386383,
                  -0.041902776807546616,
                  -0.18507607281208038,
                  -0.057720400393009186,
                  -0.1287706345319748,
                  -0.06399642676115036,
                  0.1231272965669632,
                  -0.039259545505046844,
                  -0.1736249476671219,
                  -0.13476745784282684,
                  -0.10986541956663132,
                  0.05703606456518173,
                  -0.13795587420463562,
                  0.17134720087051392,
                  0.010203593410551548,
                  -0.19248339533805847,
                  -0.19846035540103912,
                  -0.1273767054080963,
                  0.06656871736049652,
                  0.0027314925100654364,
                  0.02175023965537548,
                  0.17275260388851166,
                  0.08410461992025375,
                  -0.0473872534930706,
                  -0.06663694232702255,
                  -0.17038239538669586,
                  0.1434539556503296,
                  0.0630321353673935,
                  -0.1496582180261612,
                  -0.057315897196531296,
                  -0.17494608461856842,
                  -0.022467248141765594,
                  -0.09609293937683105,
                  0.18551158905029297,
                  -0.17220869660377502,
                  -0.15048763155937195,
                  0.14193019270896912,
                  0.14187531173229218,
                  -0.18081194162368774,
                  0.18805284798145294,
                  0.06073750928044319,
                  0.07409627735614777,
                  0.06797264516353607,
                  0.03581143543124199,
                  0.08014857023954391,
                  -0.07772406190633774,
                  0.030094321817159653,
                  0.1722542941570282,
                  -0.17986099421977997,
                  -0.18697386980056763,
                  0.05739199370145798,
                  0.13447414338588715,
                  0.1580561250448227,
                  -0.11653612554073334,
                  -0.0858144760131836,
                  0.11006774753332138,
                  0.17083071172237396,
                  -0.05905827879905701,
                  -0.06183035299181938,
                  0.05461423099040985,
                  -0.13715532422065735,
                  0.16947615146636963,
                  -0.1240135207772255,
                  -0.07009386271238327,
                  0.021593831479549408,
                  -0.0109704015776515,
                  0.12094597518444061,
                  -0.1131567507982254,
                  0.14264824986457825,
                  -0.16180315613746643,
                  0.0934479832649231,
                  -0.1754309982061386,
                  0.07763819396495819,
                  0.13439436256885529,
                  -0.00574100948870182,
                  0.10337977111339569,
                  0.13287657499313354,
                  -0.19244414567947388,
                  -0.11668895930051804,
                  -0.08612089604139328,
                  -0.03371701389551163,
                  0.12500712275505066,
                  -0.1907491534948349,
                  -0.15498106181621552,
                  0.1499767303466797,
                  -0.030559396371245384,
                  -0.10418718308210373,
                  0.08198252320289612,
                  -0.09615416824817657,
                  -0.061808548867702484,
                  -0.14796583354473114,
                  0.05162794142961502,
                  -0.14809256792068481,
                  0.026126060634851456,
                  -0.22740310430526733,
                  -0.007053691428154707,
                  0.009528491646051407,
                  0.07213351875543594,
                  0.032295458018779755,
                  -0.1779474914073944,
                  0.13608099520206451,
                  0.1737213134765625,
                  -0.07799257338047028,
                  -0.11030120402574539,
                  0.0715341791510582,
                  0.11738651245832443,
                  0.14718210697174072,
                  0.13524781167507172,
                  0.16259409487247467,
                  0.15995921194553375,
                  0.12516306340694427,
                  0.09144414961338043,
                  0.026617249473929405,
                  -0.1139688491821289,
                  -0.0370766781270504,
                  -0.02632690779864788,
                  0.13663312792778015,
                  -0.02950526401400566,
                  -0.01233124453574419,
                  -0.026908526197075844,
                  0.08536694198846817,
                  0.08218452334403992,
                  -0.11331214755773544,
                  -0.019664568826556206,
                  -0.16133800148963928,
                  -0.0254315584897995,
                  -0.14934474229812622,
                  -0.053553830832242966,
                  -0.19003097712993622,
                  -0.12389644235372543,
                  -0.03486083820462227,
                  0.1158168837428093,
                  0.0037700904067605734,
                  0.09196573495864868,
                  0.030964063480496407,
                  0.06732398271560669,
                  0.018943728879094124,
                  -0.019904950633645058,
                  0.10808168351650238,
                  0.025151953101158142,
                  0.1693359911441803,
                  -0.06867890059947968,
                  0.11319271475076675
              ],
              [
                  0.018926693126559258,
                  -0.19189101457595825,
                  -0.18550696969032288,
                  -0.01590058207511902,
                  -0.15723161399364471,
                  -0.007084533106535673,
                  -0.03589684143662453,
                  0.15484194457530975,
                  -0.107743039727211,
                  0.17310243844985962,
                  0.16894036531448364,
                  -0.021436311304569244,
                  -0.12844005227088928,
                  -0.16256198287010193,
                  -0.14724965393543243,
                  -0.13046757876873016,
                  -0.21949012577533722,
                  0.07911475002765656,
                  -0.22936302423477173,
                  -0.026539934799075127,
                  -0.19254134595394135,
                  -0.2579006254673004,
                  -0.020977767184376717,
                  -0.07591114938259125,
                  -0.07307562977075577,
                  -0.027384860441088676,
                  -0.18676403164863586,
                  -0.03437351807951927,
                  -0.2510119378566742,
                  -0.2044122964143753,
                  -0.13717706501483917,
                  0.09236274659633636,
                  -0.20144781470298767,
                  -0.0006998765165917575,
                  0.08705528825521469,
                  -0.05953130125999451,
                  0.17270347476005554,
                  -0.017484614625573158,
                  0.08780666440725327,
                  -0.11453660577535629,
                  -0.17593184113502502,
                  -0.029963817447423935,
                  0.05414985492825508,
                  0.004549708683043718,
                  0.07558295130729675,
                  -0.032016877084970474,
                  0.32104235887527466,
                  0.23314078152179718,
                  0.12326226383447647,
                  0.2372065633535385,
                  0.08606908470392227,
                  0.22737054526805878,
                  0.03066757135093212,
                  -0.05542809143662453,
                  -0.03487653285264969,
                  0.2692660689353943,
                  -0.027674200013279915,
                  -0.007371198385953903,
                  -0.13176174461841583,
                  0.036971792578697205,
                  0.09795679897069931,
                  0.051697392016649246,
                  -0.061594944447278976,
                  -0.21119262278079987,
                  -0.10464169085025787,
                  0.0920642763376236,
                  0.004283717833459377,
                  0.08371852338314056,
                  -0.01837744750082493,
                  0.05456691235303879,
                  -0.17617619037628174,
                  -0.20351824164390564,
                  0.19921448826789856,
                  -0.15004944801330566,
                  -0.24958635866641998,
                  -0.13923126459121704,
                  0.2684972286224365,
                  0.12902693450450897,
                  -0.029962748289108276,
                  0.19478702545166016,
                  0.017582600936293602,
                  0.15275466442108154,
                  -0.23301482200622559,
                  0.0696391686797142,
                  -0.1683153510093689,
                  -0.16664950549602509,
                  -0.13937480747699738,
                  -0.4596296548843384,
                  0.15376217663288116,
                  0.14953508973121643,
                  0.01614806242287159,
                  -0.14110378921031952,
                  0.10647398978471756,
                  -0.11609724909067154,
                  -0.18355795741081238,
                  -0.12920041382312775,
                  -0.07317985594272614,
                  0.07385513186454773,
                  -0.23720017075538635,
                  0.10889485478401184,
                  0.036213893443346024,
                  -0.21367327868938446,
                  -0.09794516861438751,
                  -0.1878206729888916,
                  -0.3143945038318634,
                  0.2725712060928345,
                  0.09440566599369049,
                  0.27945470809936523,
                  0.5176048278808594,
                  0.10002047568559647,
                  -0.05391429364681244,
                  -0.0038575264625251293,
                  0.028800513595342636,
                  0.022512871772050858,
                  -0.036383382976055145,
                  -0.344847708940506,
                  -0.034211717545986176,
                  0.1498624086380005,
                  -0.26681074500083923,
                  0.20309412479400635,
                  0.009593810886144638,
                  -0.2649962902069092,
                  -0.17877420783042908,
                  -0.03336344659328461,
                  -0.08694975078105927,
                  0.13104477524757385,
                  -0.27622053027153015,
                  -0.09580280631780624,
                  -0.13551323115825653,
                  0.2913283109664917,
                  0.12103132158517838,
                  0.5960530042648315,
                  0.07720404118299484,
                  -0.029157018288969994,
                  0.061670932918787,
                  0.12199784070253372,
                  0.11716638505458832,
                  0.1695445030927658,
                  -0.046899933367967606,
                  -0.15707026422023773,
                  -0.004874820355325937,
                  -0.29924261569976807,
                  0.19335617125034332,
                  0.22508157789707184,
                  0.02797376923263073,
                  0.5605764389038086,
                  -0.2651608884334564,
                  -0.39784905314445496,
                  -0.17601291835308075,
                  0.0165457334369421,
                  -0.04908638447523117,
                  0.2286575883626938,
                  -0.2752391993999481,
                  0.05751938000321388,
                  0.19136284291744232,
                  -0.20236356556415558,
                  0.5735806822776794,
                  -0.006751221604645252,
                  0.056811340153217316,
                  -0.009750183671712875,
                  -0.03828221932053566,
                  0.04353684186935425,
                  -0.07442545145750046,
                  -0.21073664724826813,
                  0.387857586145401,
                  -0.12289206683635712,
                  0.1369449347257614,
                  -0.11681772768497467,
                  -0.26484280824661255,
                  0.020812036469578743,
                  -0.5874664783477783,
                  -0.4365725815296173,
                  -0.6510900259017944,
                  -0.25118207931518555,
                  0.3367035686969757,
                  -0.8842335343360901,
                  -0.3497202396392822,
                  -0.4001086354255676,
                  0.1267400085926056,
                  -0.09588931500911713,
                  -0.026794802397489548,
                  -0.5349583029747009,
                  -0.07172266393899918,
                  -0.2727586627006531,
                  0.15031343698501587,
                  0.2183401733636856,
                  0.188895583152771,
                  -0.3667474687099457,
                  -0.6614151000976562,
                  -0.21619880199432373,
                  0.30058157444000244,
                  0.4292246699333191,
                  0.7016894817352295,
                  -0.24410557746887207,
                  0.17467403411865234,
                  -0.6213070154190063,
                  -0.43908950686454773,
                  0.1490631252527237,
                  0.09048712253570557,
                  0.13367682695388794,
                  0.0044326819479465485,
                  -0.0007884478545747697,
                  -0.021930012851953506,
                  -0.06331522017717361,
                  -0.06369391083717346,
                  -0.02976401336491108,
                  -0.11516985297203064,
                  0.1486695557832718,
                  0.18960095942020416,
                  0.10552391409873962,
                  -0.2417762279510498,
                  -0.11383836716413498,
                  0.07925841212272644,
                  -0.07524624466896057,
                  0.08890592306852341,
                  0.0743192732334137,
                  -0.0957488939166069,
                  0.14753374457359314,
                  -0.04457998648285866,
                  0.09466752409934998,
                  0.11712885648012161,
                  -0.13718360662460327,
                  -0.023342784494161606,
                  -0.017154904082417488,
                  -0.38463714718818665,
                  0.06663345545530319,
                  0.07815741002559662,
                  -0.06216904893517494,
                  0.1759849190711975,
                  0.08533334732055664,
                  -0.18387095630168915,
                  -0.07987026125192642,
                  -0.06417496502399445,
                  -0.029599221423268318,
                  0.08822792023420334,
                  0.08542974293231964,
                  0.17778387665748596,
                  0.17377933859825134,
                  -0.2289920598268509,
                  0.18442250788211823,
                  0.07770253717899323,
                  0.1489967703819275,
                  -0.006390037946403027,
                  -0.09107371419668198,
                  -0.11094307899475098,
                  0.09417463093996048,
                  -0.06664121150970459,
                  -0.09007888287305832,
                  -0.11080440133810043,
                  0.04159538447856903,
                  -0.12490827590227127,
                  0.08555103838443756,
                  -0.09329719841480255,
                  -0.02374601550400257,
                  -0.08789330720901489,
                  0.0012571068946272135,
                  0.14809179306030273,
                  0.15953868627548218,
                  -0.1864347755908966,
                  -0.1298045516014099,
                  -0.004554815124720335,
                  -0.08339449018239975,
                  0.17098045349121094,
                  -0.04155372455716133,
                  -0.2021235078573227,
                  0.19259008765220642,
                  -0.39023593068122864,
                  0.03985506668686867,
                  0.1975119560956955,
                  0.10116580128669739,
                  -0.15873344242572784,
                  -0.02546021156013012,
                  0.06888068467378616,
                  -0.05422045290470123,
                  -0.166781485080719,
                  0.03113446943461895,
                  -0.17719155550003052,
                  0.17901040613651276,
                  -0.09047586470842361,
                  -0.1131688803434372,
                  -0.34225305914878845,
                  -0.07494347542524338,
                  -0.07808439433574677,
                  0.19058874249458313,
                  -0.11493735760450363,
                  -0.15098102390766144,
                  -0.11412052810192108,
                  -0.12860077619552612,
                  -0.08755417168140411,
                  0.05094296485185623,
                  0.0161737073212862,
                  -0.1198594942688942,
                  -0.15103068947792053,
                  0.10920481383800507,
                  -0.4113105833530426,
                  0.14933444559574127,
                  -0.08126920461654663,
                  0.0038350645918399096,
                  0.14296947419643402,
                  0.00777845736593008,
                  0.15668049454689026,
                  0.062075547873973846,
                  -0.07254939526319504,
                  0.03746652603149414,
                  0.05081719532608986,
                  -0.021837035194039345,
                  0.14045536518096924,
                  -0.03975154086947441,
                  -0.3414536416530609,
                  -0.15573589503765106,
                  0.06249278783798218,
                  0.16702523827552795,
                  -0.06251335144042969,
                  -0.020363062620162964,
                  0.020658468827605247,
                  -0.17838512361049652,
                  -0.09794831275939941,
                  -0.08502347767353058,
                  0.20410263538360596,
                  0.11305619031190872,
                  0.04633181169629097,
                  -0.11667881906032562,
                  -0.35320931673049927,
                  -0.08313511312007904,
                  0.18430142104625702,
                  -0.014576965942978859,
                  -0.002150207757949829,
                  -0.18331021070480347,
                  0.14813408255577087,
                  -0.1548873633146286,
                  0.18558736145496368,
                  0.19030670821666718,
                  0.0662154108285904,
                  -0.16737160086631775,
                  0.014896279200911522,
                  0.03835543245077133,
                  -0.12567497789859772,
                  -0.021936515346169472,
                  -0.08335007727146149,
                  -0.17625153064727783,
                  -0.05944610387086868,
                  0.10567901283502579,
                  0.1259603351354599,
                  -0.051401834934949875,
                  -0.031509947031736374,
                  -0.14597737789154053,
                  -0.04862549155950546,
                  -0.04335319623351097,
                  -0.0030703963711857796,
                  0.12998533248901367,
                  -0.2460075169801712,
                  -0.06512793153524399,
                  -0.006712870206683874,
                  -0.011529630050063133,
                  0.07446225732564926,
                  0.10587239265441895,
                  0.1452661156654358,
                  -0.20435841381549835,
                  -0.18806754052639008,
                  0.17071951925754547,
                  -0.09168106317520142,
                  -0.01593136228621006,
                  -0.08196242153644562,
                  0.22052550315856934,
                  -0.3165329396724701,
                  0.06753343343734741,
                  0.1880776733160019,
                  0.044606950134038925,
                  -0.10049580782651901,
                  -0.13470076024532318,
                  0.1346065104007721,
                  -0.17436324059963226,
                  0.05057962238788605,
                  -0.1409166157245636,
                  -0.06892471760511398,
                  -0.13200929760932922,
                  0.08235105127096176,
                  0.03999772295355797,
                  -0.26014336943626404,
                  0.06468955427408218,
                  -0.035035453736782074,
                  -0.16063231229782104,
                  -0.029222272336483,
                  0.026999318972229958,
                  0.03371518477797508,
                  -0.039717916399240494,
                  0.00830973219126463,
                  -0.17740732431411743,
                  0.14975354075431824,
                  0.1253095269203186,
                  0.16387702524662018,
                  0.03163044899702072,
                  -0.3957943022251129,
                  -0.0935051366686821,
                  0.12155911326408386,
                  0.13202476501464844,
                  0.06281021982431412,
                  0.1718158721923828,
                  -0.11118286848068237,
                  -0.028715338557958603
              ],
              [
                  0.009087690152227879,
                  0.16476227343082428,
                  0.15566208958625793,
                  -0.05090610310435295,
                  0.08750716596841812,
                  -0.06845534592866898,
                  -0.16114290058612823,
                  0.001269576488994062,
                  -0.1351114958524704,
                  0.11772169172763824,
                  0.03930853307247162,
                  -0.13219885528087616,
                  -0.11677100509405136,
                  -0.12439928203821182,
                  -0.08248796314001083,
                  0.0740523412823677,
                  -0.22906775772571564,
                  0.06522854417562485,
                  0.031732168048620224,
                  -0.18824295699596405,
                  0.07051415741443634,
                  -0.21855956315994263,
                  -0.09436917304992676,
                  0.0340503454208374,
                  0.24554726481437683,
                  -0.08297997713088989,
                  0.1894882768392563,
                  -0.18645864725112915,
                  -0.19762936234474182,
                  -0.09903275221586227,
                  0.09740946441888809,
                  0.018747786059975624,
                  -0.1593858301639557,
                  0.23434263467788696,
                  0.15999874472618103,
                  -0.15208445489406586,
                  0.16299356520175934,
                  -0.07572469860315323,
                  -0.04534675180912018,
                  0.1296384185552597,
                  0.10543954372406006,
                  0.02565968781709671,
                  -0.09891673177480698,
                  0.0429682657122612,
                  0.1067231222987175,
                  -0.14954806864261627,
                  0.4240637719631195,
                  0.7188954949378967,
                  0.19411681592464447,
                  0.29124245047569275,
                  0.17981232702732086,
                  0.09312408417463303,
                  -0.2387927770614624,
                  -0.14931662380695343,
                  -0.0916571319103241,
                  0.43074482679367065,
                  0.09266220778226852,
                  -0.38923484086990356,
                  -0.16837991774082184,
                  0.05511462315917015,
                  -0.14654384553432465,
                  0.2062324732542038,
                  -0.06283921003341675,
                  -0.09741295129060745,
                  -0.2711879014968872,
                  0.04027053341269493,
                  0.006715466734021902,
                  0.008407818153500557,
                  0.09187471121549606,
                  -0.09006424248218536,
                  -0.2796238958835602,
                  0.036867447197437286,
                  0.09841664880514145,
                  -0.20651420950889587,
                  -0.17915023863315582,
                  -0.1803141087293625,
                  0.06960916519165039,
                  0.2159590721130371,
                  -0.21560578048229218,
                  -0.15499082207679749,
                  0.023075422272086143,
                  0.011375725269317627,
                  -0.3092210292816162,
                  0.104446180164814,
                  -0.017491713166236877,
                  0.08574408292770386,
                  0.4378504753112793,
                  0.366814523935318,
                  0.9196665287017822,
                  0.7249535322189331,
                  0.4995689392089844,
                  0.29373034834861755,
                  0.7072187662124634,
                  0.14455588161945343,
                  -0.18222497403621674,
                  -0.17278414964675903,
                  -0.009384965524077415,
                  0.006107879336923361,
                  -0.17986011505126953,
                  -0.13481196761131287,
                  0.04177592322230339,
                  -0.08104866743087769,
                  -0.059074483811855316,
                  0.0447678342461586,
                  -0.3779430687427521,
                  0.15913502871990204,
                  0.07944712042808533,
                  0.12340370565652847,
                  0.03707456961274147,
                  -0.7335155010223389,
                  -0.3646126389503479,
                  -0.20129534602165222,
                  0.18229800462722778,
                  0.1733274608850479,
                  0.025508232414722443,
                  -0.021759355440735817,
                  -0.42302581667900085,
                  0.051663752645254135,
                  -0.23714308440685272,
                  0.048178475350141525,
                  0.06882345676422119,
                  -0.06597212702035904,
                  -0.30524590611457825,
                  -0.20058664679527283,
                  0.09090789407491684,
                  -0.6244285106658936,
                  -0.2807638347148895,
                  -0.5346377491950989,
                  -0.09894980490207672,
                  -0.2873125672340393,
                  -0.27004581689834595,
                  0.24100446701049805,
                  -0.1247226819396019,
                  0.18438804149627686,
                  -0.42103812098503113,
                  0.025652287527918816,
                  -0.4242119789123535,
                  0.19416368007659912,
                  0.009630680084228516,
                  0.08460845053195953,
                  0.15333575010299683,
                  -0.046687155961990356,
                  0.17424972355365753,
                  0.2083745002746582,
                  0.09210235625505447,
                  0.7428493499755859,
                  0.30827227234840393,
                  0.7629782557487488,
                  0.6555299162864685,
                  0.3194962739944458,
                  0.5110169649124146,
                  0.38098037242889404,
                  0.2768860459327698,
                  0.128948375582695,
                  -0.06146800145506859,
                  0.34254735708236694,
                  0.07502883672714233,
                  0.10907428711652756,
                  0.08207323402166367,
                  0.21580494940280914,
                  -0.046186413615942,
                  -0.2205079346895218,
                  -0.17588791251182556,
                  -0.1921413242816925,
                  0.21335923671722412,
                  -0.10518994182348251,
                  0.18381106853485107,
                  -0.28195059299468994,
                  -0.4696574807167053,
                  -0.1410347819328308,
                  -0.5466861724853516,
                  -0.3850533366203308,
                  -0.2813657522201538,
                  -0.11601060628890991,
                  -0.040823325514793396,
                  -0.5044324994087219,
                  -0.5214949250221252,
                  -0.02939879707992077,
                  -0.13176991045475006,
                  0.17564956843852997,
                  -0.06351843476295471,
                  0.0964718610048294,
                  0.06222262606024742,
                  0.1884261518716812,
                  0.5210251212120056,
                  0.7400646209716797,
                  0.6171752214431763,
                  1.2875899076461792,
                  1.3632826805114746,
                  0.7191126942634583,
                  1.1898400783538818,
                  0.10893464088439941,
                  0.8885035514831543,
                  0.8270474672317505,
                  1.0018739700317383,
                  0.9363040328025818,
                  0.24389640986919403,
                  0.17015640437602997,
                  0.012256396934390068,
                  0.04682920128107071,
                  -0.1966356337070465,
                  -0.0048498474061489105,
                  -0.15109898149967194,
                  -0.12482142448425293,
                  0.17320580780506134,
                  0.08340386301279068,
                  0.14830657839775085,
                  -0.052483685314655304,
                  0.14911852777004242,
                  0.16616123914718628,
                  0.010010234080255032,
                  0.026351572945713997,
                  -0.017906317487359047,
                  -0.1584324836730957,
                  0.18539468944072723,
                  0.03691154345870018,
                  0.03175957873463631,
                  -0.1914563924074173,
                  -0.07478859275579453,
                  -0.13759109377861023,
                  -0.030102811753749847,
                  -0.0954502746462822,
                  -0.004435208160430193,
                  0.11912260949611664,
                  -0.004261866211891174,
                  0.13411496579647064,
                  -0.10204403102397919,
                  -0.09911160916090012,
                  0.06612357497215271,
                  0.12639720737934113,
                  0.1263316124677658,
                  0.02245427295565605,
                  -0.05714043229818344,
                  -0.12263774126768112,
                  -0.022247958928346634,
                  -0.09802252799272537,
                  -0.03066650591790676,
                  0.11860010027885437,
                  0.17152322828769684,
                  0.1848902851343155,
                  -0.02298346348106861,
                  0.025636738166213036,
                  0.1537376344203949,
                  0.14248323440551758,
                  -0.04199056699872017,
                  -0.007472311146557331,
                  0.05277322232723236,
                  -0.09771791845560074,
                  0.1738015115261078,
                  -0.029989857226610184,
                  -0.06940632313489914,
                  0.15072916448116302,
                  -0.03763676807284355,
                  0.11916838586330414,
                  -0.011126546189188957,
                  -0.13141126930713654,
                  -0.07736792415380478,
                  -0.167146697640419,
                  -0.16780249774456024,
                  0.03388466313481331,
                  -0.19152560830116272,
                  0.15303313732147217,
                  0.1506953239440918,
                  -0.19733968377113342,
                  0.17195500433444977,
                  -0.13398393988609314,
                  0.23694516718387604,
                  0.23920516669750214,
                  -0.1646692454814911,
                  0.15471455454826355,
                  -0.05074361711740494,
                  -0.13687068223953247,
                  -0.2042504996061325,
                  0.1475578397512436,
                  0.07440272718667984,
                  -0.19975954294204712,
                  -0.09643938392400742,
                  -0.12377863377332687,
                  -0.07473962754011154,
                  -0.008046585135161877,
                  0.14556573331356049,
                  -0.012545366771519184,
                  0.13584572076797485,
                  -0.13926030695438385,
                  0.141272634267807,
                  -0.11591196060180664,
                  -0.12324824929237366,
                  -0.09509231150150299,
                  -0.1254032552242279,
                  -0.15884628891944885,
                  -0.1168924942612648,
                  -0.06309229135513306,
                  -0.08916700631380081,
                  0.19921495020389557,
                  0.04898985102772713,
                  0.172988161444664,
                  0.16946348547935486,
                  0.0056288717314600945,
                  -0.04834411293268204,
                  -0.13213513791561127,
                  -0.04058123752474785,
                  0.07475143671035767,
                  0.07843167334794998,
                  0.19104863703250885,
                  0.035883039236068726,
                  0.12350361794233322,
                  -0.16985253989696503,
                  0.0044050030410289764,
                  0.20544998347759247,
                  0.015245345421135426,
                  -0.07623927295207977,
                  0.051065556704998016,
                  -0.1062435656785965,
                  0.08286438137292862,
                  -0.16996413469314575,
                  0.06942932307720184,
                  -0.17407721281051636,
                  0.20434990525245667,
                  0.21047908067703247,
                  -0.029125524684786797,
                  0.015005478635430336,
                  0.11979652941226959,
                  0.04114595428109169,
                  -0.11080692708492279,
                  0.047088705003261566,
                  -0.0948709174990654,
                  -0.09861836582422256,
                  -0.12916670739650726,
                  -0.07239703088998795,
                  -0.14064109325408936,
                  -0.21566006541252136,
                  0.12436871975660324,
                  0.0390237495303154,
                  0.14430491626262665,
                  0.04343964904546738,
                  0.18479572236537933,
                  -0.019832661375403404,
                  -0.05179129168391228,
                  0.05736485496163368,
                  0.07886659353971481,
                  0.10364693403244019,
                  -0.15871931612491608,
                  0.09069902449846268,
                  -0.20602412521839142,
                  -0.04090764373540878,
                  -0.050030507147312164,
                  -0.010913928970694542,
                  0.1383497714996338,
                  -0.10187383741140366,
                  -0.1679740846157074,
                  -0.06544788181781769,
                  0.0669681578874588,
                  0.17343121767044067,
                  -0.13828614354133606,
                  -0.14192001521587372,
                  0.05115152895450592,
                  0.04081735387444496,
                  -0.2069644331932068,
                  -0.1064612939953804,
                  -0.008608803153038025,
                  0.17658555507659912,
                  0.10826051980257034,
                  0.1964907944202423,
                  -0.016757838428020477,
                  0.08723370730876923,
                  0.11628241837024689,
                  0.1371259093284607,
                  0.07346000522375107,
                  -0.04554840922355652,
                  -0.13980607688426971,
                  -0.1863456517457962,
                  -0.1791272908449173,
                  -0.05904660373926163,
                  -0.05593102425336838,
                  0.10321175307035446,
                  0.04923637956380844,
                  -0.1178598627448082,
                  0.020082909613847733,
                  -0.07251296937465668,
                  0.15113525092601776,
                  0.0596076175570488,
                  0.03273649141192436,
                  -0.034575387835502625,
                  -0.11801762878894806,
                  0.10679357498884201,
                  -0.13534919917583466,
                  0.012844924814999104,
                  0.16734136641025543,
                  0.02330571785569191,
                  -0.004521538503468037,
                  0.1557820737361908,
                  -0.14749255776405334,
                  0.13972024619579315,
                  -0.0037809645291417837,
                  0.01687770150601864,
                  0.1384691745042801,
                  -0.1631275713443756,
                  -0.07981095463037491,
                  -0.08969535678625107,
                  0.17197909951210022
              ],
              [
                  0.007480642292648554,
                  0.11521489173173904,
                  0.17496970295906067,
                  0.10546804964542389,
                  -0.1616683006286621,
                  0.08832766860723495,
                  -0.13627944886684418,
                  0.08634179085493088,
                  -0.07737042754888535,
                  -0.10865278542041779,
                  -0.18548503518104553,
                  0.004304057452827692,
                  -0.011711960658431053,
                  -0.018685463815927505,
                  0.1901862919330597,
                  0.08141753822565079,
                  0.15067891776561737,
                  0.07410549372434616,
                  -0.02364250086247921,
                  0.02157926931977272,
                  -0.1487802267074585,
                  -0.16207978129386902,
                  0.20012953877449036,
                  0.024581044912338257,
                  0.07047779858112335,
                  -0.11654546111822128,
                  -0.17133624851703644,
                  0.05476672574877739,
                  0.09146185219287872,
                  0.030462710186839104,
                  0.052373629063367844,
                  0.12608318030834198,
                  0.14148016273975372,
                  0.006167761981487274,
                  0.1367626190185547,
                  -0.09175217896699905,
                  0.054308973252773285,
                  0.18786893784999847,
                  -0.016607969999313354,
                  0.04018126800656319,
                  -0.031963467597961426,
                  0.13922785222530365,
                  0.191817507147789,
                  -0.1927020400762558,
                  -0.15299709141254425,
                  -0.04485378786921501,
                  -0.1274244636297226,
                  -0.23915043473243713,
                  -0.04322286695241928,
                  -0.07856801897287369,
                  0.014057873748242855,
                  -0.1830022633075714,
                  -0.1555650383234024,
                  -0.12958456575870514,
                  -0.11601442098617554,
                  -0.17549626529216766,
                  -0.06453333795070648,
                  0.10909929871559143,
                  -0.17723752558231354,
                  0.1873820275068283,
                  0.07481040060520172,
                  0.02151753194630146,
                  -0.137661412358284,
                  0.0023679002188146114,
                  -0.09988038241863251,
                  -0.03356485441327095,
                  0.06574329733848572,
                  -0.1992044299840927,
                  0.17926163971424103,
                  0.1581735759973526,
                  0.04005679860711098,
                  0.0908750668168068,
                  0.09751575440168381,
                  0.10953111201524734,
                  0.14963188767433167,
                  -0.13853730261325836,
                  -0.1823449283838272,
                  -0.11308854073286057,
                  0.1717892438173294,
                  0.10323246568441391,
                  -0.10177741944789886,
                  0.07724763453006744,
                  -0.011089172214269638,
                  -0.07098089158535004,
                  0.04062655195593834,
                  0.13308599591255188,
                  -0.18576104938983917,
                  0.10589936375617981,
                  -0.18644705414772034,
                  -0.15946482121944427,
                  -0.016528543084859848,
                  0.14981429278850555,
                  -0.08721597492694855,
                  -0.17440463602542877,
                  -0.1572202444076538,
                  0.07493703067302704,
                  0.022197198122739792,
                  -0.11661455780267715,
                  0.1489248424768448,
                  -0.09201622754335403,
                  -0.037808340042829514,
                  0.14763318002223969,
                  -0.015980513766407967,
                  -0.135968416929245,
                  0.03296015411615372,
                  -0.12611344456672668,
                  -0.008480066433548927,
                  -0.18919800221920013,
                  0.1283360719680786,
                  -0.07598333805799484,
                  -0.04328827187418938,
                  -0.048366956412792206,
                  0.029040489345788956,
                  -0.021500172093510628,
                  -0.026102785021066666,
                  -0.04585456848144531,
                  -0.03685406222939491,
                  0.1845703423023224,
                  0.1598779708147049,
                  0.1526254266500473,
                  -0.17111948132514954,
                  0.1027948334813118,
                  -0.0471712164580822,
